{"learner":{"attributes":{"best_iteration":"1","best_score":"11.87310044627639","scikit_learn":"{\"_estimator_type\": \"regressor\"}"},"feature_names":["event_type_enc","event_cause_enc","priority_enc","corridor_enc","zone_enc","veh_type_enc","corridor_zone_enc","requires_road_closure","is_corridor","is_weekend","is_morning_peak","is_evening_peak","is_night","hour","hour_sin","hour_cos","day_of_week","month","latitude","longitude","geo_cluster","route_length_km","dist_silk_board_km","dist_mg_road_km","dist_hebbal_km","dist_whitefield_km","dist_electronic_city_km","dist_city_center_km","duration_log"],"feature_types":["int","int","int","int","int","int","int","int","int","int","int","int","int","int","float","float","int","int","float","float","int","float","float","float","float","float","float","float","float"],"gradient_booster":{"model":{"gbtree_model_param":{"num_parallel_tree":"1","num_trees":"22"},"iteration_indptr":[0,1,2,3,4,5,6,7,8,9,10,11,12,13,14,15,16,17,18,19,20,21,22],"tree_info":[0,0,0,0,0,0,0,0,0,0,0,0,0,0,0,0,0,0,0,0,0,0],"trees":[{"base_weights":[-4.924729E-3,-1.0426803E0,2.3120804E-1,-1.0674572E1,-8.896613E-1,1.6458818E-1,2.5988142E0,4.024144E-1,-1.2258295E1,9.051893E-1,-1.3012811E0,2.0912221E-1,-4.170796E0,7.2231646E0,1.6757381E0,1.6647364E0,-1.030227E0,-1.2671422E0,3.243813E0,-3.2079687E0,-5.383222E-1,2.9575682E-1,-1.5113767E0,6.480664E-1,-7.4735446E0,-6.439616E-1,8.186589E0,1.1920226E0,7.7937503E0,-2.168541E-3,1.7696586E-1,-2.1936749E-1,3.4297106E-1,5.502833E-1,6.154378E-2,4.1895784E-2,-2.891612E-1,-3.0712446E-2,-6.691671E-1,1.1995481E-2,1.0985723E-1,4.0134537E-1,-1.8919383E-1,-7.279318E-1,1.8752246E-1,-7.482699E-1,-1.6860491E-1,2.0126562E-1,-2.688816E-1,2.8750058E-2,6.052838E-1,1.04059726E-1,-3.9617237E-1,8.380231E-1,-6.046005E-1],"categories":[],"categories_nodes":[],"categories_segments":[],"categories_sizes":[],"default_left":[0,0,0,0,0,0,0,0,0,0,0,0,0,0,0,0,0,0,0,0,0,0,0,0,0,0,0,0,0,0,0,0,0,0,0,0,0,0,0,0,0,0,0,0,0,0,0,0,0,0,0,0,0,0,0],"id":0,"left_children":[1,3,5,7,9,11,13,-1,15,17,19,21,23,25,27,29,-1,31,33,35,37,39,41,43,45,47,49,51,53,-1,-1,-1,-1,-1,-1,-1,-1,-1,-1,-1,-1,-1,-1,-1,-1,-1,-1,-1,-1,-1,-1,-1,-1,-1,-1],"loss_changes":[1.2757164E3,1.4127803E3,6.685035E2,4.6062085E2,7.037729E2,7.974879E2,4.8305676E2,0E0,5.038606E2,9.083977E2,1.12423E3,6.093357E2,6.732939E2,1.4928003E2,2.8072864E2,4.470293E0,0E0,1.0859058E3,9.320642E2,7.7884985E2,4.9344656E2,6.160264E2,1.7072698E3,4.316828E2,3.8147424E2,4.4798862E1,5.7298462E1,1.9407962E2,5.839409E2,0E0,0E0,0E0,0E0,0E0,0E0,0E0,0E0,0E0,0E0,0E0,0E0,0E0,0E0,0E0,0E0,0E0,0E0,0E0,0E0,0E0,0E0,0E0,0E0,0E0,0E0],"parents":[2147483647,0,0,1,1,2,2,3,3,4,4,5,5,6,6,8,8,9,9,10,10,11,11,12,12,13,13,14,14,15,15,17,17,18,18,19,19,20,20,21,21,22,22,23,23,24,24,25,25,26,26,27,27,28,28],"right_children":[2,4,6,8,10,12,14,-1,16,18,20,22,24,26,28,30,-1,32,34,36,38,40,42,44,46,48,50,52,54,-1,-1,-1,-1,-1,-1,-1,-1,-1,-1,-1,-1,-1,-1,-1,-1,-1,-1,-1,-1,-1,-1,-1,-1,-1,-1],"split_conditions":[2E0,1.2874807E1,1.921591E1,1E0,7.7543434E1,1.7947153E1,1.9569756E1,4.024144E-1,1.27256775E1,7.0710677E-1,7.757424E1,1.3300646E-2,3E0,3E0,1E0,8E0,-1.030227E0,7.75354E1,7E0,-5E-1,7.775019E1,1.4184415E1,3E0,1E0,4E0,1E0,7.761768E1,5.6369056E-5,6E0,-2.168541E-3,1.7696586E-1,-2.1936749E-1,3.4297106E-1,5.502833E-1,6.154378E-2,4.1895784E-2,-2.891612E-1,-3.0712446E-2,-6.691671E-1,1.1995481E-2,1.0985723E-1,4.0134537E-1,-1.8919383E-1,-7.279318E-1,1.8752246E-1,-7.482699E-1,-1.6860491E-1,2.0126562E-1,-2.688816E-1,2.8750058E-2,6.052838E-1,1.04059726E-1,-3.9617237E-1,8.380231E-1,-6.046005E-1],"split_indices":[5,18,27,16,19,23,23,0,27,14,19,21,5,5,15,4,0,19,20,14,19,23,4,2,16,2,19,21,5,0,0,0,0,0,0,0,0,0,0,0,0,0,0,0,0,0,0,0,0,0,0,0,0,0,0],"split_type":[0,0,0,0,0,0,0,0,0,0,0,0,0,0,0,0,0,0,0,0,0,0,0,0,0,0,0,0,0,0,0,0,0,0,0,0,0,0,0,0,0,0,0,0,0,0,0,0,0,0,0,0,0,0,0],"sum_hessian":[5.204E3,9.64E2,4.24E3,1.4E1,9.5E2,4.125E3,1.15E2,1E0,1.3E1,1.77E2,7.73E2,4.084E3,4.1E1,1.8E1,9.7E1,2E0,1.1E1,9.2E1,8.5E1,2.2E2,5.53E2,3.889E3,1.95E2,1.7E1,2.4E1,2E0,1.6E1,9.1E1,6E0,1E0,1E0,7.1E1,2.1E1,2.8E1,5.7E1,4.3E1,1.77E2,5.48E2,5E0,3.544E3,3.45E2,2.7E1,1.68E2,2E0,1.5E1,1.4E1,1E1,1E0,1E0,1E0,1.5E1,8.8E1,3E0,5E0,1E0],"tree_param":{"num_deleted":"0","num_feature":"29","num_nodes":"55","size_leaf_vector":"1"}},{"base_weights":[-2.219831E-4,-1.9365427E-1,1.2411519E0,-3.0139885E0,-1.1667455E-1,3.1055825E0,3.2991862E-1,-4.275171E0,3.9152007E0,2.3688357E0,-1.797843E-1,3.4694195E0,-7.47005E0,-6.941774E-1,2.612732E0,-3.1605883E0,-1.237116E1,-5.338286E0,5.317863E0,5.5685983E0,9.0619403E-1,-2.6538486E0,-1.1040817E-1,-7.46024E-1,3.5805602E0,3.2791564E-1,-1.23023205E1,6.194749E-1,-2.9173892E0,3.5537848E0,-5.001739E-1,-1.5648027E-1,-7.9389834E-1,5.639731E-1,-1.0472473E0,-5.357642E-1,-2.4755841E-2,5.338631E-1,6.510891E-2,5.00537E-2,5.728439E-1,-1.5047851E-1,3.7880528E-1,-3.940432E-1,3.288917E-2,-3.3260204E-2,2.1030948E-2,-3.3836967E-1,2.6294243E-1,-1.1036004E0,1.7551376E-1,2.941736E-1,2.486911E-3,-2.8425616E-1,1.9426796E-1,6.0442947E-2,3.3249348E-1,1.1832378E-1,-7.958566E-1],"categories":[],"categories_nodes":[],"categories_segments":[],"categories_sizes":[],"default_left":[0,0,0,0,0,0,0,0,0,0,0,0,0,0,0,0,0,0,0,0,0,0,0,0,0,0,0,0,0,0,0,0,0,0,0,0,0,0,0,0,0,0,0,0,0,0,0,0,0,0,0,0,0,0,0,0,0,0,0],"id":1,"left_children":[1,3,5,7,9,11,13,15,17,19,21,23,25,27,29,31,33,35,37,39,41,43,45,-1,47,-1,49,51,53,55,57,-1,-1,-1,-1,-1,-1,-1,-1,-1,-1,-1,-1,-1,-1,-1,-1,-1,-1,-1,-1,-1,-1,-1,-1,-1,-1,-1,-1],"loss_changes":[1.2539163E3,9.8054474E2,1.1950231E3,1.0654148E3,6.9045264E2,9.1476E2,1.1099404E3,8.8131213E2,2.7499908E2,5.0508533E2,7.362185E2,3.898567E2,5.275033E2,9.597401E2,4.3240063E2,6.6338324E2,7.553158E2,3.1918777E1,1.6511969E2,4.256582E2,1.0579796E3,1.0900488E3,6.2577704E2,0E0,3.479563E2,0E0,3.472807E2,4.329542E2,8.0537366E2,3.5952625E2,8.525381E2,0E0,0E0,0E0,0E0,0E0,0E0,0E0,0E0,0E0,0E0,0E0,0E0,0E0,0E0,0E0,0E0,0E0,0E0,0E0,0E0,0E0,0E0,0E0,0E0,0E0,0E0,0E0,0E0],"parents":[2147483647,0,0,1,1,2,2,3,3,4,4,5,5,6,6,7,7,8,8,9,9,10,10,11,11,12,12,13,13,14,14,15,15,16,16,17,17,18,18,19,19,20,20,21,21,22,22,24,24,26,26,27,27,28,28,29,29,30,30],"right_children":[2,4,6,8,10,12,14,16,18,20,22,24,26,28,30,32,34,36,38,40,42,44,46,-1,48,-1,50,52,54,56,58,-1,-1,-1,-1,-1,-1,-1,-1,-1,-1,-1,-1,-1,-1,-1,-1,-1,-1,-1,-1,-1,-1,-1,-1,-1,-1,-1,-1],"split_conditions":[1.3173355E1,-9.659258E-1,3E0,1.2E1,9.1685116E-1,2.5892622E1,1.8762094E1,1.1867339E1,1.8588816E0,1.2246469E-16,1.3072098E0,1E0,1E0,1.6386286E1,8.660254E-1,2.6076857E-3,1E0,2E0,9.547099E0,6.5609484E0,1.1665438E0,1.6577663E1,7.758885E1,-7.46024E-1,1.3104502E1,3.2791564E-1,1.3267363E1,1E0,3.0910726E0,3E0,3.1807718E1,-1.5648027E-1,-7.9389834E-1,5.639731E-1,-1.0472473E0,-5.357642E-1,-2.4755841E-2,5.338631E-1,6.510891E-2,5.00537E-2,5.728439E-1,-1.5047851E-1,3.7880528E-1,-3.940432E-1,3.288917E-2,-3.3260204E-2,2.1030948E-2,-3.3836967E-1,2.6294243E-1,-1.1036004E0,1.7551376E-1,2.941736E-1,2.486911E-3,-2.8425616E-1,1.9426796E-1,6.0442947E-2,3.3249348E-1,1.1832378E-1,-7.958566E-1],"split_indices":[23,14,5,17,23,24,24,23,23,14,23,5,16,23,14,21,1,5,24,24,27,26,19,0,27,0,18,16,28,17,22,0,0,0,0,0,0,0,0,0,0,0,0,0,0,0,0,0,0,0,0,0,0,0,0,0,0,0,0],"split_type":[0,0,0,0,0,0,0,0,0,0,0,0,0,0,0,0,0,0,0,0,0,0,0,0,0,0,0,0,0,0,0,0,0,0,0,0,0,0,0,0,0,0,0,0,0,0,0,0,0,0,0,0,0,0,0,0,0,0,0],"sum_hessian":[5.22E3,4.517E3,7.03E2,1.19E2,4.398E3,2.3E2,4.73E2,1.01E2,1.8E1,1.08E2,4.29E3,2.23E2,7E0,3.27E2,1.46E2,9E1,1.1E1,2E0,1.6E1,3.3E1,7.5E1,1.16E2,4.174E3,1E0,2.22E2,2E0,5E0,2.06E2,1.21E2,1.12E2,3.4E1,8.2E1,8E0,1E0,1E1,1E0,1E0,1E1,6E0,1.2E1,2.1E1,4.5E1,3E1,5.9E1,5.7E1,2.211E3,1.963E3,4E0,2.18E2,4E0,1E0,2.8E1,1.78E2,1.01E2,2E1,3.5E1,7.7E1,2.9E1,5E0],"tree_param":{"num_deleted":"0","num_feature":"29","num_nodes":"59","size_leaf_vector":"1"}},{"base_weights":[1.2501395E-1,2.913183E-2,2.0522044E0,-5.0524073E0,7.021379E-2,7.630289E-1,3.610819E0,-7.411331E0,3.8962564E0,-4.251886E-2,1.7058539E0,1.425444E0,-9.7560924E-1,4.1945033E0,-3.5351782E0,1.2988065E0,-9.072424E0,4.9202566E0,2.0930047E0,-4.928462E-1,3.1250647E-1,2.032414E0,-1.1243223E1,-1.8142337E0,3.1793907E0,-7.172292E0,4.487698E0,-7.994661E0,1.63134E0,-5.009957E-1,5.121215E-1,-8.689928E-1,-2.702496E-1,8.061025E-2,3.9021733E-1,-2.1438742E-2,4.0915328E-1,-1.892468E-1,-2.5501188E-2,6.5134354E-2,-1.3012388E-2,1.8089591E-1,-2.1370076E-1,-1.0221868E0,4.295511E-1,2.4430034E-1,-2.7614805E-1,2.5327834E-1,-4.7054282E-1,-7.491791E-1,-3.9115716E-3,3.7390655E-1,5.0396126E-2,-1.10181965E-1,-8.225285E-1,-1.3505392E-1,3.253769E-1],"categories":[],"categories_nodes":[],"categories_segments":[],"categories_sizes":[],"default_left":[0,0,0,0,0,0,0,0,0,0,0,0,0,0,0,0,0,0,0,0,0,0,0,0,0,0,0,0,0,0,0,0,0,0,0,0,0,0,0,0,0,0,0,0,0,0,0,0,0,0,0,0,0,0,0,0,0],"id":2,"left_children":[1,3,5,7,9,11,13,15,17,19,21,23,-1,25,27,29,31,33,35,37,39,41,43,45,47,49,51,53,55,-1,-1,-1,-1,-1,-1,-1,-1,-1,-1,-1,-1,-1,-1,-1,-1,-1,-1,-1,-1,-1,-1,-1,-1,-1,-1,-1,-1],"loss_changes":[9.669102E2,1.0412299E3,4.9555823E2,8.732451E2,9.1225E2,1.3539321E3,4.8198096E2,4.7477014E2,6.3206635E0,7.402275E2,1.371791E3,7.558214E2,0E0,3.7878662E2,2.2040202E2,3.576467E2,4.223125E2,5.9093094E0,4.6801003E1,5.790029E2,7.975901E2,8.8340063E2,5.5669666E2,5.449593E2,3.9803125E2,7.477045E1,3.2428833E2,1.02075836E2,6.2679176E1,0E0,0E0,0E0,0E0,0E0,0E0,0E0,0E0,0E0,0E0,0E0,0E0,0E0,0E0,0E0,0E0,0E0,0E0,0E0,0E0,0E0,0E0,0E0,0E0,0E0,0E0,0E0,0E0],"parents":[2147483647,0,0,1,1,2,2,3,3,4,4,5,5,6,6,7,7,8,8,9,9,10,10,11,11,13,13,14,14,15,15,16,16,17,17,18,18,19,19,20,20,21,21,22,22,23,23,24,24,25,25,26,26,27,27,28,28],"right_children":[2,4,6,8,10,12,14,16,18,20,22,24,-1,26,28,30,32,34,36,38,40,42,44,46,48,50,52,54,56,-1,-1,-1,-1,-1,-1,-1,-1,-1,-1,-1,-1,-1,-1,-1,-1,-1,-1,-1,-1,-1,-1,-1,-1,-1,-1,-1,-1],"split_conditions":[1.833206E1,5.805338E0,1.3663209E1,2.1E1,4.5747185E0,1.9705837E1,2.3E1,4E0,7.76397E1,6.6893463E0,2.1E1,5E-1,-9.7560924E-1,1.236763E0,1.1E1,1.2888572E1,4.751381E0,2E0,1.2E1,1E0,9.403422E0,9.745118E-4,1E0,-5E-1,1.3645146E1,1E0,2.6802544E1,3.434962E0,4E0,-5.009957E-1,5.121215E-1,-8.689928E-1,-2.702496E-1,8.061025E-2,3.9021733E-1,-2.1438742E-2,4.0915328E-1,-1.892468E-1,-2.5501188E-2,6.5134354E-2,-1.3012388E-2,1.8089591E-1,-2.1370076E-1,-1.0221868E0,4.295511E-1,2.4430034E-1,-2.7614805E-1,2.5327834E-1,-4.7054282E-1,-7.491791E-1,-3.9115716E-3,3.7390655E-1,5.0396126E-2,-1.10181965E-1,-8.225285E-1,-1.3505392E-1,3.253769E-1],"split_indices":[24,26,22,13,28,27,13,1,19,27,3,15,0,25,17,18,22,17,17,13,27,21,10,15,22,11,27,25,1,0,0,0,0,0,0,0,0,0,0,0,0,0,0,0,0,0,0,0,0,0,0,0,0,0,0,0,0],"split_type":[0,0,0,0,0,0,0,0,0,0,0,0,0,0,0,0,0,0,0,0,0,0,0,0,0,0,0,0,0,0,0,0,0,0,0,0,0,0,0,0,0,0,0,0,0,0,0,0,0,0,0,0,0,0,0,0,0],"sum_hessian":[5.232E3,4.985E3,2.47E2,3.9E1,4.946E3,1.36E2,1.11E2,3.1E1,8E0,4.628E3,3.18E2,1.31E2,5E0,1.03E2,8E0,5E0,2.6E1,4E0,4E0,2.04E3,2.588E3,3.11E2,7E0,4.6E1,8.5E1,2E0,1.01E2,4E0,4E0,2E0,3E0,1.5E1,1.1E1,1E0,3E0,3E0,1E0,1.11E2,1.929E3,1.155E3,1.433E3,2.81E2,3E1,6E0,1E0,1.3E1,3.3E1,8.2E1,3E0,1E0,1E0,8.2E1,1.9E1,2E0,2E0,2E0,2E0],"tree_param":{"num_deleted":"0","num_feature":"29","num_nodes":"57","size_leaf_vector":"1"}},{"base_weights":[-1.3675953E-1,-3.3304346E-1,1.0950369E0,-2.6440695E-1,-3.9578247E0,1.7391348E0,-4.681813E-2,-1.1846373E0,-1.3725641E-1,-5.380341E0,2.4241414E0,2.1494749E0,-1.7549382E0,1.9579735E0,-9.761527E-1,-3.695774E0,-2.5110784E-1,-6.069534E-1,2.1099228E-1,-9.6052685E0,-3.7008517E0,5.9867406E0,-9.760342E0,1.1290574E0,3.490312E0,3.6163726E-1,-1.2647593E1,-7.62929E-1,5.200172E0,-2.0736308E0,2.6530883E0,-1.008347E0,-2.249697E-1,4.238134E-2,-1.7879795E-1,-2.6226182E-2,-1.6468163E-1,2.4661086E-2,-1.5732E-1,-2.16594E-1,-8.196745E-1,-1.1021185E0,-2.0215684E-1,-1.06614836E-1,6.6455644E-1,-9.97272E-1,1.2946025E-1,3.022922E-2,3.5844934E-1,1.7802082E-1,5.529745E-1,1.532962E-1,-3.492968E-1,-1.014297E0,8.713817E-3,-5.2698696E-1,7.6033466E-2,-3.853605E-1,4.163483E-1,-4.7123052E-2,-4.43628E-1,3.693301E-1,-2.5229406E-1],"categories":[],"categories_nodes":[],"categories_segments":[],"categories_sizes":[],"default_left":[0,0,0,0,0,0,0,0,0,0,0,0,0,0,0,0,0,0,0,0,0,0,0,0,0,0,0,0,0,0,0,0,0,0,0,0,0,0,0,0,0,0,0,0,0,0,0,0,0,0,0,0,0,0,0,0,0,0,0,0,0,0,0],"id":3,"left_children":[1,3,5,7,9,11,13,15,17,19,21,23,25,27,29,31,33,35,37,39,41,43,45,47,49,51,53,55,57,59,61,-1,-1,-1,-1,-1,-1,-1,-1,-1,-1,-1,-1,-1,-1,-1,-1,-1,-1,-1,-1,-1,-1,-1,-1,-1,-1,-1,-1,-1,-1,-1,-1],"loss_changes":[1.2682687E3,1.1244897E3,5.303528E2,5.19469E2,7.7563257E2,6.647346E2,4.8818622E2,1.2626064E3,6.3854706E2,4.54057E2,7.5296747E2,5.611316E2,1.1342748E3,7.3616895E2,7.184608E2,7.07208E2,7.788197E2,6.7306177E2,7.7965564E2,2.2409998E2,4.5383496E2,3.5683167E2,2.3469284E2,6.545819E2,7.232959E2,4.2187088E2,1.9005042E2,5.8364417E2,3.3689392E2,8.197828E2,7.083715E2,0E0,0E0,0E0,0E0,0E0,0E0,0E0,0E0,0E0,0E0,0E0,0E0,0E0,0E0,0E0,0E0,0E0,0E0,0E0,0E0,0E0,0E0,0E0,0E0,0E0,0E0,0E0,0E0,0E0,0E0,0E0,0E0],"parents":[2147483647,0,0,1,1,2,2,3,3,4,4,5,5,6,6,7,7,8,8,9,9,10,10,11,11,12,12,13,13,14,14,15,15,16,16,17,17,18,18,19,19,20,20,21,21,22,22,23,23,24,24,25,25,26,26,27,27,28,28,29,29,30,30],"right_children":[2,4,6,8,10,12,14,16,18,20,22,24,26,28,30,32,34,36,38,40,42,44,46,48,50,52,54,56,58,60,62,-1,-1,-1,-1,-1,-1,-1,-1,-1,-1,-1,-1,-1,-1,-1,-1,-1,-1,-1,-1,-1,-1,-1,-1,-1,-1,-1,-1,-1,-1,-1,-1],"split_conditions":[1.3173355E1,7.7705574E1,2.121531E1,1.2921151E1,9.659258E-1,1E0,3E0,7.393544E0,5E0,5E0,1.2E1,4E0,7.7747375E1,3.0162352E1,7.761949E1,7.757231E1,9.659258E-1,1.081504E1,8.3E1,1.2955943E1,-9.659258E-1,7.770861E1,1.936023E0,2.0484867E1,7.775019E1,2.5194185E0,1.1E1,2E0,-8.660254E-1,8.660254E-1,8.660254E-1,-1.008347E0,-2.249697E-1,4.238134E-2,-1.7879795E-1,-2.6226182E-2,-1.6468163E-1,2.4661086E-2,-1.5732E-1,-2.16594E-1,-8.196745E-1,-1.1021185E0,-2.0215684E-1,-1.06614836E-1,6.6455644E-1,-9.97272E-1,1.2946025E-1,3.022922E-2,3.5844934E-1,1.7802082E-1,5.529745E-1,1.532962E-1,-3.492968E-1,-1.014297E0,8.713817E-3,-5.2698696E-1,7.6033466E-2,-3.853605E-1,4.163483E-1,-4.7123052E-2,-4.43628E-1,3.693301E-1,-2.5229406E-1],"split_indices":[23,19,22,18,15,10,5,23,5,13,3,16,19,25,19,19,14,23,6,18,14,19,28,22,19,28,1,5,14,15,14,0,0,0,0,0,0,0,0,0,0,0,0,0,0,0,0,0,0,0,0,0,0,0,0,0,0,0,0,0,0,0,0],"split_type":[0,0,0,0,0,0,0,0,0,0,0,0,0,0,0,0,0,0,0,0,0,0,0,0,0,0,0,0,0,0,0,0,0,0,0,0,0,0,0,0,0,0,0,0,0,0,0,0,0,0,0,0,0,0,0,0,0,0,0,0,0,0,0],"sum_hessian":[5.243E3,4.523E3,7.2E2,4.44E3,8.3E1,4.6E2,2.6E2,5.38E2,3.902E3,6.8E1,1.5E1,4.12E2,4.8E1,8.2E1,1.78E2,1.45E2,3.93E2,1.661E3,2.241E3,1.8E1,5E1,1.2E1,3E0,2.35E2,1.77E2,4.1E1,7E0,4.5E1,3.7E1,1.37E2,4.1E1,5E0,1.4E2,2.87E2,1.06E2,1.467E3,1.94E2,2.12E3,1.21E2,5E0,1.3E1,2E0,4.8E1,4E0,8E0,2E0,1E0,2.01E2,3.4E1,1.47E2,3E1,3.1E1,1E1,6E0,1E0,9E0,3.6E1,2E0,3.5E1,1.04E2,3.3E1,2.9E1,1.2E1],"tree_param":{"num_deleted":"0","num_feature":"29","num_nodes":"63","size_leaf_vector":"1"}},{"base_weights":[1.3805229E-2,2.9853244E0,-6.6792935E-2,-7.2361608E0,3.6700017E0,-1.2551876E0,1.3479339E-1,1.7042141E0,-1.1990384E1,4.339877E0,-2.692715E0,-1.0612184E0,-7.238962E0,-1.910091E0,3.2532775E-1,-1.6140796E-1,2.666653E-1,1.20552026E-1,-1.0554131E0,6.5736403E0,2.4803421E0,6.034818E-1,-8.679015E0,2.4344136E-1,-1.975988E0,-8.949537E0,3.1236525E0,-1.7455137E0,-1.36080475E1,2.6736787E-1,4.9708567E0,3.5817292E-1,8.1697905E-1,4.0491337E-1,4.049441E-2,-9.4515854E-1,5.0792884E-2,6.960427E-2,-2.4934192E-1,1.7250551E-1,-1.7050415E-1,1.593863E-2,-7.880653E-1,-3.3938348E-1,5.177965E-1,2.4116898E-1,-1.5880837E-1,2.0364352E-1,-1.292526E0,1.4410402E-1,8.880289E-3,-4.7213998E-1,4.518836E-1],"categories":[],"categories_nodes":[],"categories_segments":[],"categories_sizes":[],"default_left":[0,0,0,0,0,0,0,0,0,0,0,0,0,0,0,0,0,0,0,0,0,0,0,0,0,0,0,0,0,0,0,0,0,0,0,0,0,0,0,0,0,0,0,0,0,0,0,0,0,0,0,0,0],"id":4,"left_children":[1,3,5,7,9,11,13,15,17,19,21,23,25,27,29,-1,-1,-1,-1,31,33,-1,35,37,39,41,43,45,47,49,51,-1,-1,-1,-1,-1,-1,-1,-1,-1,-1,-1,-1,-1,-1,-1,-1,-1,-1,-1,-1,-1,-1],"loss_changes":[1.2515815E3,9.923385E2,1.2190713E3,4.0297504E2,5.657759E2,8.4889124E2,1.6958613E3,4.2553272E1,2.7994513E2,4.7383862E2,9.5529126E2,8.550006E2,4.356538E2,6.9050305E2,1.0705724E3,0E0,0E0,0E0,0E0,3.3388354E2,4.1139578E2,0E0,4.1804523E2,8.493758E2,8.655206E2,4.2628333E2,1.7213486E2,1.00447815E3,4.548061E2,9.8961194E2,8.95819E2,0E0,0E0,0E0,0E0,0E0,0E0,0E0,0E0,0E0,0E0,0E0,0E0,0E0,0E0,0E0,0E0,0E0,0E0,0E0,0E0,0E0,0E0],"parents":[2147483647,0,0,1,1,2,2,3,3,4,4,5,5,6,6,7,7,8,8,9,9,10,10,11,11,12,12,13,13,14,14,19,19,20,20,22,22,23,23,24,24,25,25,26,26,27,27,28,28,29,29,30,30],"right_children":[2,4,6,8,10,12,14,16,18,20,22,24,26,28,30,-1,-1,-1,-1,32,34,-1,36,38,40,42,44,46,48,50,52,-1,-1,-1,-1,-1,-1,-1,-1,-1,-1,-1,-1,-1,-1,-1,-1,-1,-1,-1,-1,-1,-1],"split_conditions":[1.0209479E0,1.2969732E1,3.2742338E0,3E0,1.6229676E0,7.762497E1,3E0,1E0,1E0,2.5881904E-1,1.2977184E1,5E0,2.1E1,7.77572E1,7.775019E1,-1.6140796E-1,2.666653E-1,1.20552026E-1,-1.0554131E0,7.032738E0,3E0,6.034818E-1,7.451561E-1,1.8269112E1,1.0092128E-3,8E0,5E0,3.434962E0,3E0,4.4117002E0,2E0,3.5817292E-1,8.1697905E-1,4.0491337E-1,4.049441E-2,-9.4515854E-1,5.0792884E-2,6.960427E-2,-2.4934192E-1,1.7250551E-1,-1.7050415E-1,1.593863E-2,-7.880653E-1,-3.3938348E-1,5.177965E-1,2.4116898E-1,-1.5880837E-1,2.0364352E-1,-1.292526E0,1.4410402E-1,8.880289E-3,-4.7213998E-1,4.518836E-1],"split_indices":[23,18,23,16,27,19,4,4,0,14,18,4,13,19,19,0,0,0,0,24,16,0,28,25,28,1,1,25,1,27,16,0,0,0,0,0,0,0,0,0,0,0,0,0,0,0,0,0,0,0,0,0,0],"split_type":[0,0,0,0,0,0,0,0,0,0,0,0,0,0,0,0,0,0,0,0,0,0,0,0,0,0,0,0,0,0,0,0,0,0,0,0,0,0,0,0,0,0,0,0,0,0,0,0,0,0,0,0,0],"sum_hessian":[5.224E3,1.37E2,5.087E3,8E0,1.29E2,7.37E2,4.35E3,3E0,5E0,1.17E2,1.2E1,7.15E2,2.2E1,3.7E2,3.98E3,1E0,2E0,1E0,4E0,5.2E1,6.5E1,4E0,8E0,2.95E2,4.2E2,1.9E1,3E0,3.66E2,4E0,3.932E3,4.8E1,4.2E1,1E1,2.3E1,4.2E1,5E0,3E0,2.47E2,4.8E1,3.9E1,3.81E2,4E0,1.5E1,1E0,2E0,3.3E1,3.33E2,1E0,3E0,2.85E2,3.647E3,5E0,4.3E1],"tree_param":{"num_deleted":"0","num_feature":"29","num_nodes":"53","size_leaf_vector":"1"}},{"base_weights":[-2.0240974E-2,-3.4095192E-1,8.9906645E-1,-4.475844E-1,1.9629279E0,3.331637E0,6.643251E-1,-2.7803835E-1,-1.6857483E0,-1.0592602E1,2.4022708E0,4.5902586E0,1.5634695E0,5.037889E-1,2.8070393E0,-1.37221E-1,-1.840603E0,8.391751E0,-1.9119794E0,6.061447E-2,-9.1402435E-1,2.8282886E0,-3.3361485E0,-8.7700766E-1,5.4249654E0,-7.6897596E-3,5.3347645E0,5.918923E-1,-4.512459E0,1.9479278E0,7.65792E-1,-9.0450116E-2,6.225601E-3,-1.1399947E-1,-8.927074E-1,7.263764E-1,1.9739771E-1,-3.5407054E-1,-8.363569E-2,-1.5834415E-1,2.3701005E-1,5.8098733E-1,-5.6959045E-1,2.420427E-1,-3.040198E-1,4.74436E-1,9.173569E-4,1.0195901E-1,-5.471008E-1,7.337106E-2,5.1612765E-1,4.4974983E-2,-3.6089003E-1,2.4442555E-1,-7.097727E-1,-4.432823E-1,2.079096E-1],"categories":[],"categories_nodes":[],"categories_segments":[],"categories_sizes":[],"default_left":[0,0,0,0,0,0,0,0,0,0,0,0,0,0,0,0,0,0,0,0,0,0,0,0,0,0,0,0,0,0,0,0,0,0,0,0,0,0,0,0,0,0,0,0,0,0,0,0,0,0,0,0,0,0,0,0,0],"id":5,"left_children":[1,3,5,7,9,11,13,15,17,19,21,23,25,27,29,31,33,35,37,-1,-1,39,41,43,45,47,49,51,53,55,-1,-1,-1,-1,-1,-1,-1,-1,-1,-1,-1,-1,-1,-1,-1,-1,-1,-1,-1,-1,-1,-1,-1,-1,-1,-1,-1],"loss_changes":[1.5446362E3,9.550547E2,7.7152527E2,7.7898553E2,9.742295E2,2.5765222E2,4.2409314E2,7.1860583E2,1.0351355E3,1.8077063E2,4.176952E2,3.1964368E2,3.022316E2,5.1179565E2,5.7957385E2,7.831786E2,6.039697E2,8.13407E1,9.8225256E2,0E0,0E0,4.504215E2,7.378872E2,1.6526607E2,4.3914587E2,4.344011E2,1.23344604E2,3.3286182E2,9.362283E2,6.8749927E2,0E0,0E0,0E0,0E0,0E0,0E0,0E0,0E0,0E0,0E0,0E0,0E0,0E0,0E0,0E0,0E0,0E0,0E0,0E0,0E0,0E0,0E0,0E0,0E0,0E0,0E0,0E0],"parents":[2147483647,0,0,1,1,2,2,3,3,4,4,5,5,6,6,7,7,8,8,9,9,10,10,11,11,12,12,13,13,14,14,15,15,16,16,17,17,18,18,21,21,22,22,23,23,24,24,25,25,26,26,27,27,28,28,29,29],"right_children":[2,4,6,8,10,12,14,16,18,20,22,24,26,28,30,32,34,36,38,-1,-1,40,42,44,46,48,50,52,54,56,-1,-1,-1,-1,-1,-1,-1,-1,-1,-1,-1,-1,-1,-1,-1,-1,-1,-1,-1,-1,-1,-1,-1,-1,-1,-1,-1],"split_conditions":[1.3024561E1,1.9146294E1,2.1879559E1,1.3008362E1,6.212656E0,5E-1,1.921591E1,1E0,4.4117002E0,-5E-1,2.5892622E1,2.0505245E1,1.3431896E1,1.5792503E1,1E0,6.6847806E0,1.3007777E1,1.1E1,1.3011486E1,6.061447E-2,-9.1402435E-1,2E0,7.0710677E-1,-7.0710677E-1,1.3038913E1,1.3312543E1,9.659258E-1,1.8752783E1,3E0,1E0,7.65792E-1,-9.0450116E-2,6.225601E-3,-1.1399947E-1,-8.927074E-1,7.263764E-1,1.9739771E-1,-3.5407054E-1,-8.363569E-2,-1.5834415E-1,2.3701005E-1,5.8098733E-1,-5.6959045E-1,2.420427E-1,-3.040198E-1,4.74436E-1,9.173569E-4,1.0195901E-1,-5.471008E-1,7.337106E-2,5.1612765E-1,4.4974983E-2,-3.6089003E-1,2.4442555E-1,-7.097727E-1,-4.432823E-1,2.079096E-1],"split_indices":[18,24,26,18,22,14,27,14,27,15,24,26,22,24,15,24,18,1,18,0,0,5,15,14,18,22,14,27,5,0,0,0,0,0,0,0,0,0,0,0,0,0,0,0,0,0,0,0,0,0,0,0,0,0,0,0,0],"split_type":[0,0,0,0,0,0,0,0,0,0,0,0,0,0,0,0,0,0,0,0,0,0,0,0,0,0,0,0,0,0,0,0,0,0,0,0,0,0,0,0,0,0,0,0,0,0,0,0,0,0,0,0,0,0,0,0,0],"sum_hessian":[5.237E3,3.883E3,1.354E3,3.712E3,1.71E2,1.18E2,1.236E3,3.266E3,4.46E2,5E0,1.66E2,6.8E1,5E1,1.151E3,8.5E1,2.997E3,2.69E2,9E0,4.37E2,1E0,4E0,1.55E2,1.1E1,9E0,5.9E1,3.6E1,1.4E1,1.132E3,1.9E1,7.8E1,7E0,4.9E2,2.507E3,2.65E2,4E0,6E0,3E0,8E1,3.57E2,1.5E1,1.4E2,3E0,8E0,4E0,5E0,4.7E1,1.2E1,3.1E1,5E0,5E0,9E0,1.123E3,9E0,8E0,1.1E1,8E0,7E1],"tree_param":{"num_deleted":"0","num_feature":"29","num_nodes":"57","size_leaf_vector":"1"}},{"base_weights":[-7.944572E-2,-1.8390965E-1,1.5861301E0,-2.4832024E-1,2.3459775E0,1.9846007E0,-6.9235077E0,-1.583805E0,-1.471959E-1,6.4109955E0,1.3368218E0,3.4943235E-1,3.743976E0,6.1238873E-1,-1.0264528E1,-7.3233163E-1,-4.099557E0,1.2609138E0,-2.4740112E-1,7.4198585E0,2.1477635E0,-1.3504652E0,2.8938503E0,7.6372886E-1,-9.997169E0,4.433414E0,-2.3888254E0,-1.3343984E1,-3.2844932E0,-1.4025308E-1,1.4651515E-1,-5.8488774E-1,-1.3819842E-1,1.4441152E-1,-1.9771269E-1,-3.347106E-2,3.3325724E-2,3.2209817E-2,5.4466623E-1,3.9573282E-1,-2.2695686E-1,4.9178127E-2,-5.470967E-1,4.6561833E-2,5.1236767E-1,4.2011288E-1,-6.6409195E-3,-1.099413E0,6.628038E-2,6.5978557E-1,2.545271E-1,7.160008E-1,-5.5347914E-1,-1.1184705E0,1.7833145E-1,2.3096684E-1,-4.028766E-1],"categories":[],"categories_nodes":[],"categories_segments":[],"categories_sizes":[],"default_left":[0,0,0,0,0,0,0,0,0,0,0,0,0,0,0,0,0,0,0,0,0,0,0,0,0,0,0,0,0,0,0,0,0,0,0,0,0,0,0,0,0,0,0,0,0,0,0,0,0,0,0,0,0,0,0,0,0],"id":6,"left_children":[1,3,5,7,9,11,13,15,17,19,21,23,25,-1,27,29,31,33,35,37,39,41,43,45,47,49,51,53,55,-1,-1,-1,-1,-1,-1,-1,-1,-1,-1,-1,-1,-1,-1,-1,-1,-1,-1,-1,-1,-1,-1,-1,-1,-1,-1,-1,-1],"loss_changes":[9.080111E2,8.006745E2,1.0581189E3,6.4652124E2,4.9190234E2,8.4736975E2,8.22841E2,7.188841E2,6.2863E2,8.728833E1,4.1814215E2,6.677655E2,6.1099316E2,0E0,2.1410828E2,9.129423E2,7.5234705E2,9.7579407E2,6.944E2,4.416797E1,1.3169943E2,4.9659647E2,6.1652856E2,6.7065845E2,3.8973053E2,4.7520117E2,1.1252223E3,3.7559436E2,1.0033184E2,0E0,0E0,0E0,0E0,0E0,0E0,0E0,0E0,0E0,0E0,0E0,0E0,0E0,0E0,0E0,0E0,0E0,0E0,0E0,0E0,0E0,0E0,0E0,0E0,0E0,0E0,0E0,0E0],"parents":[2147483647,0,0,1,1,2,2,3,3,4,4,5,5,6,6,7,7,8,8,9,9,10,10,11,11,12,12,14,14,15,15,16,16,17,17,18,18,19,19,20,20,21,21,22,22,23,23,24,24,25,25,26,26,27,27,28,28],"right_children":[2,4,6,8,10,12,14,16,18,20,22,24,26,-1,28,30,32,34,36,38,40,42,44,46,48,50,52,54,56,-1,-1,-1,-1,-1,-1,-1,-1,-1,-1,-1,-1,-1,-1,-1,-1,-1,-1,-1,-1,-1,-1,-1,-1,-1,-1,-1,-1],"split_conditions":[4.5747185E0,1.921591E1,2E1,1.7517276E0,1.9569756E1,1.6418318E1,6.0647845E0,1.474595E0,1E1,1E0,2.1021145E1,1.2976758E1,1.5371094E-3,6.1238873E-1,7.771836E1,1.2978411E1,2.5881904E-1,1E0,7E0,7.761768E1,4E0,8.660254E-1,7.0710677E-1,8E0,8.660254E-1,1.689808E1,1E0,1E0,1.2959087E1,-1.4025308E-1,1.4651515E-1,-5.8488774E-1,-1.3819842E-1,1.4441152E-1,-1.9771269E-1,-3.347106E-2,3.3325724E-2,3.2209817E-2,5.4466623E-1,3.9573282E-1,-2.2695686E-1,4.9178127E-2,-5.470967E-1,4.6561833E-2,5.1236767E-1,4.2011288E-1,-6.6409195E-3,-1.099413E0,6.628038E-2,6.5978557E-1,2.545271E-1,7.160008E-1,-5.5347914E-1,-1.1184705E0,1.7833145E-1,2.3096684E-1,-4.028766E-1],"split_indices":[28,27,3,23,23,26,23,27,6,11,23,18,21,0,19,18,15,11,20,19,1,15,15,4,15,26,0,7,18,0,0,0,0,0,0,0,0,0,0,0,0,0,0,0,0,0,0,0,0,0,0,0,0,0,0,0,0],"split_type":[0,0,0,0,0,0,0,0,0,0,0,0,0,0,0,0,0,0,0,0,0,0,0,0,0,0,0,0,0,0,0,0,0,0,0,0,0,0,0,0,0,0,0,0,0,0,0,0,0,0,0,0,0,0,0,0,0],"sum_hessian":[5.216E3,4.909E3,3.07E2,4.788E3,1.21E2,2.94E2,1.3E1,3.36E2,4.452E3,2.3E1,9.8E1,1.53E2,1.41E2,2E0,1.1E1,2.52E2,8.4E1,2.95E2,4.157E3,1.8E1,5E0,3.6E1,6.2E1,1.48E2,5E0,1.27E2,1.4E1,7E0,4E0,1.74E2,7.8E1,2.7E1,5.7E1,2.47E2,4.8E1,3.152E3,1.005E3,1E0,1.7E1,3E0,2E0,2.8E1,8E0,4.2E1,2E1,2E1,1.28E2,3E0,2E0,1.6E1,1.11E2,4E0,1E1,6E0,1E0,1E0,3E0],"tree_param":{"num_deleted":"0","num_feature":"29","num_nodes":"57","size_leaf_vector":"1"}},{"base_weights":[-6.392792E-2,-2.2532323E-1,1.0473586E0,4.900658E0,-2.4762414E-1,-1.097278E0,1.1210033E0,-3.2489676E0,7.1411247E0,1.4868395E-1,-5.378772E-1,2.8516011E0,2.971632E-1,-7.4140924E-1,1.2345705E0,-1.4921792E-1,8.618075E0,3.908571E-1,-1.4824766E0,-1.3017637E0,-1.7414631E-1,3.3203654E0,-3.619947E0,2.285718E0,-3.704615E-1,-1.817812E-2,1.2734532E-1,8.5321254E-1,3.696043E-1,-1.0662328E0,2.9936766E-2,-1.6782822E-2,-2.3941387E-1,-6.043503E-1,-8.370964E-2,9.583037E-4,-1.6763167E-1,2.9288903E-1,3.8888212E-2,-6.379426E-1,6.4328486E-1,2.1106614E-1,-5.4300606E-1,-6.0157485E-2,3.1715602E-1],"categories":[],"categories_nodes":[],"categories_segments":[],"categories_sizes":[],"default_left":[0,0,0,0,0,0,0,0,0,0,0,0,0,0,0,0,0,0,0,0,0,0,0,0,0,0,0,0,0,0,0,0,0,0,0,0,0,0,0,0,0,0,0,0,0],"id":7,"left_children":[1,3,5,7,9,-1,11,13,15,17,19,21,23,-1,25,-1,27,29,31,33,35,37,39,41,43,-1,-1,-1,-1,-1,-1,-1,-1,-1,-1,-1,-1,-1,-1,-1,-1,-1,-1,-1,-1],"loss_changes":[9.461619E2,5.277442E2,8.414726E2,3.8838058E2,5.277208E2,0E0,9.5011835E2,1.7768002E2,2.3749866E2,7.6692456E2,7.3551776E2,6.642501E2,6.0225323E2,0E0,3.9668908E0,0E0,1.0250818E2,9.784149E2,6.0360034E2,6.5282715E2,7.487415E2,4.7769385E2,1.1393083E3,8.58606E2,8.1866284E2,0E0,0E0,0E0,0E0,0E0,0E0,0E0,0E0,0E0,0E0,0E0,0E0,0E0,0E0,0E0,0E0,0E0,0E0,0E0,0E0],"parents":[2147483647,0,0,1,1,2,2,3,3,4,4,6,6,7,7,8,8,9,9,10,10,11,11,12,12,14,14,16,16,17,17,18,18,19,19,20,20,21,21,22,22,23,23,24,24],"right_children":[2,4,6,8,10,-1,12,14,16,18,20,22,24,-1,26,-1,28,30,32,34,36,38,40,42,44,-1,-1,-1,-1,-1,-1,-1,-1,-1,-1,-1,-1,-1,-1,-1,-1,-1,-1,-1,-1],"split_conditions":[1.3389945E1,8.3780676E-1,1E0,6E0,3E0,-1.097278E0,3E0,4E0,4E0,1.3903066E1,4E0,2.3829123E1,-5E-1,-7.4140924E-1,1E1,-1.4921792E-1,1.3676528E1,8.518408E0,1.1029177E1,6.6401906E0,8.2E1,8.660254E-1,4E0,1E0,1E0,-1.817812E-2,1.2734532E-1,8.5321254E-1,3.696043E-1,-1.0662328E0,2.9936766E-2,-1.6782822E-2,-2.3941387E-1,-6.043503E-1,-8.370964E-2,9.583037E-4,-1.6763167E-1,2.9288903E-1,3.8888212E-2,-6.379426E-1,6.4328486E-1,2.1106614E-1,-5.4300606E-1,-6.0157485E-2,3.1715602E-1],"split_indices":[23,24,5,13,16,0,5,1,5,24,5,24,14,0,6,0,22,26,26,26,6,14,16,7,14,0,0,0,0,0,0,0,0,0,0,0,0,0,0,0,0,0,0,0,0],"split_type":[0,0,0,0,0,0,0,0,0,0,0,0,0,0,0,0,0,0,0,0,0,0,0,0,0,0,0,0,0,0,0,0,0,0,0,0,0,0,0,0,0,0,0,0,0],"sum_hessian":[5.273E3,4.605E3,6.68E2,1.9E1,4.586E3,2E0,6.66E2,4E0,1.5E1,1.939E3,2.647E3,2.14E2,4.52E2,1E0,3E0,2E0,1.3E1,1.689E3,2.5E2,8.53E2,1.794E3,2E2,1.4E1,1.13E2,3.39E2,1E0,2E0,5E0,8E0,3E0,1.686E3,1.53E2,9.7E1,1.1E1,8.42E2,1.655E3,1.39E2,1.52E2,4.8E1,1E1,4E0,1.06E2,7E0,3.09E2,3E1],"tree_param":{"num_deleted":"0","num_feature":"29","num_nodes":"45","size_leaf_vector":"1"}},{"base_weights":[9.694493E-2,-6.2529415E-1,2.9026312E-1,-2.5994295E-2,-3.4486659E0,4.085096E-1,-1.2242595E0,-4.0595478E-1,3.257938E0,-6.021725E-1,-5.4409227E0,-1.5161543E0,4.785099E-1,3.5248256E0,-1.8445365E0,-1.3316115E0,8.3116055E-1,3.8270018E0,-7.7506113E0,6.8404956E0,-1.5115128E0,-1.7777823E0,-6.347235E0,1.6022329E0,-2.709854E0,2.617208E0,3.8630414E-1,5.9538875E0,-1.6270337E0,-1.3567802E0,-7.7761016E0,5.3303838E-2,-1.4530171E-1,1.8674146E-1,-4.9924884E-2,3.2571754E-1,-1.0412952E-1,-8.671299E-1,3.779029E-1,-4.3377268E-1,6.4713216E-1,-3.1247774E-1,4.5650695E-2,3.204584E-1,-5.25552E-1,-9.811735E-1,-3.9486673E-1,5.7893425E-1,-9.945451E-2,-1.0721741E0,-1.4073114E-1,2.0083532E-1,-1.248336E0,-1.6194639E-1,3.16071E-2,2.9189363E-2,6.087392E-1,4.7420782E-1,-2.789332E-1,-5.2309357E-2,-4.717497E-1,2.8084692E-1,-6.5161574E-1],"categories":[],"categories_nodes":[],"categories_segments":[],"categories_sizes":[],"default_left":[0,0,0,0,0,0,0,0,0,0,0,0,0,0,0,0,0,0,0,0,0,0,0,0,0,0,0,0,0,0,0,0,0,0,0,0,0,0,0,0,0,0,0,0,0,0,0,0,0,0,0,0,0,0,0,0,0,0,0,0,0,0,0],"id":8,"left_children":[1,3,5,7,9,11,13,15,17,19,21,23,25,27,29,31,33,35,37,39,41,43,45,47,49,51,53,55,57,59,61,-1,-1,-1,-1,-1,-1,-1,-1,-1,-1,-1,-1,-1,-1,-1,-1,-1,-1,-1,-1,-1,-1,-1,-1,-1,-1,-1,-1,-1,-1,-1,-1],"loss_changes":[7.326383E2,1.8746975E3,7.417411E2,1.1430271E3,1.0968872E3,5.1807745E2,8.9022644E2,9.412701E2,6.247955E2,5.585409E2,3.671902E2,5.0686816E2,7.2981335E2,4.476837E2,7.590298E2,7.336192E2,1.0003002E3,4.0644763E2,3.717378E2,3.3939066E2,4.692443E2,9.0843066E2,4.1386523E2,7.7776276E2,8.33311E2,8.39245E2,6.268979E2,3.6079718E2,2.6469363E2,8.052854E2,3.987019E2,0E0,0E0,0E0,0E0,0E0,0E0,0E0,0E0,0E0,0E0,0E0,0E0,0E0,0E0,0E0,0E0,0E0,0E0,0E0,0E0,0E0,0E0,0E0,0E0,0E0,0E0,0E0,0E0,0E0,0E0,0E0,0E0],"parents":[2147483647,0,0,1,1,2,2,3,3,4,4,5,5,6,6,7,7,8,8,9,9,10,10,11,11,12,12,13,13,14,14,15,15,16,16,17,17,18,18,19,19,20,20,21,21,22,22,23,23,24,24,25,25,26,26,27,27,28,28,29,29,30,30],"right_children":[2,4,6,8,10,12,14,16,18,20,22,24,26,28,30,32,34,36,38,40,42,44,46,48,50,52,54,56,58,60,62,-1,-1,-1,-1,-1,-1,-1,-1,-1,-1,-1,-1,-1,-1,-1,-1,-1,-1,-1,-1,-1,-1,-1,-1,-1,-1,-1,-1,-1,-1,-1,-1],"split_conditions":[3.516984E0,9.05125E0,8.3E1,8.63071E0,3E0,1.1256038E0,5.3936167E0,7.0710677E-1,1E0,1.7357647E-2,2.7105603E0,3E0,2.7006712E0,8.660254E-1,8E0,1E1,1.696501E1,1E0,3.2742338E0,2.354285E0,9.42364E0,4E0,-5E-1,1.4871419E1,1.4281229E1,9E0,3.1407192E0,1.6683934E-2,1.2975131E1,7.451561E-1,6.078958E0,5.3303838E-2,-1.4530171E-1,1.8674146E-1,-4.9924884E-2,3.2571754E-1,-1.0412952E-1,-8.671299E-1,3.779029E-1,-4.3377268E-1,6.4713216E-1,-3.1247774E-1,4.5650695E-2,3.204584E-1,-5.25552E-1,-9.811735E-1,-3.9486673E-1,5.7893425E-1,-9.945451E-2,-1.0721741E0,-1.4073114E-1,2.0083532E-1,-1.248336E0,-1.6194639E-1,3.16071E-2,2.9189363E-2,6.087392E-1,4.7420782E-1,-2.789332E-1,-5.2309357E-2,-4.717497E-1,2.8084692E-1,-6.5161574E-1],"split_indices":[27,22,6,22,17,22,27,15,15,28,27,5,22,15,5,1,25,14,23,23,22,17,15,25,25,5,22,28,18,28,27,0,0,0,0,0,0,0,0,0,0,0,0,0,0,0,0,0,0,0,0,0,0,0,0,0,0,0,0,0,0,0,0],"split_type":[0,0,0,0,0,0,0,0,0,0,0,0,0,0,0,0,0,0,0,0,0,0,0,0,0,0,0,0,0,0,0,0,0,0,0,0,0,0,0,0,0,0,0,0,0,0,0,0,0,0,0,0,0,0,0,0,0,0,0,0,0,0,0],"sum_hessian":[5.245E3,1.107E3,4.138E3,9.14E2,1.93E2,3.839E3,2.99E2,8.2E2,9.4E1,8E1,1.13E2,1.34E2,3.705E3,3.4E1,2.65E2,4.69E2,3.51E2,9E1,4E0,8E0,7.2E1,2.3E1,9E1,3.7E1,9.7E1,1.52E2,3.553E3,2.3E1,1.1E1,2.46E2,1.9E1,1.23E2,3.46E2,1.6E2,1.91E2,7.8E1,1.2E1,3E0,1E0,1E0,7E0,3E1,4.2E1,1.1E1,1.2E1,6E0,8.4E1,1.1E1,2.6E1,4E0,9.3E1,1.51E2,1E0,8.3E1,3.47E3,8E0,1.5E1,2E0,9E0,2.22E2,2.4E1,2E0,1.7E1],"tree_param":{"num_deleted":"0","num_feature":"29","num_nodes":"63","size_leaf_vector":"1"}},{"base_weights":[-1.4563359E-2,-4.4356117E-1,3.0654848E-1,-9.400649E-1,5.120272E-1,9.64121E-1,-1.251295E-1,-2.5460052E0,-5.3065825E-1,-1.3932864E-1,2.9615028E0,4.142409E0,7.134659E-1,3.4376738E0,-2.9970455E-1,1.8287944E0,-3.147219E0,-4.446274E-1,-5.511118E0,-9.902256E0,3.9890572E-2,5.79851E0,1.4080036E0,-8.390553E-1,5.7401333E0,8.7205774E-1,-3.6518703E0,-1.4569958E-1,6.3379693E0,-5.9427834E-1,1.00881E0,-1.757615E-1,4.9573934E-1,-1.7989182E-1,-6.585138E-1,-2.7076684E-2,-5.4751074E-1,2.08508E-2,-9.983282E-1,-7.9161756E-2,-1.1916279E0,1.4587753E-2,-4.9197194E-1,3.061479E-1,6.2258774E-1,5.5562E-1,5.557966E-2,5.0795794E-1,-2.5528783E-1,-3.6510608E-1,4.314802E-1,4.897878E-2,3.3450735E-1,-5.10861E-1,2.3662712E-1,-6.929875E-1,1.1059309E-1,5.0930667E-1,-3.8939363E-1,-1.3812368E-1,-1.9974817E-2,9.927698E-2,-3.0254492E-1],"categories":[],"categories_nodes":[],"categories_segments":[],"categories_sizes":[],"default_left":[0,0,0,0,0,0,0,0,0,0,0,0,0,0,0,0,0,0,0,0,0,0,0,0,0,0,0,0,0,0,0,0,0,0,0,0,0,0,0,0,0,0,0,0,0,0,0,0,0,0,0,0,0,0,0,0,0,0,0,0,0,0,0],"id":9,"left_children":[1,3,5,7,9,11,13,15,17,19,21,23,25,27,29,31,33,35,37,39,41,43,45,47,49,51,53,55,57,59,61,-1,-1,-1,-1,-1,-1,-1,-1,-1,-1,-1,-1,-1,-1,-1,-1,-1,-1,-1,-1,-1,-1,-1,-1,-1,-1,-1,-1,-1,-1,-1,-1],"loss_changes":[7.2500946E2,1.0694244E3,8.5453796E2,9.736958E2,1.2305278E3,9.474529E2,1.1317837E3,7.974426E2,5.044331E2,1.0677146E3,7.0581665E2,6.972499E2,7.695679E2,8.843149E2,6.689769E2,8.612767E2,9.335847E2,4.9344177E2,1.02090375E3,6.67819E2,7.160707E2,2.1253589E2,4.1866467E2,5.265626E2,3.3864697E2,7.1646576E2,1.0246543E3,6.720779E2,5.650404E2,6.02625E2,7.023904E2,0E0,0E0,0E0,0E0,0E0,0E0,0E0,0E0,0E0,0E0,0E0,0E0,0E0,0E0,0E0,0E0,0E0,0E0,0E0,0E0,0E0,0E0,0E0,0E0,0E0,0E0,0E0,0E0,0E0,0E0,0E0,0E0],"parents":[2147483647,0,0,1,1,2,2,3,3,4,4,5,5,6,6,7,7,8,8,9,9,10,10,11,11,12,12,13,13,14,14,15,15,16,16,17,17,18,18,19,19,20,20,21,21,22,22,23,23,24,24,25,25,26,26,27,27,28,28,29,29,30,30],"right_children":[2,4,6,8,10,12,14,16,18,20,22,24,26,28,30,32,34,36,38,40,42,44,46,48,50,52,54,56,58,60,62,-1,-1,-1,-1,-1,-1,-1,-1,-1,-1,-1,-1,-1,-1,-1,-1,-1,-1,-1,-1,-1,-1,-1,-1,-1,-1,-1,-1,-1,-1,-1,-1],"split_conditions":[6.7443123E0,7.75954E1,9.439018E0,5E0,1.6372456E1,1.2997883E1,1E0,1E0,7.3166823E0,1E0,8E0,5E0,9.124469E-3,1.1507913E1,1.7829945E1,1.9E1,7.759169E1,7.759514E1,7.756013E1,7.76414E1,1.3010007E1,7.7598175E1,1.6476152E1,-5E-1,8.080635E0,3.8918338E0,1.3046951E1,7E0,8.2E1,7E0,2.5892622E1,-1.757615E-1,4.9573934E-1,-1.7989182E-1,-6.585138E-1,-2.7076684E-2,-5.4751074E-1,2.08508E-2,-9.983282E-1,-7.9161756E-2,-1.1916279E0,1.4587753E-2,-4.9197194E-1,3.061479E-1,6.2258774E-1,5.5562E-1,5.557966E-2,5.0795794E-1,-2.5528783E-1,-3.6510608E-1,4.314802E-1,4.897878E-2,3.3450735E-1,-5.10861E-1,2.3662712E-1,-6.929875E-1,1.1059309E-1,5.0930667E-1,-3.8939363E-1,-1.3812368E-1,-1.9974817E-2,9.927698E-2,-3.0254492E-1],"split_indices":[27,19,24,1,25,18,13,16,23,1,4,1,21,23,24,13,19,19,19,19,18,19,25,14,24,28,18,4,6,4,24,0,0,0,0,0,0,0,0,0,0,0,0,0,0,0,0,0,0,0,0,0,0,0,0,0,0,0,0,0,0,0,0],"split_type":[0,0,0,0,0,0,0,0,0,0,0,0,0,0,0,0,0,0,0,0,0,0,0,0,0,0,0,0,0,0,0,0,0,0,0,0,0,0,0,0,0,0,0,0,0,0,0,0,0,0,0,0,0,0,0,0,0,0,0,0,0,0,0],"sum_hessian":[5.261E3,2.252E3,3.009E3,1.482E3,7.7E2,1.192E3,1.817E3,3E2,1.182E3,6.09E2,1.61E2,8.6E1,1.106E3,8.4E1,1.733E3,3.6E1,2.64E2,1.163E3,1.9E1,1E1,5.99E2,5.6E1,1.05E2,2.1E1,6.5E1,1.068E3,3.8E1,3.8E1,4.6E1,1.415E3,3.18E2,2E1,1.6E1,2.43E2,2.1E1,1.155E3,8E0,1.2E1,7E0,5E0,5E0,5.86E2,1.3E1,4E1,1.6E1,8E0,9.7E1,5E0,1.6E1,2E0,6.3E1,1.024E3,4.4E1,2.5E1,1.3E1,5E0,3.3E1,4.3E1,3E0,2.58E2,1.157E3,2.96E2,2.2E1],"tree_param":{"num_deleted":"0","num_feature":"29","num_nodes":"63","size_leaf_vector":"1"}},{"base_weights":[4.864338E-2,1.2393963E-1,-2.1321826E0,2.11085E-2,1.7269459E0,4.8234735E0,-3.5664706E0,-3.5868326E-1,5.1262605E-1,-8.897906E0,2.0836747E0,5.536031E0,-5.5442405E-1,-1.0279698E1,-2.5258534E0,-4.3451115E-1,5.174079E0,-1.8224652E0,6.306115E-1,-9.4053006E-1,1.268486E0,8.6235075E0,1.9169065E0,7.0605736E0,-1.4848124E0,-4.4414296E0,-1.2426497E0,3.2650769E0,-3.8506734E0,-6.4001985E-2,5.884639E-3,2.4887084E-4,5.0138235E-1,1.3287666E-1,-2.9907918E-1,2.3319893E-2,1.183794E-1,-1.8019225E-1,2.3852019E-1,6.727829E-1,9.44107E-2,-2.198517E-1,1.6880457E-1,6.3910276E-1,1.8179114E-1,5.902011E-2,-2.865672E-1,7.127094E-2,-7.0494956E-1,-5.889565E-1,3.7338835E-1,-1.3600755E-1,-5.143012E-1],"categories":[],"categories_nodes":[],"categories_segments":[],"categories_sizes":[],"default_left":[0,0,0,0,0,0,0,0,0,0,0,0,0,0,0,0,0,0,0,0,0,0,0,0,0,0,0,0,0,0,0,0,0,0,0,0,0,0,0,0,0,0,0,0,0,0,0,0,0,0,0,0,0],"id":10,"left_children":[1,3,5,7,9,11,13,15,17,19,21,23,-1,25,27,29,31,33,35,-1,37,39,41,43,45,47,-1,49,51,-1,-1,-1,-1,-1,-1,-1,-1,-1,-1,-1,-1,-1,-1,-1,-1,-1,-1,-1,-1,-1,-1,-1,-1],"loss_changes":[8.511903E2,8.2580664E2,1.7431227E3,8.792332E2,1.1631785E3,3.1626825E2,9.800049E2,1.11696E3,5.6676434E2,4.784187E2,3.0302625E2,3.2088733E2,0E0,7.500514E2,9.792373E2,6.524697E2,3.7011652E2,9.106017E2,6.161881E2,0E0,4.1648293E1,3.733307E1,7.2548914E2,1.9798145E2,3.989358E1,3.7905585E2,0E0,6.2481085E2,6.727632E2,0E0,0E0,0E0,0E0,0E0,0E0,0E0,0E0,0E0,0E0,0E0,0E0,0E0,0E0,0E0,0E0,0E0,0E0,0E0,0E0,0E0,0E0,0E0,0E0],"parents":[2147483647,0,0,1,1,2,2,3,3,4,4,5,5,6,6,7,7,8,8,9,9,10,10,11,11,13,13,14,14,15,15,16,16,17,17,18,18,20,20,21,21,22,22,23,23,24,24,25,25,27,27,28,28],"right_children":[2,4,6,8,10,12,14,16,18,20,22,24,-1,26,28,30,32,34,36,-1,38,40,42,44,46,48,-1,50,52,-1,-1,-1,-1,-1,-1,-1,-1,-1,-1,-1,-1,-1,-1,-1,-1,-1,-1,-1,-1,-1,-1,-1,-1],"split_conditions":[2E1,3.8918338E0,5.7632866E0,7.75954E1,1.0890044E0,7.43221E-3,6.038409E0,2.0010263E1,3.0067956E0,7.762497E1,1.6149479E0,2.2E1,-5.5442405E-1,5.989181E0,1.7357647E-2,1.2086631E1,7.747293E1,3E0,6E0,-9.4053006E-1,9E0,1E0,4.391976E0,2.1805649E1,1.0876959E1,7.755115E1,-1.2426497E0,1.2954959E1,5E0,-6.4001985E-2,5.884639E-3,2.4887084E-4,5.0138235E-1,1.3287666E-1,-2.9907918E-1,2.3319893E-2,1.183794E-1,-1.8019225E-1,2.3852019E-1,6.727829E-1,9.44107E-2,-2.198517E-1,1.6880457E-1,6.3910276E-1,1.8179114E-1,5.902011E-2,-2.865672E-1,7.127094E-2,-7.0494956E-1,-5.889565E-1,3.7338835E-1,-1.3600755E-1,-5.143012E-1],"split_indices":[3,28,23,19,22,21,23,24,24,19,24,13,0,23,28,22,19,17,20,0,13,2,24,25,22,19,0,18,5,0,0,0,0,0,0,0,0,0,0,0,0,0,0,0,0,0,0,0,0,0,0,0,0],"split_type":[0,0,0,0,0,0,0,0,0,0,0,0,0,0,0,0,0,0,0,0,0,0,0,0,0,0,0,0,0,0,0,0,0,0,0,0,0,0,0,0,0,0,0,0,0,0,0,0,0,0,0,0,0],"sum_hessian":[5.181E3,5.009E3,1.72E2,4.708E3,3.01E2,2.9E1,1.43E2,2.656E3,2.052E3,9E0,2.92E2,2.8E1,1E0,1.8E1,1.25E2,2.621E3,3.5E1,9.8E1,1.954E3,6E0,3E0,6E0,2.86E2,2.3E1,5E0,1.1E1,7E0,2.3E1,1.02E2,1.361E3,1.26E3,1E1,2.5E1,3.9E1,5.9E1,1.527E3,4.27E2,1E0,2E0,5E0,1E0,2.5E1,2.61E2,1.5E1,8E0,3E0,2E0,6E0,5E0,3E0,2E1,6.7E1,3.5E1],"tree_param":{"num_deleted":"0","num_feature":"29","num_nodes":"53","size_leaf_vector":"1"}},{"base_weights":[-2.9479586E-2,2.892344E-2,-1.7944103E0,-1.8885903E-1,8.741794E-1,1.9440247E0,-3.117148E0,-3.0505097E-1,1.1818429E0,3.045521E0,4.4041064E-1,3.2458646E0,-3.4793377E0,1.7253734E0,-4.1890373E0,-8.1862286E-2,-1.0169754E0,3.8369924E-1,2.9469688E0,4.763625E0,-4.283631E0,-2.8544736E0,6.8728507E-1,7.2337475E0,1.2018464E0,3.0717462E-1,-7.4557114E-1,3.0928676E0,-5.8955467E-1,1.1517396E0,-5.605388E0,-3.934166E-2,2.7527185E-2,-9.1752964E-1,-6.4312615E-2,2.3393248E-1,-3.2113764E-2,-1.3558504E-1,3.4698382E-1,5.145518E-1,2.5768003E-1,-5.801916E-1,1.2204604E-1,-4.9533588E-1,7.424846E-2,-2.0379225E-2,9.709552E-2,-1.9348533E-1,5.875744E-1,-6.726877E-2,5.747677E-1,-7.1802903E-3,5.808799E-1,2.6489097E-1,-3.5208237E-1,-3.1420076E-1,-1.0566899E0],"categories":[],"categories_nodes":[],"categories_segments":[],"categories_sizes":[],"default_left":[0,0,0,0,0,0,0,0,0,0,0,0,0,0,0,0,0,0,0,0,0,0,0,0,0,0,0,0,0,0,0,0,0,0,0,0,0,0,0,0,0,0,0,0,0,0,0,0,0,0,0,0,0,0,0,0,0],"id":11,"left_children":[1,3,5,7,9,11,13,15,17,19,21,23,25,27,29,31,33,35,37,39,41,43,45,47,49,-1,-1,51,-1,53,55,-1,-1,-1,-1,-1,-1,-1,-1,-1,-1,-1,-1,-1,-1,-1,-1,-1,-1,-1,-1,-1,-1,-1,-1,-1,-1],"loss_changes":[5.341984E2,9.2370416E2,8.2692474E2,6.35826E2,9.6689087E2,3.2194885E2,6.4567737E2,5.844858E2,4.384223E2,2.17368E3,6.998785E2,2.8475314E2,5.5455054E2,3.452143E2,7.704618E2,6.394368E2,1.0306555E3,5.3984424E2,9.6178784E2,3.6221094E2,8.1099304E2,9.992377E2,5.474712E2,1.6239185E2,3.8687875E2,0E0,0E0,3.5015707E2,0E0,3.7702292E2,7.801377E2,0E0,0E0,0E0,0E0,0E0,0E0,0E0,0E0,0E0,0E0,0E0,0E0,0E0,0E0,0E0,0E0,0E0,0E0,0E0,0E0,0E0,0E0,0E0,0E0,0E0,0E0],"parents":[2147483647,0,0,1,1,2,2,3,3,4,4,5,5,6,6,7,7,8,8,9,9,10,10,11,11,12,12,13,13,14,14,15,15,16,16,17,17,18,18,19,19,20,20,21,21,22,22,23,23,24,24,27,27,29,29,30,30],"right_children":[2,4,6,8,10,12,14,16,18,20,22,24,26,28,30,32,34,36,38,40,42,44,46,48,50,-1,-1,52,-1,54,56,-1,-1,-1,-1,-1,-1,-1,-1,-1,-1,-1,-1,-1,-1,-1,-1,-1,-1,-1,-1,-1,-1,-1,-1,-1,-1],"split_conditions":[2E1,5.7E1,3E0,1.7829945E1,1.0385212E1,9.659258E-1,5.7632866E0,1.2946075E1,1.2E1,8.660254E-1,1.1397871E1,6.6360106E0,3E0,2.3E1,-1.8369701E-16,5.407255E0,1.2989746E1,5E0,4E0,8.822343E0,1.0216196E1,3E0,6E0,3E0,7.0710677E-1,3.0717462E-1,-7.4557114E-1,5.6974216E0,-5.8955467E-1,1E0,1.1E1,-3.934166E-2,2.7527185E-2,-9.1752964E-1,-6.4312615E-2,2.3393248E-1,-3.2113764E-2,-1.3558504E-1,3.4698382E-1,5.145518E-1,2.5768003E-1,-5.801916E-1,1.2204604E-1,-4.9533588E-1,7.424846E-2,-2.0379225E-2,9.709552E-2,-1.9348533E-1,5.875744E-1,-6.726877E-2,5.747677E-1,-7.1802903E-3,5.808799E-1,2.6489097E-1,-3.5208237E-1,-3.1420076E-1,-1.0566899E0],"split_indices":[3,6,17,24,25,15,23,24,17,15,25,23,16,13,15,23,24,13,13,24,22,17,13,13,15,0,0,23,0,9,1,0,0,0,0,0,0,0,0,0,0,0,0,0,0,0,0,0,0,0,0,0,0,0,0,0,0],"split_type":[0,0,0,0,0,0,0,0,0,0,0,0,0,0,0,0,0,0,0,0,0,0,0,0,0,0,0,0,0,0,0,0,0,0,0,0,0,0,0,0,0,0,0,0,0,0,0,0,0,0,0,0,0,0,0,0,0],"sum_hessian":[5.181E3,5.016E3,1.65E2,3.989E3,1.027E3,4.3E1,1.22E2,3.678E3,3.11E2,1.7E2,8.57E2,3.5E1,8E0,2.2E1,1E2,2.801E3,8.77E2,2.15E2,9.6E1,1.38E2,3.2E1,5.9E1,7.98E2,1.1E1,2.4E1,4E0,4E0,2E1,2E0,2.1E1,7.9E1,1.393E3,1.408E3,6E0,8.71E2,4.7E1,1.68E2,2.8E1,6.8E1,3.9E1,9.9E1,1.9E1,1.3E1,2.8E1,3.1E1,3.33E2,4.65E2,1E0,1E1,1.9E1,5E0,1.3E1,7E0,1.5E1,6E0,7.2E1,7E0],"tree_param":{"num_deleted":"0","num_feature":"29","num_nodes":"57","size_leaf_vector":"1"}},{"base_weights":[1.14592135E-1,-1.5368525E0,1.6494823E-1,7.092041E-1,-3.3471677E0,8.3191425E-2,1.3494204E0,-6.2196198E0,2.106436E0,-5.9041057E0,-1.0998337E0,-2.8558924E0,1.163025E-1,6.347092E0,1.0387586E0,-4.8385048E-1,-9.9070483E-1,-5.0326166E0,3.1642432E0,-1.090773E1,-3.630051E0,3.5983363E-1,-8.260691E0,-5.611062E0,1.6096549E0,-1.388162E0,1.8414472E-1,-5.1378345E0,8.8216305E0,4.5106707E0,6.368233E-1,3.384807E-1,-4.9083993E-1,3.453011E-1,-8.3989394E-1,4.1985807E-1,-9.527203E-3,-1.0012826E0,-2.3044644E-1,1.8065727E-1,-4.0064827E-1,1.8961819E-1,-2.937255E-1,-9.742286E-1,4.0646154E-1,-2.2734137E-1,-7.029729E-1,-8.6483735E-1,2.6108974E-1,-4.6744745E-2,-5.830529E-1,1.7274428E-2,-1.6556461E-1,3.0561715E-1,-6.83276E-1,-4.4294607E-2,6.6458774E-1,-2.0088004E-1,4.188586E-1,-2.773121E-1,7.185281E-2],"categories":[],"categories_nodes":[],"categories_segments":[],"categories_sizes":[],"default_left":[0,0,0,0,0,0,0,0,0,0,0,0,0,0,0,0,0,0,0,0,0,0,0,0,0,0,0,0,0,0,0,0,0,0,0,0,0,0,0,0,0,0,0,0,0,0,0,0,0,0,0,0,0,0,0,0,0,0,0,0,0],"id":12,"left_children":[1,3,5,7,9,11,13,15,17,19,21,23,25,27,29,31,-1,33,35,37,39,41,43,45,47,49,51,53,55,57,59,-1,-1,-1,-1,-1,-1,-1,-1,-1,-1,-1,-1,-1,-1,-1,-1,-1,-1,-1,-1,-1,-1,-1,-1,-1,-1,-1,-1,-1,-1],"loss_changes":[4.355977E2,6.3261475E2,4.9192496E2,6.907833E2,4.8768768E2,4.6297342E2,5.0265515E2,5.3919543E2,4.6147726E2,4.1554504E2,4.9423856E2,6.61109E2,4.8017096E2,5.8530206E2,4.2972748E2,3.1170697E2,0E0,6.1453326E2,4.8713525E2,2.6329028E2,3.9184183E2,4.3943954E2,7.174268E2,3.129895E2,6.6783826E2,1.0094938E3,7.191131E2,2.1837018E2,1.0773401E2,3.650589E2,5.0396616E2,0E0,0E0,0E0,0E0,0E0,0E0,0E0,0E0,0E0,0E0,0E0,0E0,0E0,0E0,0E0,0E0,0E0,0E0,0E0,0E0,0E0,0E0,0E0,0E0,0E0,0E0,0E0,0E0,0E0,0E0],"parents":[2147483647,0,0,1,1,2,2,3,3,4,4,5,5,6,6,7,7,8,8,9,9,10,10,11,11,12,12,13,13,14,14,15,15,17,17,18,18,19,19,20,20,21,21,22,22,23,23,24,24,25,25,26,26,27,27,28,28,29,29,30,30],"right_children":[2,4,6,8,10,12,14,16,18,20,22,24,26,28,30,32,-1,34,36,38,40,42,44,46,48,50,52,54,56,58,60,-1,-1,-1,-1,-1,-1,-1,-1,-1,-1,-1,-1,-1,-1,-1,-1,-1,-1,-1,-1,-1,-1,-1,-1,-1,-1,-1,-1,-1,-1],"split_conditions":[7.3661704E0,4.0063396E0,1.6550228E1,2E0,9E0,4.643779E0,1E0,1.6476152E1,6.212656E0,1E0,1.824689E1,1.2987525E1,-7.0710677E-1,1.7339355E1,1.6968979E1,1E0,-9.9070483E-1,6.123234E-17,1.6317331E1,6E0,2.3851206E0,1.7713707E1,1.830687E1,8.660254E-1,4E0,1.3071232E1,1.7792981E-2,1E0,1.2866279E1,7.1842337E0,3E0,3.384807E-1,-4.9083993E-1,3.453011E-1,-8.3989394E-1,4.1985807E-1,-9.527203E-3,-1.0012826E0,-2.3044644E-1,1.8065727E-1,-4.0064827E-1,1.8961819E-1,-2.937255E-1,-9.742286E-1,4.0646154E-1,-2.2734137E-1,-7.029729E-1,-8.6483735E-1,2.6108974E-1,-4.6744745E-2,-5.830529E-1,1.7274428E-2,-1.6556461E-1,3.0561715E-1,-6.83276E-1,-4.4294607E-2,6.6458774E-1,-2.0088004E-1,4.188586E-1,-2.773121E-1,7.185281E-2],"split_indices":[26,26,24,5,13,25,13,25,22,12,25,18,15,24,24,12,0,15,25,5,22,24,25,14,1,18,21,2,18,22,13,0,0,0,0,0,0,0,0,0,0,0,0,0,0,0,0,0,0,0,0,0,0,0,0,0,0,0,0,0,0],"split_type":[0,0,0,0,0,0,0,0,0,0,0,0,0,0,0,0,0,0,0,0,0,0,0,0,0,0,0,0,0,0,0,0,0,0,0,0,0,0,0,0,0,0,0,0,0,0,0,0,0,0,0,0,0,0,0,0,0,0,0,0,0],"sum_hessian":[5.234E3,1.54E2,5.08E3,6.9E1,8.5E1,4.753E3,3.27E2,1.1E1,5.8E1,3.9E1,4.6E1,5.2E1,4.701E3,1.8E1,3.09E2,7E0,4E0,7E0,5.1E1,1.1E1,2.8E1,3.9E1,7E0,3.2E1,2E1,2.02E2,4.499E3,3E0,1.5E1,3.1E1,2.78E2,4E0,3E0,3E0,4E0,2.7E1,2.4E1,7E0,4E0,7E0,2.1E1,2.6E1,1.3E1,5E0,2E0,2.2E1,1E1,2E0,1.8E1,1.84E2,1.8E1,4.392E3,1.07E2,1E0,2E0,1E0,1.4E1,5E0,2.6E1,2.1E1,2.57E2],"tree_param":{"num_deleted":"0","num_feature":"29","num_nodes":"61","size_leaf_vector":"1"}},{"base_weights":[-3.656043E-2,-8.880934E-2,2.0693173E0,-5.9124302E-2,-4.163689E0,6.2680793E0,1.1783543E0,2.3477554E0,-1.0151595E-1,5.674553E-2,-7.7538953E0,1.130146E0,7.3470564E0,-5.9084053E0,1.8968E0,2.990716E0,-8.923535E0,-3.8760636E0,-3.6165092E-2,1.711029E0,-4.5865974E0,-9.043063E0,1.7960216E-1,-4.9723148E-1,2.6738796E-1,2.3848674E0,7.8182755E0,1.4456299E-1,-7.0238247E0,-5.1899858E0,2.4210935E0,1.525162E-1,6.660199E-1,1.2263552E-1,-8.4212714E-1,-4.25313E-1,4.069869E-2,3.6881077E-1,-3.5924506E-3,3.0882293E-1,1.32693825E-2,2.0600472E-2,-4.116275E-1,-7.960633E-1,-2.6307154E-1,3.0396556E-2,-6.6672646E-2,-1.0095304E-1,3.513641E-1,5.845014E-1,1.9114982E-1,-5.4301435E-1,-4.0447388E-2,5.203641E-1,-8.208371E-1,2.1050367E-1,-2.8249294E-1],"categories":[],"categories_nodes":[],"categories_segments":[],"categories_sizes":[],"default_left":[0,0,0,0,0,0,0,0,0,0,0,0,0,0,0,0,0,0,0,0,0,0,0,0,0,0,0,0,0,0,0,0,0,0,0,0,0,0,0,0,0,0,0,0,0,0,0,0,0,0,0,0,0,0,0,0,0],"id":13,"left_children":[1,3,5,7,9,11,13,15,17,19,21,23,25,27,29,31,33,35,37,39,41,43,-1,45,-1,47,49,-1,51,53,55,-1,-1,-1,-1,-1,-1,-1,-1,-1,-1,-1,-1,-1,-1,-1,-1,-1,-1,-1,-1,-1,-1,-1,-1,-1,-1],"loss_changes":[5.7718005E2,6.188422E2,4.6771356E2,5.187629E2,5.610726E2,1.1365851E2,5.50901E2,6.644235E2,1.2319762E3,1.4611308E2,2.8927722E2,2.3784979E1,2.3443481E1,1.0344449E2,3.729743E2,4.2420117E2,1.8691202E2,8.3701794E2,3.951098E2,5.6690613E1,3.330493E1,1.7884009E2,0E0,2.1097426E0,0E0,3.7487534E1,2.0483032E1,0E0,3.8072296E1,6.6475525E2,3.565061E2,0E0,0E0,0E0,0E0,0E0,0E0,0E0,0E0,0E0,0E0,0E0,0E0,0E0,0E0,0E0,0E0,0E0,0E0,0E0,0E0,0E0,0E0,0E0,0E0,0E0,0E0],"parents":[2147483647,0,0,1,1,2,2,3,3,4,4,5,5,6,6,7,7,8,8,9,9,10,10,11,11,12,12,13,13,14,14,15,15,16,16,17,17,18,18,19,19,20,20,21,21,23,23,25,25,26,26,28,28,29,29,30,30],"right_children":[2,4,6,8,10,12,14,16,18,20,22,24,26,28,30,32,34,36,38,40,42,44,-1,46,-1,48,50,-1,52,54,56,-1,-1,-1,-1,-1,-1,-1,-1,-1,-1,-1,-1,-1,-1,-1,-1,-1,-1,-1,-1,-1,-1,-1,-1,-1,-1],"split_conditions":[1.921591E1,1.8135027E1,1.9569756E1,8.4749556E-1,3E0,7.761949E1,1.5321665E1,1.2976758E1,9.912874E-1,7.761735E1,7E0,9.659258E-1,-8.660254E-1,7.753333E1,1.3583361E1,3.6948104E-3,1E0,8.660254E-1,5.9181345E-1,4E0,1E0,4E0,1.7960216E-1,5E0,2.6738796E-1,1.2883618E1,2.0245296E1,1.4456299E-1,6E0,1.2998066E1,9E0,1.525162E-1,6.660199E-1,1.2263552E-1,-8.4212714E-1,-4.25313E-1,4.069869E-2,3.6881077E-1,-3.5924506E-3,3.0882293E-1,1.32693825E-2,2.0600472E-2,-4.116275E-1,-7.960633E-1,-2.6307154E-1,3.0396556E-2,-6.6672646E-2,-1.0095304E-1,3.513641E-1,5.845014E-1,1.9114982E-1,-5.4301435E-1,-4.0447388E-2,5.203641E-1,-8.208371E-1,2.1050367E-1,-2.8249294E-1],"split_indices":[27,27,23,27,5,19,24,18,27,19,5,14,14,19,22,21,1,14,23,17,11,16,0,13,0,18,27,0,5,22,5,0,0,0,0,0,0,0,0,0,0,0,0,0,0,0,0,0,0,0,0,0,0,0,0,0,0],"split_type":[0,0,0,0,0,0,0,0,0,0,0,0,0,0,0,0,0,0,0,0,0,0,0,0,0,0,0,0,0,0,0,0,0,0,0,0,0,0,0,0,0,0,0,0,0,0,0,0,0,0,0,0,0,0,0,0,0],"sum_hessian":[5.243E3,5.117E3,1.26E2,5.081E3,3.6E1,2.1E1,1.05E2,8.7E1,4.994E3,1.7E1,1.9E1,4E0,1.7E1,9E0,9.6E1,8.3E1,4E0,8.4E1,4.91E3,1.3E1,4E0,1.7E1,2E0,3E0,1E0,2E0,1.5E1,1E0,8E0,6E0,9E1,7.5E1,8E0,1E0,3E0,5.6E1,2.8E1,1.3E1,4.897E3,4E0,9E0,1E0,3E0,1.1E1,6E0,1E0,2E0,1E0,1E0,1.3E1,2E0,7E0,1E0,2E0,4E0,8.3E1,7E0],"tree_param":{"num_deleted":"0","num_feature":"29","num_nodes":"57","size_leaf_vector":"1"}},{"base_weights":[9.617632E-2,-4.5522213E-2,1.2580354E0,-2.6247447E0,2.3221925E-2,3.591239E0,8.7764204E-1,-8.521129E-1,-2.0259273E0,5.828657E-1,-2.2630136E-1,5.1563888E0,-1.7051052E0,-3.4938111E0,1.2288781E0,-3.073301E0,3.4829438E0,-5.8154327E-1,1.3331565E0,-5.5573356E-1,5.5123097E-1,6.4268103E0,-4.222307E0,-4.216726E0,6.1373574E-1,3.8423495E0,-5.9890895E0,3.1228523E0,4.7676402E-1,4.23418E-1,-2.6137796E-1,-6.759535E-1,3.324568E-1,9.938984E-2,-9.202299E-2,2.6510474E-1,4.347448E-2,-4.90011E-2,1.178207E-1,-2.9352206E-1,5.0574075E-2,-1.7132087E-1,5.0195736E-1,2.4227978E-1,-6.667222E-1,4.414737E-2,-6.4000744E-1,-3.2572153E-1,7.1970874E-1,-7.591603E-1,-1.8821403E-1,5.4979664E-1,1.8336467E-1,-1.3448563E-3,2.706475E-1],"categories":[],"categories_nodes":[],"categories_segments":[],"categories_sizes":[],"default_left":[0,0,0,0,0,0,0,0,0,0,0,0,0,0,0,0,0,0,0,0,0,0,0,0,0,0,0,0,0,0,0,0,0,0,0,0,0,0,0,0,0,0,0,0,0,0,0,0,0,0,0,0,0,0,0],"id":14,"left_children":[1,3,5,7,9,11,13,-1,15,17,19,21,23,25,27,29,31,33,35,37,39,41,43,45,-1,47,49,51,53,-1,-1,-1,-1,-1,-1,-1,-1,-1,-1,-1,-1,-1,-1,-1,-1,-1,-1,-1,-1,-1,-1,-1,-1,-1,-1],"loss_changes":[8.678416E2,8.332239E2,5.0540582E2,6.728962E2,6.3942285E2,6.719579E2,7.62787E2,0E0,6.800064E2,1.2343625E3,8.11515E2,7.6585974E2,5.3673914E2,7.0032544E2,6.509251E2,6.13204E2,3.620276E2,8.146768E2,1.4987621E3,7.19923E2,7.6922345E2,3.8068896E2,3.5888525E2,3.8783752E2,0E0,5.9488525E2,4.195827E2,2.8903064E2,5.5318097E2,0E0,0E0,0E0,0E0,0E0,0E0,0E0,0E0,0E0,0E0,0E0,0E0,0E0,0E0,0E0,0E0,0E0,0E0,0E0,0E0,0E0,0E0,0E0,0E0,0E0,0E0],"parents":[2147483647,0,0,1,1,2,2,3,3,4,4,5,5,6,6,8,8,9,9,10,10,11,11,12,12,13,13,14,14,15,15,16,16,17,17,18,18,19,19,20,20,21,21,22,22,23,23,25,25,26,26,27,27,28,28],"right_children":[2,4,6,8,10,12,14,-1,16,18,20,22,24,26,28,30,32,34,36,38,40,42,44,46,-1,48,50,52,54,-1,-1,-1,-1,-1,-1,-1,-1,-1,-1,-1,-1,-1,-1,-1,-1,-1,-1,-1,-1,-1,-1,-1,-1,-1,-1],"split_conditions":[1.4084717E1,-9.659258E-1,1.4968353E1,1.2410616E0,1.2958279E1,1.2E1,2E0,-8.521129E-1,1.2E1,7E0,5.7E1,7.766637E1,7.758643E1,6E0,3E0,2.7105603E0,2.3851206E0,8E0,5.6588173E0,4.290828E0,1.2962243E1,7.747293E1,1.2956265E1,1E1,6.1373574E-1,4E0,1.6272085E1,1.5334379E1,2.1021145E1,4.23418E-1,-2.6137796E-1,-6.759535E-1,3.324568E-1,9.938984E-2,-9.202299E-2,2.6510474E-1,4.347448E-2,-4.90011E-2,1.178207E-1,-2.9352206E-1,5.0574075E-2,-1.7132087E-1,5.0195736E-1,2.4227978E-1,-6.667222E-1,4.414737E-2,-6.4000744E-1,-3.2572153E-1,7.1970874E-1,-7.591603E-1,-1.8821403E-1,5.4979664E-1,1.8336467E-1,-1.3448563E-3,2.706475E-1],"split_indices":[23,14,27,27,18,17,5,0,17,13,6,19,19,13,5,27,22,1,27,28,18,19,18,13,0,17,23,27,23,0,0,0,0,0,0,0,0,0,0,0,0,0,0,0,0,0,0,0,0,0,0,0,0,0,0],"split_type":[0,0,0,0,0,0,0,0,0,0,0,0,0,0,0,0,0,0,0,0,0,0,0,0,0,0,0,0,0,0,0,0,0,0,0,0,0,0,0,0,0,0,0,0,0,0,0,0,0,0,0,0,0,0,0],"sum_hessian":[5.27E3,4.698E3,5.72E2,1.21E2,4.577E3,7.9E1,4.93E2,6E0,1.15E2,1.411E3,3.166E3,6.1E1,1.8E1,3.6E1,4.57E2,9.7E1,1.8E1,5.53E2,8.58E2,2.224E3,9.42E2,5.4E1,7E0,1.5E1,3E0,9E0,2.7E1,1.29E2,3.28E2,6E0,9.1E1,1E0,1.7E1,1.48E2,4.05E2,1.92E2,6.66E2,2.09E3,1.34E2,3.2E1,9.1E2,4E0,5E1,3E0,4E0,8E0,7E0,4E0,5E0,1E1,1.7E1,1.1E1,1.18E2,2.87E2,4.1E1],"tree_param":{"num_deleted":"0","num_feature":"29","num_nodes":"55","size_leaf_vector":"1"}},{"base_weights":[-1.6143404E-1,-2.5205725E-1,1.1634992E0,6.4349097E-1,-3.6926827E-1,4.162536E0,7.193965E-1,7.3830426E-1,-1.0161181E1,-2.3401282E0,-2.4639173E-1,5.09633E0,-1.3678801E0,-5.2908993E0,9.948927E-1,1.432471E-1,2.6610963E0,-7.852232E-1,-2.0776042E-1,1.4549545E0,-3.4455833E0,1.5031941E-2,-6.553073E-1,3.1451008E0,7.2068887E0,3.5974052E0,-9.187396E0,5.7070446E-1,-1.2224555E1,-5.034622E0,1.2129084E0,-3.2053354E-1,2.6049603E-2,-1.4278433E-1,2.6756993E-1,2.5971103E-1,-3.287787E-1,-1.9197802E-1,-5.720958E-1,1.4664139E-1,-6.5168757E-3,-1.2971923E-1,-2.7695075E-2,3.5031423E-1,-3.5137653E-2,5.6848896E-1,1.5433791E-1,4.4604493E-3,3.1254274E-1,-7.774338E-1,-1.8724273E-1,4.5782703E-1,-4.9238518E-1,1.3697095E-1,-1.081651E0,3.382398E-1,-5.673694E-1,3.8384378E-1,6.841684E-2],"categories":[],"categories_nodes":[],"categories_segments":[],"categories_sizes":[],"default_left":[0,0,0,0,0,0,0,0,0,0,0,0,0,0,0,0,0,0,0,0,0,0,0,0,0,0,0,0,0,0,0,0,0,0,0,0,0,0,0,0,0,0,0,0,0,0,0,0,0,0,0,0,0,0,0,0,0,0,0],"id":15,"left_children":[1,3,5,7,9,11,13,15,17,19,21,23,25,27,29,31,33,-1,-1,35,37,39,41,43,45,47,49,51,53,55,57,-1,-1,-1,-1,-1,-1,-1,-1,-1,-1,-1,-1,-1,-1,-1,-1,-1,-1,-1,-1,-1,-1,-1,-1,-1,-1,-1,-1],"loss_changes":[6.2825775E2,5.141616E2,4.4318546E2,5.8835175E2,1.04803E3,2.2903473E2,4.9041742E2,6.437871E2,4.6968994E0,1.0706178E3,4.3584198E2,1.2970648E2,3.0483365E2,5.35327E2,3.7548907E2,4.6756638E2,7.338799E2,0E0,0E0,8.2209155E2,6.322998E2,5.597312E2,4.9380627E2,1.449197E2,5.984851E1,1.5042694E1,7.780655E0,4.091904E2,3.04865E2,3.4213443E2,2.6822534E2,0E0,0E0,0E0,0E0,0E0,0E0,0E0,0E0,0E0,0E0,0E0,0E0,0E0,0E0,0E0,0E0,0E0,0E0,0E0,0E0,0E0,0E0,0E0,0E0,0E0,0E0,0E0,0E0],"parents":[2147483647,0,0,1,1,2,2,3,3,4,4,5,5,6,6,7,7,8,8,9,9,10,10,11,11,12,12,13,13,14,14,15,15,16,16,19,19,20,20,21,21,22,22,23,23,24,24,25,25,26,26,27,27,28,28,29,29,30,30],"right_children":[2,4,6,8,10,12,14,16,18,20,22,24,26,28,30,32,34,-1,-1,36,38,40,42,44,46,48,50,52,54,56,58,-1,-1,-1,-1,-1,-1,-1,-1,-1,-1,-1,-1,-1,-1,-1,-1,-1,-1,-1,-1,-1,-1,-1,-1,-1,-1,-1,-1],"split_conditions":[1.7829945E1,3.9373667E0,7.751641E1,2.1573608E1,4.6965322E0,2.1E1,7.754231E1,3.1717E0,2E1,5E0,1.1021687E1,1.1E1,1.2904535E1,4E0,-9.659258E-1,1.1356884E1,-1.8369701E-16,-7.852232E-1,-2.0776042E-1,2.1E1,7.451561E-1,1.2953247E1,7E0,3E0,2.0961401E1,2E0,4E0,7.451561E-1,1E0,7E0,7.758869E1,-3.2053354E-1,2.6049603E-2,-1.4278433E-1,2.6756993E-1,2.5971103E-1,-3.287787E-1,-1.9197802E-1,-5.720958E-1,1.4664139E-1,-6.5168757E-3,-1.2971923E-1,-2.7695075E-2,3.5031423E-1,-3.5137653E-2,5.6848896E-1,1.5433791E-1,4.4604493E-3,3.1254274E-1,-7.774338E-1,-1.8724273E-1,4.5782703E-1,-4.9238518E-1,1.3697095E-1,-1.081651E0,3.382398E-1,-5.673694E-1,3.8384378E-1,6.841684E-2],"split_indices":[24,24,19,25,24,13,19,24,13,4,24,17,18,17,15,22,15,0,0,13,28,18,4,17,27,1,1,28,1,4,19,0,0,0,0,0,0,0,0,0,0,0,0,0,0,0,0,0,0,0,0,0,0,0,0,0,0,0,0],"split_type":[0,0,0,0,0,0,0,0,0,0,0,0,0,0,0,0,0,0,0,0,0,0,0,0,0,0,0,0,0,0,0,0,0,0,0,0,0,0,0,0,0,0,0,0,0,0,0,0,0,0,0,0,0,0,0,0,0,0,0],"sum_hessian":[5.229E3,4.895E3,3.34E2,5.66E2,4.329E3,4.2E1,2.92E2,5.62E2,4E0,2.53E2,4.076E3,3.6E1,6E0,1.2E1,2.8E2,4.3E2,1.32E2,3E0,1E0,5.7E1,1.96E2,2.487E3,1.589E3,2E1,1.6E1,4E0,2E0,7E0,5E0,9E0,2.71E2,1.9E1,4.11E2,2.6E1,1.06E2,4.2E1,1.5E1,1.72E2,2.4E1,1.22E2,2.365E3,2.82E2,1.307E3,1.3E1,7E0,1.3E1,3E0,1E0,3E0,1E0,1E0,4E0,3E0,1E0,4E0,2E0,7E0,1.3E1,2.58E2],"tree_param":{"num_deleted":"0","num_feature":"29","num_nodes":"59","size_leaf_vector":"1"}},{"base_weights":[2.2611475E-2,-1.0416399E-1,8.076466E-1,8.821707E-2,-9.6553934E-1,2.5452726E0,-2.7490314E-2,-2.5617483E-1,8.7391675E-1,-5.618054E0,-7.822142E-1,2.932024E0,-3.7969315E0,-2.3163888E0,4.0934658E-1,-2.9693896E-1,7.1782823E0,7.7059466E-1,7.544525E0,-1.1897773E1,-2.0611508E0,-1.0006858E0,3.461627E0,3.779806E0,1.3388546E0,-5.884908E0,4.0744334E-1,-4.4952556E-1,-7.801159E0,7.387961E0,2.1832156E-1,-1.5247167E-2,-2.056724E-1,-5.9034284E-2,6.0098493E-1,6.255067E-2,-1.8966387E-1,-2.1712059E-1,5.882641E-1,-1.0142288E0,-2.6186368E-1,-7.3605084E-1,2.0417963E-1,-8.513691E-2,2.1649913E-1,-3.1766918E-1,3.5375533E-1,-6.557139E-1,2.7553096E-1,-6.779696E-2,2.9870653E-1,-1.8186174E-2,-6.906009E-1,-2.4064255E-1,1.719764E-1,-9.611318E-1,-1.1911858E-1,2.7195078E-1,6.184252E-1,-2.4828589E-1,3.4817345E-2],"categories":[],"categories_nodes":[],"categories_segments":[],"categories_sizes":[],"default_left":[0,0,0,0,0,0,0,0,0,0,0,0,0,0,0,0,0,0,0,0,0,0,0,0,0,0,0,0,0,0,0,0,0,0,0,0,0,0,0,0,0,0,0,0,0,0,0,0,0,0,0,0,0,0,0,0,0,0,0,0,0],"id":16,"left_children":[1,3,5,7,9,11,13,15,17,19,21,23,25,27,29,31,33,35,37,39,41,43,45,47,49,51,-1,53,55,57,59,-1,-1,-1,-1,-1,-1,-1,-1,-1,-1,-1,-1,-1,-1,-1,-1,-1,-1,-1,-1,-1,-1,-1,-1,-1,-1,-1,-1,-1,-1],"loss_changes":[5.2039136E2,7.46122E2,1.0550599E3,9.962605E2,6.9670795E2,5.9000696E2,4.9288684E2,7.779628E2,7.6749255E2,6.679038E2,7.377738E2,2.9613684E2,3.153909E2,8.053991E2,5.502862E2,5.3163416E2,1.6527502E2,4.7579138E2,1.8157831E2,1.7829565E2,9.1442096E2,6.6907935E2,5.196295E2,3.3492798E2,5.3792786E2,2.6614706E2,0E0,5.295322E2,6.999457E2,2.142157E1,4.2627466E2,0E0,0E0,0E0,0E0,0E0,0E0,0E0,0E0,0E0,0E0,0E0,0E0,0E0,0E0,0E0,0E0,0E0,0E0,0E0,0E0,0E0,0E0,0E0,0E0,0E0,0E0,0E0,0E0,0E0,0E0],"parents":[2147483647,0,0,1,1,2,2,3,3,4,4,5,5,6,6,7,7,8,8,9,9,10,10,11,11,12,12,13,13,14,14,15,15,16,16,17,17,18,18,19,19,20,20,21,21,22,22,23,23,24,24,25,25,27,27,28,28,29,29,30,30],"right_children":[2,4,6,8,10,12,14,16,18,20,22,24,26,28,30,32,34,36,38,40,42,44,46,48,50,52,-1,54,56,58,60,-1,-1,-1,-1,-1,-1,-1,-1,-1,-1,-1,-1,-1,-1,-1,-1,-1,-1,-1,-1,-1,-1,-1,-1,-1,-1,-1,-1,-1,-1],"split_conditions":[1.3173355E1,1.03127575E1,3E0,7.5440006E0,4.564163E0,2.3829123E1,9.057604E0,2.3736828E1,1.6599564E1,6.123234E-17,1.1E1,2.1625217E1,3.2873123E1,2.2365992E1,9.610813E0,7.82519E0,1.7357647E-2,8.3E1,3E0,6E0,1.09447365E1,2.8235405E-3,3E0,1E0,3.0162352E1,1.2998066E1,4.0744334E-1,5E-1,4.7E1,0E0,7.745375E1,-1.5247167E-2,-2.056724E-1,-5.9034284E-2,6.0098493E-1,6.255067E-2,-1.8966387E-1,-2.1712059E-1,5.882641E-1,-1.0142288E0,-2.6186368E-1,-7.3605084E-1,2.0417963E-1,-8.513691E-2,2.1649913E-1,-3.1766918E-1,3.5375533E-1,-6.557139E-1,2.7553096E-1,-6.779696E-2,2.9870653E-1,-1.8186174E-2,-6.906009E-1,-2.4064255E-1,1.719764E-1,-9.611318E-1,-1.1911858E-1,2.7195078E-1,6.184252E-1,-2.4828589E-1,3.4817345E-2],"split_indices":[23,23,5,27,24,24,24,25,22,15,1,22,25,25,24,23,28,6,5,5,27,21,4,5,25,22,0,15,6,14,19,0,0,0,0,0,0,0,0,0,0,0,0,0,0,0,0,0,0,0,0,0,0,0,0,0,0,0,0,0,0],"split_type":[0,0,0,0,0,0,0,0,0,0,0,0,0,0,0,0,0,0,0,0,0,0,0,0,0,0,0,0,0,0,0,0,0,0,0,0,0,0,0,0,0,0,0,0,0,0,0,0,0,0,0,0,0,0,0,0,0,0,0,0,0],"sum_hessian":[5.227E3,4.501E3,7.26E2,3.68E3,8.21E2,2.35E2,4.91E2,2.559E3,1.121E3,3E1,7.91E2,2.22E2,1.3E1,7.8E1,4.13E2,2.546E3,1.3E1,1.105E3,1.6E1,1E1,2E1,7.53E2,3.8E1,1.44E2,7.8E1,1.1E1,2E0,5.9E1,1.9E1,1E1,4.03E2,2.473E3,7.3E1,2E0,1.1E1,1.068E3,3.7E1,1E0,1.5E1,7E0,3E0,7E0,1.3E1,7.16E2,3.7E1,6E0,3.2E1,1E0,1.43E2,4.4E1,3.4E1,5E0,6E0,2.9E1,3E1,9E0,1E1,4E0,6E0,2.7E1,3.76E2],"tree_param":{"num_deleted":"0","num_feature":"29","num_nodes":"61","size_leaf_vector":"1"}},{"base_weights":[9.504235E-2,1.555458E0,3.1483674E-3,-8.544163E-1,1.7774103E0,-7.539056E-1,1.5110965E-1,2.6180449E0,-4.8232055E-1,3.8311756E0,-1.0394707E0,2.4061099E-1,-1.6346434E0,3.0592377E0,-2.233544E0,-4.636441E0,2.2150972E0,4.513928E0,-9.651402E-1,-1.145703E0,8.983355E0,2.0175834E-1,4.639883E0,-4.421439E0,6.5121484E-1,-3.3045417E-1,2.2956815E-1,2.8776553E-2,-8.577597E-1,-9.038711E-1,-6.9644526E-2,5.5118865E-1,-1.4060843E-1,3.967787E-1,-4.259715E-1,-2.648477E-1,-5.664835E-2,1.19554676E-1,6.845099E-1,3.6861408E-3,7.711892E-2,-5.310153E-1,3.94874E-1,2.8143176E-1,-4.549555E-1,8.947747E-2,-6.0050255E-1],"categories":[],"categories_nodes":[],"categories_segments":[],"categories_sizes":[],"default_left":[0,0,0,0,0,0,0,0,0,0,0,0,0,0,0,0,0,0,0,0,0,0,0,0,0,0,0,0,0,0,0,0,0,0,0,0,0,0,0,0,0,0,0,0,0,0,0],"id":17,"left_children":[1,3,5,-1,7,9,11,13,15,17,19,21,23,25,27,29,31,33,-1,35,37,39,41,43,45,-1,-1,-1,-1,-1,-1,-1,-1,-1,-1,-1,-1,-1,-1,-1,-1,-1,-1,-1,-1,-1,-1],"loss_changes":[6.95974E2,9.593884E2,5.467455E2,0E0,5.7684406E2,1.0488348E3,6.5296814E2,4.7988025E2,9.4031836E2,6.276158E2,8.1098315E2,6.6378503E2,1.2450724E3,3.634225E2,5.085319E2,9.816815E2,1.2348458E3,5.9730835E2,0E0,6.5810754E2,2.9591187E1,5.173416E2,4.5895844E2,1.5697926E3,6.360069E2,0E0,0E0,0E0,0E0,0E0,0E0,0E0,0E0,0E0,0E0,0E0,0E0,0E0,0E0,0E0,0E0,0E0,0E0,0E0,0E0,0E0,0E0],"parents":[2147483647,0,0,1,1,2,2,4,4,5,5,6,6,7,7,8,8,9,9,10,10,11,11,12,12,13,13,14,14,15,15,16,16,17,17,19,19,20,20,21,21,22,22,23,23,24,24],"right_children":[2,4,6,-1,8,10,12,14,16,18,20,22,24,26,28,30,32,34,-1,36,38,40,42,44,46,-1,-1,-1,-1,-1,-1,-1,-1,-1,-1,-1,-1,-1,-1,-1,-1,-1,-1,-1,-1,-1,-1],"split_conditions":[1E1,7.758402E1,4E0,-8.544163E-1,7.760082E1,8E0,9.105756E-3,1E0,-2.5881904E-1,7.9984436E0,1.3065138E1,6.342627E-3,2.6393339E-2,1.8851658E0,7.7597404E1,4.33393E0,6.7569036E0,1E0,-9.651402E-1,7.757045E1,1E0,7.765551E1,7E0,2.663632E0,2.3E1,-3.3045417E-1,2.2956815E-1,2.8776553E-2,-8.577597E-1,-9.038711E-1,-6.9644526E-2,5.5118865E-1,-1.4060843E-1,3.967787E-1,-4.259715E-1,-2.648477E-1,-5.664835E-2,1.19554676E-1,6.845099E-1,3.6861408E-3,7.711892E-2,-5.310153E-1,3.94874E-1,2.8143176E-1,-4.549555E-1,8.947747E-2,-6.0050255E-1],"split_indices":[6,19,4,0,19,3,21,14,14,22,18,21,21,27,19,24,23,10,0,19,13,19,4,23,13,0,0,0,0,0,0,0,0,0,0,0,0,0,0,0,0,0,0,0,0,0,0],"split_type":[0,0,0,0,0,0,0,0,0,0,0,0,0,0,0,0,0,0,0,0,0,0,0,0,0,0,0,0,0,0,0,0,0,0,0,0,0,0,0,0,0,0,0,0,0,0,0],"sum_hessian":[5.185E3,3.06E2,4.879E3,4E0,3.02E2,7.97E2,4.082E3,2.2E2,8.2E1,4.6E1,7.51E2,3.888E3,1.94E2,2.02E2,1.8E1,3.2E1,5E1,4.5E1,1E0,7.44E2,7E0,3.855E3,3.3E1,8.7E1,1.07E2,5E0,1.97E2,1.5E1,3E0,9E0,2.3E1,2.1E1,2.9E1,4.1E1,4E0,8.3E1,6.61E2,1E0,6E0,3.308E3,5.47E2,2E0,3.1E1,1.7E1,7E1,1.01E2,6E0],"tree_param":{"num_deleted":"0","num_feature":"29","num_nodes":"47","size_leaf_vector":"1"}},{"base_weights":[-7.951981E-2,-2.4168627E-1,1.1789597E0,-2.16027E-1,-6.4817243E0,1.4309518E0,-7.0342813E0,-3.0577993E-1,1.0850621E0,4.4583702E-1,-8.987699E0,3.80282E-2,2.532316E0,-1.3385952E0,-1.2581234E1,-3.836404E-1,1.0233396E0,4.884309E0,2.0865703E-1,-1.7876186E0,3.2751656E0,-1.0870801E1,1.5406088E0,4.1425977E0,-7.7926123E-1,1.2821664E0,3.8951757E0,5.089193E-1,-6.0667224E0,-1.0421993E0,2.0570818E-1,-2.2307511E-2,-2.1199997E-1,3.510529E-1,3.307345E-2,4.761835E-1,-3.2341337E-1,2.8829592E-1,-5.7418708E-2,1.1653137E-1,-2.4453199E-1,3.4590364E-1,-2.011261E-3,-1.1085135E0,-5.2193546E-1,1.7941558E-1,-1.7651672E-2,5.2261766E-2,4.944227E-1,-1.4997612E-1,1.0322373E-1,-5.129415E-1,1.1477649E-1,2.907031E-1,-4.8105294E-1,-7.5689317E-3,-7.356046E-1],"categories":[],"categories_nodes":[],"categories_segments":[],"categories_sizes":[],"default_left":[0,0,0,0,0,0,0,0,0,0,0,0,0,0,0,0,0,0,0,0,0,0,0,0,0,0,0,0,0,0,0,0,0,0,0,0,0,0,0,0,0,0,0,0,0,0,0,0,0,0,0,0,0,0,0,0,0],"id":18,"left_children":[1,3,5,7,9,11,13,15,17,19,21,23,25,27,29,31,33,35,37,39,41,43,45,47,49,51,53,-1,55,-1,-1,-1,-1,-1,-1,-1,-1,-1,-1,-1,-1,-1,-1,-1,-1,-1,-1,-1,-1,-1,-1,-1,-1,-1,-1,-1,-1],"loss_changes":[1.0709053E3,7.428135E2,1.2497988E3,5.4100726E2,3.3385254E2,8.927593E2,5.518455E2,4.4869342E2,9.945548E2,4.3769825E1,2.9431006E2,8.6872046E2,5.4873364E2,4.511451E2,3.6603845E2,7.022904E2,5.2536066E2,1.0524552E3,9.8497705E2,2.9370087E1,1.6657986E1,8.536902E1,6.1455073E0,4.2121375E2,6.6684546E2,5.383567E2,4.5866797E2,0E0,1.8413669E2,0E0,0E0,0E0,0E0,0E0,0E0,0E0,0E0,0E0,0E0,0E0,0E0,0E0,0E0,0E0,0E0,0E0,0E0,0E0,0E0,0E0,0E0,0E0,0E0,0E0,0E0,0E0,0E0],"parents":[2147483647,0,0,1,1,2,2,3,3,4,4,5,5,6,6,7,7,8,8,9,9,10,10,11,11,12,12,13,13,14,14,15,15,16,16,17,17,18,18,19,19,20,20,21,21,22,22,23,23,24,24,25,25,26,26,28,28],"right_children":[2,4,6,8,10,12,14,16,18,20,22,24,26,28,30,32,34,36,38,40,42,44,46,48,50,52,54,-1,56,-1,-1,-1,-1,-1,-1,-1,-1,-1,-1,-1,-1,-1,-1,-1,-1,-1,-1,-1,-1,-1,-1,-1,-1,-1,-1,-1,-1],"split_conditions":[2.5786934E0,2.569433E0,8.3E1,3.2943878E-3,1.4385977E1,4.9E1,3E0,2.7435308E1,7.43221E-3,2.5733116E0,1.3426884E1,2.9559362E0,2.5881904E-1,6.1953673E0,1.1354125E1,2.660015E1,2.4038008E1,1.2630568E1,3.6E1,1E0,3E0,1.2969523E1,3E0,4E0,1.9188808E1,8.952077E0,3.1807718E1,5.089193E-1,2.5881904E-1,-1.0421993E0,2.0570818E-1,-2.2307511E-2,-2.1199997E-1,3.510529E-1,3.307345E-2,4.761835E-1,-3.2341337E-1,2.8829592E-1,-5.7418708E-2,1.1653137E-1,-2.4453199E-1,3.4590364E-1,-2.011261E-3,-1.1085135E0,-5.2193546E-1,1.7941558E-1,-1.7651672E-2,5.2261766E-2,4.944227E-1,-1.4997612E-1,1.0322373E-1,-5.129415E-1,1.1477649E-1,2.907031E-1,-4.8105294E-1,-7.5689317E-3,-7.356046E-1],"split_indices":[28,28,6,21,26,6,16,25,21,28,24,23,15,23,23,25,26,23,6,16,4,18,4,16,26,26,22,0,15,0,0,0,0,0,0,0,0,0,0,0,0,0,0,0,0,0,0,0,0,0,0,0,0,0,0,0,0],"split_type":[0,0,0,0,0,0,0,0,0,0,0,0,0,0,0,0,0,0,0,0,0,0,0,0,0,0,0,0,0,0,0,0,0,0,0,0,0,0,0,0,0,0,0,0,0,0,0,0,0,0,0,0,0,0,0,0,0],"sum_hessian":[5.245E3,4.647E3,5.98E2,4.629E3,1.8E1,5.81E2,1.7E1,4.331E3,2.98E2,5E0,1.3E1,2.57E2,3.24E2,9E0,8E0,4.092E3,2.39E2,5.5E1,2.43E2,3E0,2E0,1.1E1,2E0,4.2E1,2.15E2,1.7E2,1.54E2,3E0,6E0,7E0,1E0,3.995E3,9.7E1,2.8E1,2.11E2,4.6E1,9E0,5E1,1.93E2,1E0,2E0,1E0,1E0,3E0,8E0,1E0,1E0,2E1,2.2E1,1.34E2,8.1E1,6E0,1.64E2,1.51E2,3E0,3E0,3E0],"tree_param":{"num_deleted":"0","num_feature":"29","num_nodes":"57","size_leaf_vector":"1"}},{"base_weights":[3.1366058E-2,-1.0575488E-1,1.1147316E0,-4.7484818E-1,3.4444827E-1,1.4840131E0,-1.8228394E0,-2.432717E0,-3.652055E-1,-4.528327E-1,6.5834737E-1,-1.2380352E0,1.9293306E0,-1.38085575E1,-3.941249E-1,-9.46579E0,-1.1272628E0,8.866612E-1,-5.686539E-1,1.2682693E0,-1.48427E0,-1.6941209E0,9.346181E-1,2.5803988E0,-6.0603437E0,3.2059073E0,6.327427E-1,-9.527468E-2,-1.0959406E0,5.2314296E0,-1.6238644E0,-3.9809567E-1,-9.710519E-1,-2.1274395E-1,1.7735188E-1,-2.714396E-1,8.957135E-2,-1.565049E-1,-2.2735717E-2,5.732752E-1,1.8754866E-2,-7.720574E-2,-5.4383737E-1,-1.8124521E-1,2.3879693E-1,5.3047612E-2,2.108329E-1,3.814917E-1,-1.3720067E-1,-7.8527266E-1,-1.1685812E-1,-3.880704E-1,2.605718E-1,1.6881873E-1,-2.079484E-2,7.7259517E-1,-1.0122835E-1,-3.0703926E-1,2.471539E-1],"categories":[],"categories_nodes":[],"categories_segments":[],"categories_sizes":[],"default_left":[0,0,0,0,0,0,0,0,0,0,0,0,0,0,0,0,0,0,0,0,0,0,0,0,0,0,0,0,0,0,0,0,0,0,0,0,0,0,0,0,0,0,0,0,0,0,0,0,0,0,0,0,0,0,0,0,0,0,0],"id":19,"left_children":[1,3,5,7,9,11,13,15,17,19,21,23,25,27,29,31,33,35,37,39,41,43,45,47,49,51,53,-1,-1,55,57,-1,-1,-1,-1,-1,-1,-1,-1,-1,-1,-1,-1,-1,-1,-1,-1,-1,-1,-1,-1,-1,-1,-1,-1,-1,-1,-1,-1],"loss_changes":[7.7615405E2,7.70846E2,6.394772E2,5.462953E2,5.233536E2,6.351444E2,1.1247528E3,1.2288123E3,6.1558105E2,1.0510308E3,9.764607E2,1.3782495E3,7.4115344E2,1.396886E2,4.2357312E2,2.7076697E2,8.1262354E2,6.377188E2,8.440702E2,1.5348779E3,8.7817395E2,7.308802E2,4.9093823E2,5.57884E2,7.2864856E2,1.0420823E3,3.7123306E2,0E0,0E0,4.4240317E2,7.2744775E2,0E0,0E0,0E0,0E0,0E0,0E0,0E0,0E0,0E0,0E0,0E0,0E0,0E0,0E0,0E0,0E0,0E0,0E0,0E0,0E0,0E0,0E0,0E0,0E0,0E0,0E0,0E0,0E0],"parents":[2147483647,0,0,1,1,2,2,3,3,4,4,5,5,6,6,7,7,8,8,9,9,10,10,11,11,12,12,13,13,14,14,15,15,16,16,17,17,18,18,19,19,20,20,21,21,22,22,23,23,24,24,25,25,26,26,29,29,30,30],"right_children":[2,4,6,8,10,12,14,16,18,20,22,24,26,28,30,32,34,36,38,40,42,44,46,48,50,52,54,-1,-1,56,58,-1,-1,-1,-1,-1,-1,-1,-1,-1,-1,-1,-1,-1,-1,-1,-1,-1,-1,-1,-1,-1,-1,-1,-1,-1,-1,-1,-1],"split_conditions":[2.5786934E0,4E0,1.5E1,1E0,2E0,4.952578E0,-8.660254E-1,7.756013E1,7.755812E1,-5E-1,-8.660254E-1,3.8453965E0,4E0,2E0,7.7538635E1,6.2210364E0,1.8912313E1,7.752964E1,7.7573425E1,1.1164212E1,7.7676254E1,1.3042879E1,1.833206E1,7.7593254E1,4.391976E0,-5E-1,1.6598402E1,-9.527468E-2,-1.0959406E0,1.767667E1,4E0,-3.9809567E-1,-9.710519E-1,-2.1274395E-1,1.7735188E-1,-2.714396E-1,8.957135E-2,-1.565049E-1,-2.2735717E-2,5.732752E-1,1.8754866E-2,-7.720574E-2,-5.4383737E-1,-1.8124521E-1,2.3879693E-1,5.3047612E-2,2.108329E-1,3.814917E-1,-1.3720067E-1,-7.8527266E-1,-1.1685812E-1,-3.880704E-1,2.605718E-1,1.6881873E-1,-2.079484E-2,7.7259517E-1,-1.0122835E-1,-3.0703926E-1,2.471539E-1],"split_indices":[28,20,3,13,16,24,14,19,19,14,14,24,20,17,19,24,25,19,19,25,19,18,24,19,24,15,25,0,0,22,17,0,0,0,0,0,0,0,0,0,0,0,0,0,0,0,0,0,0,0,0,0,0,0,0,0,0,0,0],"split_type":[0,0,0,0,0,0,0,0,0,0,0,0,0,0,0,0,0,0,0,0,0,0,0,0,0,0,0,0,0,0,0,0,0,0,0,0,0,0,0,0,0,0,0,0,0,0,0,0,0,0,0,0,0,0,0,0,0,0,0],"sum_hessian":[5.223E3,4.637E3,5.86E2,2.548E3,2.089E3,5.21E2,6.5E1,1.34E2,2.414E3,5.9E2,1.499E3,7.3E1,4.48E2,6E0,5.9E1,2E1,1.14E2,3.37E2,2.077E3,2.21E2,3.69E2,1.57E2,1.342E3,4.1E1,3.2E1,2.25E2,2.23E2,1E0,5E0,1E1,4.9E1,1.2E1,8E0,7.5E1,3.9E1,2.5E1,3.12E2,2.64E2,1.813E3,2.7E1,1.94E2,3.49E2,2E1,1.34E2,2.3E1,1.238E3,1.04E2,2.5E1,1.6E1,1.4E1,1.8E1,1.2E1,2.13E2,7.6E1,1.47E2,5E0,5E0,3.2E1,1.7E1],"tree_param":{"num_deleted":"0","num_feature":"29","num_nodes":"59","size_leaf_vector":"1"}},{"base_weights":[-1.4270876E-1,-4.0658572E-1,2.6214263E-1,-5.6360923E-2,-1.6532643E0,9.186585E0,2.3160066E-1,2.816627E-2,-5.32161E0,-2.1791033E-1,-2.1013997E0,7.266255E-1,7.083687E-2,-3.8411086E0,3.0205274E-1,-2.737939E-1,1.3501818E0,2.2653174E0,-7.673199E0,2.8714855E0,-2.1845067E0,-1.9447194E0,-8.676586E0,-6.109417E0,8.140619E0,1.2003047E0,2.7391743E-2,-6.062576E-1,-1.6175682E-2,6.4406976E-2,3.7221134E-1,-6.189962E-1,4.3033886E-1,-9.3489254E-1,-3.4998566E-1,-1.2493177E-2,4.084101E-1,-1.9717586E-1,7.4517155E-1,-2.7986377E-1,-1.0680104E-1,-9.77384E-1,1.0614791E-1,-1.359664E-1,-6.427204E-1,7.259978E-1,-1.05464496E-1,9.548871E-2,-3.6447465E-1,-6.3990176E-1,8.614871E-3],"categories":[],"categories_nodes":[],"categories_segments":[],"categories_sizes":[],"default_left":[0,0,0,0,0,0,0,0,0,0,0,0,0,0,0,0,0,0,0,0,0,0,0,0,0,0,0,0,0,0,0,0,0,0,0,0,0,0,0,0,0,0,0,0,0,0,0,0,0,0,0],"id":20,"left_children":[1,3,5,7,9,11,13,15,17,19,21,-1,-1,23,25,27,29,31,33,35,37,39,41,43,45,47,49,-1,-1,-1,-1,-1,-1,-1,-1,-1,-1,-1,-1,-1,-1,-1,-1,-1,-1,-1,-1,-1,-1,-1,-1],"loss_changes":[5.5765735E2,1.3796189E3,5.5936694E2,1.0985499E3,4.4530237E2,5.7806458E1,5.9051624E2,9.70416E2,7.1319434E2,1.0148214E3,5.2707275E2,0E0,0E0,1.0009734E3,4.9833105E2,7.0694165E2,7.663048E2,4.856223E2,3.8896594E2,5.8843726E2,8.574283E2,4.386892E2,6.6773956E2,3.662378E2,1.4475131E2,5.0356683E2,1.3591162E3,0E0,0E0,0E0,0E0,0E0,0E0,0E0,0E0,0E0,0E0,0E0,0E0,0E0,0E0,0E0,0E0,0E0,0E0,0E0,0E0,0E0,0E0,0E0,0E0],"parents":[2147483647,0,0,1,1,2,2,3,3,4,4,5,5,6,6,7,7,8,8,9,9,10,10,13,13,14,14,15,15,16,16,17,17,18,18,19,19,20,20,21,21,22,22,23,23,24,24,25,25,26,26],"right_children":[2,4,6,8,10,12,14,16,18,20,22,-1,-1,24,26,28,30,32,34,36,38,40,42,44,46,48,50,-1,-1,-1,-1,-1,-1,-1,-1,-1,-1,-1,-1,-1,-1,-1,-1,-1,-1,-1,-1,-1,-1,-1,-1],"split_conditions":[1.2086631E1,1.7720272E1,5.2878895E0,1.0876959E1,4.0178037E0,1.1E1,5.661777E0,1.297625E1,9.950457E0,1.3010635E1,2.0583862E1,7.266255E-1,7.083687E-2,7E0,1.3008362E1,6.6847806E0,7.393544E0,8E0,6.123234E-17,1E0,2.0117525E1,1.1E1,6.038409E0,5.465205E0,7.758496E1,2.5892622E1,1.3009198E1,-6.062576E-1,-1.6175682E-2,6.4406976E-2,3.7221134E-1,-6.189962E-1,4.3033886E-1,-9.3489254E-1,-3.4998566E-1,-1.2493177E-2,4.084101E-1,-1.9717586E-1,7.4517155E-1,-2.7986377E-1,-1.0680104E-1,-9.77384E-1,1.0614791E-1,-1.359664E-1,-6.427204E-1,7.259978E-1,-1.05464496E-1,9.548871E-2,-3.6447465E-1,-6.3990176E-1,8.614871E-3],"split_indices":[22,26,23,22,24,1,23,18,24,18,26,0,0,5,18,24,23,13,15,20,25,6,23,23,19,24,18,0,0,0,0,0,0,0,0,0,0,0,0,0,0,0,0,0,0,0,0,0,0,0,0],"split_type":[0,0,0,0,0,0,0,0,0,0,0,0,0,0,0,0,0,0,0,0,0,0,0,0,0,0,0,0,0,0,0,0,0,0,0,0,0,0,0,0,0,0,0,0,0,0,0,0,0,0,0],"sum_hessian":[5.218E3,3.159E3,2.059E3,2.467E3,6.92E2,6E0,2.053E3,2.429E3,3.8E1,1.65E2,5.27E2,5E0,1E0,3.4E1,2.019E3,1.978E3,4.51E2,9E0,2.9E1,6.4E1,1.01E2,5.16E2,1.1E1,2.9E1,5E0,4.72E2,1.547E3,9E0,1.969E3,4.08E2,4.3E1,2E0,7E0,8E0,2.1E1,3.2E1,3.2E1,9.7E1,4E0,8.6E1,4.3E2,7E0,4E0,1.3E1,1.6E1,4E0,1E0,4.61E2,1.1E1,1.5E1,1.532E3],"tree_param":{"num_deleted":"0","num_feature":"29","num_nodes":"51","size_leaf_vector":"1"}},{"base_weights":[-1.345702E-2,5.2031133E-2,-2.4145918E0,1.2885113E-1,-1.4327475E0,7.407072E-1,-3.6650703E0,6.728697E-2,3.2520123E0,8.335028E0,-1.7915741E0,4.160512E0,-4.649032E0,-2.7620523E0,-8.95039E0,-6.645943E-2,1.1270179E0,4.2733965E0,-5.652815E0,-1.6147016E0,7.985936E-1,-1.4201938E0,-1.0228442E1,3.8358852E-1,5.333036E0,-1.039474E0,-2.1311162E0,-3.8884203E0,2.0384073E0,3.9479074E-1,-1.0506553E1,-2.801228E-3,-9.723394E-1,1.0172635E-1,-1.2811321E-1,2.0706168E-1,7.447279E-1,2.4519928E-1,-7.0539534E-1,-2.3101825E-1,6.1474573E-2,-2.105401E-1,-7.4784057E-3,1.1671113E-1,-1.2905775E0,-4.9441892E-1,1.961327E-1,-1.0754692E-1,4.0600175E-1,9.570972E-2,-7.8532517E-1,-1.946609E-1,-5.971483E-1,2.7222726E-1,-9.6496576E-1,3.858255E-1,-8.610512E-1],"categories":[],"categories_nodes":[],"categories_segments":[],"categories_sizes":[],"default_left":[0,0,0,0,0,0,0,0,0,0,0,0,0,0,0,0,0,0,0,0,0,0,0,0,0,0,0,0,0,0,0,0,0,0,0,0,0,0,0,0,0,0,0,0,0,0,0,0,0,0,0,0,0,0,0,0,0],"id":21,"left_children":[1,3,5,7,9,11,13,15,17,19,21,23,25,27,29,31,33,35,37,39,-1,41,43,45,47,-1,49,51,53,-1,55,-1,-1,-1,-1,-1,-1,-1,-1,-1,-1,-1,-1,-1,-1,-1,-1,-1,-1,-1,-1,-1,-1,-1,-1,-1,-1],"loss_changes":[8.1733246E2,5.773317E2,5.472121E2,9.250075E2,8.876625E2,7.5661664E2,4.4777966E2,6.6906494E2,8.700149E2,2.9364136E2,7.4059576E2,1.086676E2,3.793017E2,4.7293542E2,3.7712317E2,1.5317683E3,5.129793E2,6.718701E2,4.4036877E2,1.5504156E1,0E0,4.8339563E2,1.00718774E3,1.4584927E2,6.9862E1,0E0,4.6043854E2,3.3618555E2,5.5141235E2,0E0,4.4141602E2,0E0,0E0,0E0,0E0,0E0,0E0,0E0,0E0,0E0,0E0,0E0,0E0,0E0,0E0,0E0,0E0,0E0,0E0,0E0,0E0,0E0,0E0,0E0,0E0,0E0,0E0],"parents":[2147483647,0,0,1,1,2,2,3,3,4,4,5,5,6,6,7,7,8,8,9,9,10,10,11,11,12,12,13,13,14,14,15,15,16,16,17,17,18,18,19,19,21,21,22,22,23,23,24,24,26,26,27,27,28,28,30,30],"right_children":[2,4,6,8,10,12,14,16,18,20,22,24,26,28,30,32,34,36,38,40,-1,42,44,46,48,-1,50,52,54,-1,56,-1,-1,-1,-1,-1,-1,-1,-1,-1,-1,-1,-1,-1,-1,-1,-1,-1,-1,-1,-1,-1,-1,-1,-1,-1,-1],"split_conditions":[8.6E1,9.105756E-3,3E0,2.9430953E-3,1.1936175E0,3E0,7.451561E-1,1.4084717E1,1.2764674E1,2.5881904E-1,1.2E1,7.7538635E1,1.3649248E1,2.0789402E1,-5E-1,2.07373E1,1E0,1E0,1.3998394E1,1E0,7.985936E-1,2E0,7.5258427E0,4E0,9.477002E0,-1.039474E0,1E0,1E0,1.304134E1,3.9479074E-1,5.726797E0,-2.801228E-3,-9.723394E-1,1.0172635E-1,-1.2811321E-1,2.0706168E-1,7.447279E-1,2.4519928E-1,-7.0539534E-1,-2.3101825E-1,6.1474573E-2,-2.105401E-1,-7.4784057E-3,1.1671113E-1,-1.2905775E0,-4.9441892E-1,1.961327E-1,-1.0754692E-1,4.0600175E-1,9.570972E-2,-7.8532517E-1,-1.946609E-1,-5.971483E-1,2.7222726E-1,-9.6496576E-1,3.858255E-1,-8.610512E-1],"split_indices":[6,21,17,21,23,16,28,23,23,15,1,19,26,26,15,22,10,11,22,0,0,20,22,1,22,0,11,11,22,0,23,0,0,0,0,0,0,0,0,0,0,0,0,0,0,0,0,0,0,0,0,0,0,0,0,0,0],"split_type":[0,0,0,0,0,0,0,0,0,0,0,0,0,0,0,0,0,0,0,0,0,0,0,0,0,0,0,0,0,0,0,0,0,0,0,0,0,0,0,0,0,0,0,0,0,0,0,0,0,0,0,0,0,0,0,0,0],"sum_hessian":[5.196E3,5.059E3,1.37E2,4.811E3,2.48E2,3.9E1,9.8E1,4.719E3,9.2E1,8E0,2.4E2,2.4E1,1.5E1,8.5E1,1.3E1,4.191E3,5.28E2,8.3E1,9E0,2E0,6E0,2.31E2,9E0,6E0,1.8E1,2E0,1.3E1,6.9E1,1.6E1,1E0,1.2E1,4.184E3,7E0,4.76E2,5.2E1,7E1,1.3E1,3E0,6E0,1E0,1E0,1.04E2,1.27E2,4E0,5E0,1E0,5E0,1E0,1.7E1,1E1,3E0,5.7E1,1.2E1,1.5E1,1E0,1E0,1.1E1],"tree_param":{"num_deleted":"0","num_feature":"29","num_nodes":"57","size_leaf_vector":"1"}}]},"name":"gbtree"},"learner_model_param":{"base_score":"5.144263E1","boost_from_average":"1","num_class":"0","num_feature":"29","num_target":"1"},"objective":{"name":"reg:squarederror","reg_loss_param":{"scale_pos_weight":"1"}}},"version":[3,0,2]}