{"learner":{"attributes":{"best_iteration":"99","best_score":"0.02806600302447384","scikit_learn":"{\"_estimator_type\": \"regressor\"}"},"feature_names":["event_type_enc","event_cause_enc","priority_enc","corridor_enc","zone_enc","veh_type_enc","corridor_zone_enc","requires_road_closure","is_corridor","is_weekend","is_morning_peak","is_evening_peak","is_night","hour","hour_sin","hour_cos","day_of_week","month","latitude","longitude","geo_cluster","route_length_km","dist_silk_board_km","dist_mg_road_km","dist_hebbal_km","dist_whitefield_km","dist_electronic_city_km","dist_city_center_km","duration_log","congestion_score","cause_severity"],"feature_types":["int","int","int","int","int","int","int","int","int","int","int","int","int","int","float","float","int","int","float","float","int","float","float","float","float","float","float","float","float","float","float"],"gradient_booster":{"model":{"gbtree_model_param":{"num_parallel_tree":"1","num_trees":"130"},"iteration_indptr":[0,1,2,3,4,5,6,7,8,9,10,11,12,13,14,15,16,17,18,19,20,21,22,23,24,25,26,27,28,29,30,31,32,33,34,35,36,37,38,39,40,41,42,43,44,45,46,47,48,49,50,51,52,53,54,55,56,57,58,59,60,61,62,63,64,65,66,67,68,69,70,71,72,73,74,75,76,77,78,79,80,81,82,83,84,85,86,87,88,89,90,91,92,93,94,95,96,97,98,99,100,101,102,103,104,105,106,107,108,109,110,111,112,113,114,115,116,117,118,119,120,121,122,123,124,125,126,127,128,129,130],"tree_info":[0,0,0,0,0,0,0,0,0,0,0,0,0,0,0,0,0,0,0,0,0,0,0,0,0,0,0,0,0,0,0,0,0,0,0,0,0,0,0,0,0,0,0,0,0,0,0,0,0,0,0,0,0,0,0,0,0,0,0,0,0,0,0,0,0,0,0,0,0,0,0,0,0,0,0,0,0,0,0,0,0,0,0,0,0,0,0,0,0,0,0,0,0,0,0,0,0,0,0,0,0,0,0,0,0,0,0,0,0,0,0,0,0,0,0,0,0,0,0,0,0,0,0,0,0,0,0,0,0,0],"trees":[{"base_weights":[-4.4958093E-4,-2.3653153E-1,8.1909604E-2,-3.0730554E-1,-1.7858823E-1,2.2967193E-2,1.4381385E-1,-3.6005527E-1,-2.7378032E-1,-2.0615701E-1,-1.1521079E-1,-1.8971704E-2,5.0662674E-2,1.0788565E-1,1.6631784E-1,-2.0681016E-2,-1.6725468E-2,-1.4537394E-2,-1.2830041E-2,-1.11505715E-2,-1.8116996E-1,-1.3300596E-1,-9.3918234E-2,-5.3187154E-2,-2.7738695E-3,3.0806897E-2,6.351539E-2,9.70434E-2,6.22841E-3,7.5932667E-3,8.596794E-3,-9.081161E-3,-2.4216324E-3,-2.515485E-3,-6.705627E-3,-5.331777E-3,-4.281727E-3,-3.5901212E-3,-2.3368946E-3,-7.934862E-4,2.9215505E-4,1.1017172E-3,1.7829882E-3,2.5921073E-3,3.6023245E-3,4.5792717E-3,5.258279E-3],"categories":[],"categories_nodes":[],"categories_segments":[],"categories_sizes":[],"default_left":[0,0,0,0,0,0,0,0,0,0,0,0,0,0,0,0,0,0,0,0,0,0,0,0,0,0,0,0,0,0,0,0,0,0,0,0,0,0,0,0,0,0,0,0,0,0,0],"id":0,"left_children":[1,3,5,7,9,11,13,15,17,19,21,23,25,27,29,-1,-1,-1,-1,-1,31,33,35,37,39,41,43,45,-1,-1,-1,-1,-1,-1,-1,-1,-1,-1,-1,-1,-1,-1,-1,-1,-1,-1,-1],"loss_changes":[8.8409615E1,4.7677536E0,1.2296755E1,8.351631E-1,1.1102085E0,2.008064E0,1.3112755E0,1.3805008E-1,2.0713806E-2,1.4953232E-1,6.291032E-2,3.8115323E-1,2.6370716E-1,1.0294914E-1,5.5812836E-2,0E0,0E0,0E0,0E0,0E0,2.4542809E-3,2.952695E-3,7.7086687E-4,2.3176253E-2,5.2904934E-2,1.6711354E-2,5.910349E-2,7.6572895E-3,0E0,0E0,0E0,0E0,0E0,0E0,0E0,0E0,0E0,0E0,0E0,0E0,0E0,0E0,0E0,0E0,0E0,0E0,0E0],"parents":[2147483647,0,0,1,1,2,2,3,3,4,4,5,5,6,6,7,7,8,8,9,9,10,10,11,11,12,12,13,13,14,14,20,20,21,21,22,22,23,23,24,24,25,25,26,26,27,27],"right_children":[2,4,6,8,10,12,14,16,18,20,22,24,26,28,30,-1,-1,-1,-1,-1,32,34,36,38,40,42,44,46,-1,-1,-1,-1,-1,-1,-1,-1,-1,-1,-1,-1,-1,-1,-1,-1,-1,-1,-1],"split_conditions":[6.603443E1,4.8130554E1,8.6812706E1,4.185563E1,5.743179E1,7.788659E1,9.490307E1,3.6105816E1,4.543405E1,5.271977E1,6.1989452E1,7.1678825E1,8.160297E1,9.1078125E1,9.822687E1,-2.0681016E-2,-1.6725468E-2,-1.4537394E-2,-1.2830041E-2,-1.11505715E-2,4.9847648E-1,-7.0710677E-1,6.3432056E1,6.779785E1,7.476024E1,7.9310356E1,8.381896E1,8.936486E1,6.22841E-3,7.5932667E-3,8.596794E-3,-9.081161E-3,-2.4216324E-3,-2.515485E-3,-6.705627E-3,-5.331777E-3,-4.281727E-3,-3.5901212E-3,-2.3368946E-3,-7.934862E-4,2.9215505E-4,1.1017172E-3,1.7829882E-3,2.5921073E-3,3.6023245E-3,4.5792717E-3,5.258279E-3],"split_indices":[29,29,29,29,29,29,29,29,29,29,29,29,29,29,29,0,0,0,0,0,21,14,29,29,29,29,29,29,0,0,0,0,0,0,0,0,0,0,0,0,0,0,0,0,0,0,0],"split_type":[0,0,0,0,0,0,0,0,0,0,0,0,0,0,0,0,0,0,0,0,0,0,0,0,0,0,0,0,0,0,0,0,0,0,0,0,0,0,0,0,0,0,0,0,0,0,0],"sum_hessian":[4.545E3,1.175E3,3.37E3,5.27E2,6.48E2,1.727E3,1.643E3,2.01E2,3.26E2,4.5E2,1.98E2,6.87E2,1.04E3,6.35E2,1.008E3,6E1,1.41E2,1.56E2,1.7E2,2.64E2,1.86E2,1.05E2,9.3E1,2.2E2,4.67E2,4.1E2,6.3E2,3.89E2,2.46E2,2.9E2,7.18E2,1.85E2,1E0,2E0,1.03E2,3.2E1,6.1E1,5.4E1,1.66E2,1.85E2,2.82E2,1.48E2,2.62E2,2.69E2,3.61E2,2.4E2,1.49E2],"tree_param":{"num_deleted":"0","num_feature":"31","num_nodes":"47","size_leaf_vector":"1"}},{"base_weights":[1.6511645E-3,9.093602E-2,-1.435858E-1,7.3779635E-2,1.5426306E-1,-1.7179166E-1,1.1925784E-2,1.3929807E-1,5.6623332E-2,1.263749E-1,7.780587E-3,-2.0112103E-1,-9.849809E-3,-9.2651934E-4,1.06338836E-1,7.307531E-2,1.4630276E-1,-3.7868533E-2,6.108393E-2,2.680727E-3,6.4669806E-3,4.8220146E-2,-2.1948077E-1,-2.4976969E-2,9.801286E-2,6.6205687E-3,-8.660743E-3,-2.9944351E-3,6.5842383E-3,1.0342178E-4,5.543835E-3,6.1243246E-3,7.5768935E-3,-3.2596102E-3,2.368104E-3,2.8540737E-3,7.489525E-3,4.3811733E-3,2.032316E-3,-1.1925396E-2,-4.1986913E-3,7.562282E-3,-1.8046182E-3,5.376895E-3,-8.604209E-4,-7.3106843E-3,-2.4263114E-4,2.1968067E-3,-2.45882E-3],"categories":[],"categories_nodes":[],"categories_segments":[],"categories_sizes":[],"default_left":[0,0,0,0,0,0,0,0,0,0,0,0,0,0,0,0,0,0,0,0,0,0,0,0,0,0,0,0,0,0,0,0,0,0,0,0,0,0,0,0,0,0,0,0,0,0,0,0,0],"id":1,"left_children":[1,3,5,7,9,11,13,15,17,19,-1,21,23,25,27,29,31,33,35,-1,-1,37,39,41,43,-1,45,47,-1,-1,-1,-1,-1,-1,-1,-1,-1,-1,-1,-1,-1,-1,-1,-1,-1,-1,-1,-1,-1],"loss_changes":[5.9027973E1,3.0513573E0,7.603573E0,2.4875126E0,2.902031E-3,6.9657593E0,3.2408306E-1,2.0268917E-1,7.4455786E-1,1.8411875E-4,0E0,5.6962585E0,3.7120232E-1,2.4452534E-1,8.9071184E-2,1.23241946E-1,3.318119E-2,1.8939269E-1,5.88634E-1,0E0,0E0,2.2103757E-2,2.9630775E0,3.9525685E-1,3.2580167E-2,0E0,1.1662574E-1,1.733204E-2,0E0,0E0,0E0,0E0,0E0,0E0,0E0,0E0,0E0,0E0,0E0,0E0,0E0,0E0,0E0,0E0,0E0,0E0,0E0,0E0,0E0],"parents":[2147483647,0,0,1,1,2,2,3,3,4,4,5,5,6,6,7,7,8,8,9,9,11,11,12,12,13,13,14,14,15,15,16,16,17,17,18,18,21,21,22,22,23,23,24,24,26,26,27,27],"right_children":[2,4,6,8,10,12,14,16,18,20,-1,22,24,26,28,30,32,34,36,-1,-1,38,40,42,44,-1,46,48,-1,-1,-1,-1,-1,-1,-1,-1,-1,-1,-1,-1,-1,-1,-1,-1,-1,-1,-1,-1,-1],"split_conditions":[1E0,1E0,1E0,-1.8369701E-16,1E0,1E0,1E0,1E0,1E0,3.0861197E0,7.780587E-3,1.5520914E0,1E0,1.5520914E0,1E0,1E0,-7.0710677E-1,1E0,1E0,2.680727E-3,6.4669806E-3,2.5881904E-1,1E0,1.5520914E0,8E0,6.6205687E-3,1E0,9.858441E0,6.5842383E-3,1.0342178E-4,5.543835E-3,6.1243246E-3,7.5768935E-3,-3.2596102E-3,2.368104E-3,2.8540737E-3,7.489525E-3,4.3811733E-3,2.032316E-3,-1.1925396E-2,-4.1986913E-3,7.562282E-3,-1.8046182E-3,5.376895E-3,-8.604209E-4,-7.3106843E-3,-2.4263114E-4,2.1968067E-3,-2.45882E-3],"split_indices":[2,11,11,15,0,10,7,0,0,24,0,30,7,30,0,7,15,7,7,0,0,15,7,30,20,0,0,23,0,0,0,0,0,0,0,0,0,0,0,0,0,0,0,0,0,0,0,0,0],"split_type":[0,0,0,0,0,0,0,0,0,0,0,0,0,0,0,0,0,0,0,0,0,0,0,0,0,0,0,0,0,0,0,0,0,0,0,0,0,0,0,0,0,0,0,0,0,0,0,0,0],"sum_hessian":[4.55E3,2.818E3,1.732E3,2.219E3,5.99E2,1.466E3,2.66E2,4.59E2,1.76E3,3.2E1,5.67E2,1.241E3,2.25E2,2.35E2,3.1E1,4.5E1,4.14E2,7.9E1,1.681E3,2E0,3E1,8.5E1,1.156E3,1.98E2,2.7E1,1.2E1,2.23E2,6E0,2.5E1,1.6E1,2.9E1,7.9E1,3.35E2,6E1,1.9E1,1.61E3,7.1E1,1.2E1,7.3E1,1.013E3,1.43E2,1.1E1,1.87E2,2.5E1,2E0,5E0,2.18E2,3E0,3E0],"tree_param":{"num_deleted":"0","num_feature":"31","num_nodes":"49","size_leaf_vector":"1"}},{"base_weights":[1.9099642E-5,-2.058171E-1,7.8003265E-2,-2.6334372E-1,-1.3253233E-1,2.4294805E-2,1.311518E-1,-3.265446E-1,-2.3271087E-1,-1.6678771E-1,-9.3325734E-2,-9.098659E-3,5.0380893E-2,9.8411545E-2,1.4963698E-1,-2.0327874E-2,-1.5471237E-2,-1.2601957E-2,-1.0628871E-2,-8.857089E-3,-7.409792E-3,-1.15199156E-1,-7.9112515E-2,-3.790253E-2,4.1959067E-3,3.782921E-2,6.51074E-2,8.4603116E-2,1.0746018E-1,6.808724E-3,7.7632666E-3,-5.79795E-3,-9.803892E-4,-4.3904963E-3,-3.618955E-3,-2.4670388E-3,-1.4959745E-3,-4.7535272E-4,4.327752E-4,1.5762337E-3,2.2767372E-3,2.865877E-3,3.4580787E-3,2.9166997E-3,4.279435E-3,4.9627293E-3,5.771543E-3],"categories":[],"categories_nodes":[],"categories_segments":[],"categories_sizes":[],"default_left":[0,0,0,0,0,0,0,0,0,0,0,0,0,0,0,0,0,0,0,0,0,0,0,0,0,0,0,0,0,0,0,0,0,0,0,0,0,0,0,0,0,0,0,0,0,0,0],"id":2,"left_children":[1,3,5,7,9,11,13,15,17,19,21,23,25,27,29,-1,-1,-1,-1,-1,-1,31,33,35,37,39,41,43,45,-1,-1,-1,-1,-1,-1,-1,-1,-1,-1,-1,-1,-1,-1,-1,-1,-1,-1],"loss_changes":[7.3726685E1,5.285473E0,9.505238E0,1.2908401E0,7.3250675E-1,1.4447501E0,9.98394E-1,1.8651772E-1,1.3282394E-1,3.0727386E-2,7.234001E-2,2.789357E-1,1.6962528E-1,6.675196E-2,5.978203E-2,0E0,0E0,0E0,0E0,0E0,0E0,5.0622225E-3,3.131628E-3,1.9525468E-2,3.0576024E-2,2.3097396E-2,9.521246E-3,1.350522E-3,1.2284279E-2,0E0,0E0,0E0,0E0,0E0,0E0,0E0,0E0,0E0,0E0,0E0,0E0,0E0,0E0,0E0,0E0,0E0,0E0],"parents":[2147483647,0,0,1,1,2,2,3,3,4,4,5,5,6,6,7,7,8,8,9,9,10,10,11,11,12,12,13,13,14,14,21,21,22,22,23,23,24,24,25,25,26,26,27,27,28,28],"right_children":[2,4,6,8,10,12,14,16,18,20,22,24,26,28,30,-1,-1,-1,-1,-1,-1,32,34,36,38,40,42,44,46,-1,-1,-1,-1,-1,-1,-1,-1,-1,-1,-1,-1,-1,-1,-1,-1,-1,-1],"split_conditions":[6.779785E1,5.1076664E1,8.696811E1,4.2198734E1,5.7951263E1,7.918668E1,9.46222E1,3.331888E1,4.728833E1,5.460229E1,6.1989452E1,7.3028915E1,8.34128E1,8.9764725E1,9.8114944E1,-2.0327874E-2,-1.5471237E-2,-1.2601957E-2,-1.0628871E-2,-8.857089E-3,-7.409792E-3,9E0,6.4760056E1,7.008957E1,7.4873856E1,8.160297E1,8.471112E1,3.6199803E0,9.1812546E1,6.808724E-3,7.7632666E-3,-5.79795E-3,-9.803892E-4,-4.3904963E-3,-3.618955E-3,-2.4670388E-3,-1.4959745E-3,-4.7535272E-4,4.327752E-4,1.5762337E-3,2.2767372E-3,2.865877E-3,3.4580787E-3,2.9166997E-3,4.279435E-3,4.9627293E-3,5.771543E-3],"split_indices":[29,29,29,29,29,29,29,29,29,29,29,29,29,29,29,0,0,0,0,0,0,5,29,29,29,29,29,30,29,0,0,0,0,0,0,0,0,0,0,0,0,0,0,0,0,0,0],"split_type":[0,0,0,0,0,0,0,0,0,0,0,0,0,0,0,0,0,0,0,0,0,0,0,0,0,0,0,0,0,0,0,0,0,0,0,0,0,0,0,0,0,0,0,0,0,0,0],"sum_hessian":[4.591E3,1.261E3,3.33E3,7.05E2,5.56E2,1.657E3,1.673E3,2.27E2,4.78E2,2.95E2,2.61E2,7.27E2,9.3E2,6.06E2,1.067E3,3.6E1,1.91E2,2.38E2,2.4E2,1.84E2,1.11E2,1E2,1.61E2,2.29E2,4.98E2,5.04E2,4.26E2,2.44E2,3.62E2,3.22E2,7.45E2,9.9E1,1E0,6.5E1,9.6E1,9.2E1,1.37E2,1.22E2,3.76E2,2.8E2,2.24E2,1.51E2,2.75E2,1.1E1,2.33E2,1.85E2,1.77E2],"tree_param":{"num_deleted":"0","num_feature":"31","num_nodes":"47","size_leaf_vector":"1"}},{"base_weights":[-1.6776817E-4,-1.9401255E-1,7.25965E-2,-2.4856177E-1,-1.2938955E-1,2.160219E-2,1.2425282E-1,-3.0877298E-1,-2.2458442E-1,-1.6198683E-1,-8.7882884E-2,-1.4642055E-2,4.3925725E-2,9.642294E-2,1.4356986E-1,-1.7637266E-2,-1.432232E-2,-1.2498128E-2,-1.0497299E-2,-8.639705E-3,-1.4130498E-1,-1.052558E-1,-6.940759E-2,-3.809126E-2,-8.5990416E-4,3.2385543E-2,6.1952103E-2,8.683809E-2,1.14134274E-1,6.6485377E-3,7.4304887E-3,-7.0906705E-3,-2.07088E-3,-1.9664466E-3,-5.2989325E-3,-3.602049E-3,-2.4065145E-3,-2.3378392E-3,-1.5508424E-3,-5.61227E-4,2.5017041E-4,1.1941514E-3,2.0766226E-3,2.8926071E-3,3.4010669E-3,4.0254886E-3,4.6690814E-3,5.754586E-3,3.6170618E-3],"categories":[],"categories_nodes":[],"categories_segments":[],"categories_sizes":[],"default_left":[0,0,0,0,0,0,0,0,0,0,0,0,0,0,0,0,0,0,0,0,0,0,0,0,0,0,0,0,0,0,0,0,0,0,0,0,0,0,0,0,0,0,0,0,0,0,0,0,0],"id":3,"left_children":[1,3,5,7,9,11,13,15,17,19,21,23,25,27,29,-1,-1,-1,-1,-1,31,33,35,37,39,41,43,45,47,-1,-1,-1,-1,-1,-1,-1,-1,-1,-1,-1,-1,-1,-1,-1,-1,-1,-1,-1,-1],"loss_changes":[6.4911064E1,4.3954086E0,8.8112755E0,9.123726E-1,7.66448E-1,1.363976E0,8.7963104E-1,8.647156E-2,1.2955475E-1,4.755497E-2,7.486272E-2,2.0777227E-1,2.1496654E-1,1.0620499E-1,3.253746E-2,0E0,0E0,0E0,0E0,0E0,1.7642975E-5,2.027154E-3,3.6486983E-3,1.3139993E-2,2.4729226E-2,4.8626482E-2,6.167531E-3,1.1033297E-2,1.1575222E-3,0E0,0E0,0E0,0E0,0E0,0E0,0E0,0E0,0E0,0E0,0E0,0E0,0E0,0E0,0E0,0E0,0E0,0E0,0E0,0E0],"parents":[2147483647,0,0,1,1,2,2,3,3,4,4,5,5,6,6,7,7,8,8,9,9,10,10,11,11,12,12,13,13,14,14,20,20,21,21,22,22,23,23,24,24,25,25,26,26,27,27,28,28],"right_children":[2,4,6,8,10,12,14,16,18,20,22,24,26,28,30,-1,-1,-1,-1,-1,32,34,36,38,40,42,44,46,48,-1,-1,-1,-1,-1,-1,-1,-1,-1,-1,-1,-1,-1,-1,-1,-1,-1,-1,-1,-1],"split_conditions":[6.779785E1,5.0801838E1,8.6812706E1,4.185563E1,5.7951263E1,7.788659E1,9.542798E1,3.6105816E1,4.543405E1,5.460229E1,6.3432056E1,7.2662704E1,8.34128E1,9.1812546E1,9.871536E1,-1.7637266E-2,-1.432232E-2,-1.2498128E-2,-1.0497299E-2,-8.639705E-3,9.4731964E-2,2E0,2.3464912E1,7.008957E1,7.4873856E1,8.091612E1,8.5486275E1,8.936486E1,8.8273704E-2,6.6485377E-3,7.4304887E-3,-7.0906705E-3,-2.07088E-3,-1.9664466E-3,-5.2989325E-3,-3.602049E-3,-2.4065145E-3,-2.3378392E-3,-1.5508424E-3,-5.61227E-4,2.5017041E-4,1.1941514E-3,2.0766226E-3,2.8926071E-3,3.4010669E-3,4.0254886E-3,4.6690814E-3,5.754586E-3,3.6170618E-3],"split_indices":[29,29,29,29,29,29,29,29,29,29,29,29,29,29,29,0,0,0,0,0,21,1,25,29,29,29,29,29,21,0,0,0,0,0,0,0,0,0,0,0,0,0,0,0,0,0,0,0,0],"split_type":[0,0,0,0,0,0,0,0,0,0,0,0,0,0,0,0,0,0,0,0,0,0,0,0,0,0,0,0,0,0,0,0,0,0,0,0,0,0,0,0,0,0,0,0,0,0,0,0,0],"sum_hessian":[4.6E3,1.255E3,3.345E3,6.79E2,5.76E2,1.684E3,1.661E3,1.9E2,4.89E2,3.21E2,2.55E2,6.42E2,1.042E3,6.83E2,9.78E2,5.9E1,1.31E2,1.73E2,3.16E2,2.06E2,1.15E2,1.29E2,1.26E2,2.37E2,4.05E2,6.37E2,4.05E2,4.47E2,2.36E2,3.24E2,6.54E2,1.14E2,1E0,2E0,1.27E2,1.1E2,1.6E1,1.04E2,1.33E2,1.46E2,2.59E2,3.32E2,3.05E2,2.48E2,1.57E2,2.34E2,2.13E2,2.29E2,7E0],"tree_param":{"num_deleted":"0","num_feature":"31","num_nodes":"49","size_leaf_vector":"1"}},{"base_weights":[1.3996809E-3,-1.2152981E-1,7.753981E-2,-1.451827E-1,7.6165535E-3,6.2339958E-2,1.3210848E-1,-1.7052463E-1,-1.2882052E-2,-2.9218025E-3,8.674553E-2,1.2037339E-1,4.83575E-2,1.0287862E-1,6.68741E-3,4.6715338E-2,-1.8814868E-1,-2.6404101E-2,8.22017E-2,-1.4879186E-2,7.563983E-2,3.6467144E-3,1.0578192E-1,8.8282496E-2,6.5922635E-3,5.897362E-3,5.8746353E-2,1.06228255E-1,-4.426986E-4,1.4339535E-3,3.327965E-3,-1.0245035E-2,-3.2475654E-3,6.6956775E-3,-1.7544776E-3,-2.3721605E-4,4.601904E-3,-3.259565E-3,-7.671018E-5,5.539891E-3,2.597383E-3,2.3328743E-3,-1.1444545E-3,1.824365E-3,5.5018086E-3,4.667449E-3,8.837826E-4,-1.2786519E-4,4.5261965E-3,-1.5855111E-3,3.139414E-3,3.4023442E-3,5.6549003E-3],"categories":[],"categories_nodes":[],"categories_segments":[],"categories_sizes":[],"default_left":[0,0,0,0,0,0,0,0,0,0,0,0,0,0,0,0,0,0,0,0,0,0,0,0,0,0,0,0,0,0,0,0,0,0,0,0,0,0,0,0,0,0,0,0,0,0,0,0,0,0,0,0,0],"id":4,"left_children":[1,3,5,7,9,11,13,15,17,19,21,23,25,27,-1,29,31,33,35,37,39,41,43,45,-1,47,49,51,-1,-1,-1,-1,-1,-1,-1,-1,-1,-1,-1,-1,-1,-1,-1,-1,-1,-1,-1,-1,-1,-1,-1,-1,-1],"loss_changes":[4.2849533E1,5.349859E0,2.3365784E0,4.959881E0,2.2707134E-1,1.789918E0,1.5715599E-2,4.7639694E0,3.0945924E-1,2.2751883E-1,5.0235108E-2,1.4629364E-1,7.870388E-1,1.478827E-2,0E0,3.1734765E-2,2.3580017E0,2.9710948E-1,2.6093692E-2,1.4089698E-1,2.0899326E-2,9.057225E-3,3.6497712E-3,3.984636E-2,0E0,2.5208375E-1,5.2628803E-1,1.7467141E-3,0E0,0E0,0E0,0E0,0E0,0E0,0E0,0E0,0E0,0E0,0E0,0E0,0E0,0E0,0E0,0E0,0E0,0E0,0E0,0E0,0E0,0E0,0E0,0E0,0E0],"parents":[2147483647,0,0,1,1,2,2,3,3,4,4,5,5,6,6,7,7,8,8,9,9,10,10,11,11,12,12,13,13,15,15,16,16,17,17,18,18,19,19,20,20,21,21,22,22,23,23,25,25,26,26,27,27],"right_children":[2,4,6,8,10,12,14,16,18,20,22,24,26,28,-1,30,32,34,36,38,40,42,44,46,-1,48,50,52,-1,-1,-1,-1,-1,-1,-1,-1,-1,-1,-1,-1,-1,-1,-1,-1,-1,-1,-1,-1,-1,-1,-1,-1,-1],"split_conditions":[1E0,1E0,1E0,1E0,5.6369056E-5,-1.8369701E-16,1E0,1E0,5.6369056E-5,9.571591E-1,1E0,-7.0710677E-1,1.3995057E-1,1.1E1,6.68741E-3,2E0,5.6369056E-5,1E0,1.0092128E-3,2.676256E-1,1E0,1.304891E1,1.0092128E-3,7.769529E1,6.5922635E-3,5.6369056E-5,1E0,1.5898257E0,-4.426986E-4,1.4339535E-3,3.327965E-3,-1.0245035E-2,-3.2475654E-3,6.6956775E-3,-1.7544776E-3,-2.3721605E-4,4.601904E-3,-3.259565E-3,-7.671018E-5,5.539891E-3,2.597383E-3,2.3328743E-3,-1.1444545E-3,1.824365E-3,5.5018086E-3,4.667449E-3,8.837826E-4,-1.2786519E-4,4.5261965E-3,-1.5855111E-3,3.139414E-3,3.4023442E-3,5.6549003E-3],"split_indices":[8,11,11,10,21,15,0,1,21,28,0,15,28,1,0,16,21,1,28,28,1,18,28,19,0,21,0,28,0,0,0,0,0,0,0,0,0,0,0,0,0,0,0,0,0,0,0,0,0,0,0,0,0],"split_type":[0,0,0,0,0,0,0,0,0,0,0,0,0,0,0,0,0,0,0,0,0,0,0,0,0,0,0,0,0,0,0,0,0,0,0,0,0,0,0,0,0,0,0,0,0,0,0,0,0,0,0,0,0],"sum_hessian":[4.576E3,1.75E3,2.826E3,1.479E3,2.71E2,2.212E3,6.14E2,1.241E3,2.38E2,2.4E2,3.1E1,4.28E2,1.784E3,3.6E1,5.78E2,9.3E1,1.148E3,2.09E2,2.9E1,2.09E2,3.1E1,6E0,2.5E1,1.15E2,3.13E2,3.51E2,1.433E3,3.5E1,1E0,5E1,4.3E1,1.01E3,1.38E2,1E1,1.99E2,3E0,2.6E1,4.3E1,1.66E2,1.1E1,2E1,2E0,4E0,2E0,2.3E1,1.07E2,8E0,3.2E2,3.1E1,6.1E1,1.372E3,7E0,2.8E1],"tree_param":{"num_deleted":"0","num_feature":"31","num_nodes":"53","size_leaf_vector":"1"}},{"base_weights":[-1.0575238E-3,-1.7676577E-1,6.644112E-2,-2.3272179E-1,-1.1754106E-1,1.9849315E-2,1.13816775E-1,-2.8605214E-1,-2.069157E-1,-1.4299725E-1,-7.386516E-2,-1.1447738E-2,4.035279E-2,8.7403186E-2,1.3113241E-1,-1.6437996E-2,-1.3275616E-2,-2.302142E-1,-9.653061E-3,-7.7555813E-3,-1.20503694E-1,-8.8493004E-2,-6.272511E-2,-3.3617977E-2,7.043219E-5,2.9494688E-2,5.5733804E-2,7.7973895E-2,5.026933E-3,1.2123774E-1,6.779175E-3,-3.3504756E-3,-1.154096E-2,-6.060951E-3,-2.359619E-3,-4.476415E-3,-1.3105551E-3,-3.7068434E-3,-2.740993E-3,-1.9377623E-3,-1.0555729E-3,-4.3396666E-4,3.3381992E-4,1.0647522E-3,1.853204E-3,2.6171138E-3,3.1605274E-3,3.6394463E-3,4.163556E-3,1.5023261E-3,6.0715927E-3],"categories":[],"categories_nodes":[],"categories_segments":[],"categories_sizes":[],"default_left":[0,0,0,0,0,0,0,0,0,0,0,0,0,0,0,0,0,0,0,0,0,0,0,0,0,0,0,0,0,0,0,0,0,0,0,0,0,0,0,0,0,0,0,0,0,0,0,0,0,0,0],"id":5,"left_children":[1,3,5,7,9,11,13,15,17,19,21,23,25,27,29,-1,-1,31,-1,-1,33,35,37,39,41,43,45,47,-1,49,-1,-1,-1,-1,-1,-1,-1,-1,-1,-1,-1,-1,-1,-1,-1,-1,-1,-1,-1,-1,-1],"loss_changes":[5.4271557E1,4.181404E0,7.2951307E0,8.381233E-1,6.776552E-1,1.0708146E0,7.381649E-1,9.692383E-2,9.854889E-2,8.758211E-2,3.1929016E-2,1.6879573E-1,1.6670084E-1,7.291603E-2,2.7074814E-2,0E0,0E0,3.30925E-4,0E0,0E0,1.6739368E-3,3.907919E-3,8.024335E-3,1.3702184E-2,2.5259031E-2,3.6016107E-2,7.240176E-3,4.485607E-3,0E0,1.9454956E-3,0E0,0E0,0E0,0E0,0E0,0E0,0E0,0E0,0E0,0E0,0E0,0E0,0E0,0E0,0E0,0E0,0E0,0E0,0E0,0E0,0E0],"parents":[2147483647,0,0,1,1,2,2,3,3,4,4,5,5,6,6,7,7,8,8,9,9,10,10,11,11,12,12,13,13,14,14,17,17,20,20,21,21,22,22,23,23,24,24,25,25,26,26,27,27,29,29],"right_children":[2,4,6,8,10,12,14,16,18,20,22,24,26,28,30,-1,-1,32,-1,-1,34,36,38,40,42,44,46,48,-1,50,-1,-1,-1,-1,-1,-1,-1,-1,-1,-1,-1,-1,-1,-1,-1,-1,-1,-1,-1,-1,-1],"split_conditions":[6.779785E1,5.0171913E1,8.696811E1,4.185563E1,5.9547234E1,7.822546E1,9.542798E1,3.6105816E1,4.543405E1,5.460229E1,6.3432056E1,7.2662704E1,8.34128E1,9.121216E1,9.871536E1,-1.6437996E-2,-1.3275616E-2,-9.659258E-1,-9.653061E-3,-7.7555813E-3,3.979367E1,9E0,-2.5881904E-1,7.145246E1,7.546732E1,8.091612E1,8.595645E1,8.889295E1,5.026933E-3,8.8315636E-1,6.779175E-3,-3.3504756E-3,-1.154096E-2,-6.060951E-3,-2.359619E-3,-4.476415E-3,-1.3105551E-3,-3.7068434E-3,-2.740993E-3,-1.9377623E-3,-1.0555729E-3,-4.3396666E-4,3.3381992E-4,1.0647522E-3,1.853204E-3,2.6171138E-3,3.1605274E-3,3.6394463E-3,4.163556E-3,1.5023261E-3,6.0715927E-3],"split_indices":[29,29,29,29,29,29,29,29,29,29,29,29,29,29,29,0,0,15,0,0,26,5,14,29,29,29,29,29,0,24,0,0,0,0,0,0,0,0,0,0,0,0,0,0,0,0,0,0,0,0,0],"split_type":[0,0,0,0,0,0,0,0,0,0,0,0,0,0,0,0,0,0,0,0,0,0,0,0,0,0,0,0,0,0,0,0,0,0,0,0,0,0,0,0,0,0,0,0,0,0,0,0,0,0,0],"sum_hessian":[4.574E3,1.269E3,3.305E3,6.51E2,6.18E2,1.667E3,1.638E3,2.09E2,4.42E2,3.89E2,2.29E2,6.6E2,1.007E3,6.51E2,9.87E2,6.3E1,1.46E2,1.59E2,2.83E2,2.49E2,1.4E2,9.6E1,1.33E2,2.25E2,4.35E2,5.92E2,4.15E2,3.83E2,2.68E2,3.15E2,6.72E2,1E0,1.58E2,1.38E2,2E0,9.4E1,2E0,5.1E1,8.2E1,1.58E2,6.7E1,1.87E2,2.48E2,2.86E2,3.06E2,2.91E2,1.24E2,2.01E2,1.82E2,1E0,3.14E2],"tree_param":{"num_deleted":"0","num_feature":"31","num_nodes":"51","size_leaf_vector":"1"}},{"base_weights":[2.5356523E-4,-1.6836716E-1,6.309887E-2,-2.3044463E-1,-1.2165893E-1,1.8520473E-2,1.0812507E-1,-2.829218E-1,-2.0698714E-1,-1.458837E-1,-7.613764E-2,-1.0958007E-2,3.849982E-2,8.299777E-2,1.2554882E-1,-1.6635554E-2,-1.3424483E-2,-1.103155E-2,-9.42519E-3,-8.162892E-3,-1.2934607E-1,-9.041533E-2,-6.0404725E-2,-3.294566E-2,2.5659878E-4,2.8157506E-2,5.265022E-2,7.298826E-2,4.777512E-3,5.887832E-3,6.4888014E-3,-6.490527E-3,-2.4614097E-3,-4.908574E-3,-4.0562632E-3,-3.5315144E-3,-2.6104418E-3,-1.8275373E-3,-8.9437433E-4,-3.6155028E-4,3.3589324E-4,1.0800505E-3,1.7090634E-3,2.416714E-3,2.940537E-3,3.4173857E-3,3.949992E-3],"categories":[],"categories_nodes":[],"categories_segments":[],"categories_sizes":[],"default_left":[0,0,0,0,0,0,0,0,0,0,0,0,0,0,0,0,0,0,0,0,0,0,0,0,0,0,0,0,0,0,0,0,0,0,0,0,0,0,0,0,0,0,0,0,0,0,0],"id":6,"left_children":[1,3,5,7,9,11,13,15,17,19,21,23,25,27,29,-1,-1,-1,-1,-1,31,33,35,37,39,41,43,45,-1,-1,-1,-1,-1,-1,-1,-1,-1,-1,-1,-1,-1,-1,-1,-1,-1,-1,-1],"loss_changes":[4.8280056E1,3.5586815E0,6.6598787E0,5.938606E-1,7.6963425E-1,9.833975E-1,7.1240807E-1,2.6358604E-2,5.1716805E-2,1.1134052E-1,5.0246716E-2,1.6645189E-1,1.4413357E-1,7.8338146E-2,1.6768456E-2,0E0,0E0,0E0,0E0,0E0,2.5777817E-3,1.2588501E-3,6.4531863E-3,1.1723399E-2,2.1722551E-2,2.2050142E-2,8.298039E-3,5.2571297E-3,0E0,0E0,0E0,0E0,0E0,0E0,0E0,0E0,0E0,0E0,0E0,0E0,0E0,0E0,0E0,0E0,0E0,0E0,0E0],"parents":[2147483647,0,0,1,1,2,2,3,3,4,4,5,5,6,6,7,7,8,8,9,9,10,10,11,11,12,12,13,13,14,14,20,20,21,21,22,22,23,23,24,24,25,25,26,26,27,27],"right_children":[2,4,6,8,10,12,14,16,18,20,22,24,26,28,30,-1,-1,-1,-1,-1,32,34,36,38,40,42,44,46,-1,-1,-1,-1,-1,-1,-1,-1,-1,-1,-1,-1,-1,-1,-1,-1,-1,-1,-1],"split_conditions":[6.779785E1,4.8443546E1,8.696811E1,4.0355667E1,5.7951263E1,7.8431595E1,9.587218E1,3.331888E1,4.543405E1,5.2136776E1,6.3432056E1,7.2662704E1,8.34128E1,9.121216E1,9.916613E1,-1.6635554E-2,-1.3424483E-2,-1.103155E-2,-9.42519E-3,-8.162892E-3,9E0,6.0685947E1,-2.5881904E-1,7.1678825E1,7.567384E1,8.091612E1,8.5486275E1,8.936486E1,4.777512E-3,5.887832E-3,6.4888014E-3,-6.490527E-3,-2.4614097E-3,-4.908574E-3,-4.0562632E-3,-3.5315144E-3,-2.6104418E-3,-1.8275373E-3,-8.9437433E-4,-3.6155028E-4,3.3589324E-4,1.0800505E-3,1.7090634E-3,2.416714E-3,2.940537E-3,3.4173857E-3,3.949992E-3],"split_indices":[29,29,29,29,29,29,29,29,29,29,29,29,29,29,29,0,0,0,0,0,20,29,14,29,29,29,29,29,0,0,0,0,0,0,0,0,0,0,0,0,0,0,0,0,0,0,0],"split_type":[0,0,0,0,0,0,0,0,0,0,0,0,0,0,0,0,0,0,0,0,0,0,0,0,0,0,0,0,0,0,0,0,0,0,0,0,0,0,0,0,0,0,0,0,0,0,0],"sum_hessian":[4.554E3,1.236E3,3.318E3,5.29E2,7.07E2,1.668E3,1.65E3,1.6E2,3.69E2,4.6E2,2.47E2,6.74E2,9.94E2,6.78E2,9.72E2,3.1E1,1.29E2,2.06E2,1.63E2,2.2E2,2.4E2,1.27E2,1.2E2,2.27E2,4.47E2,5.76E2,4.18E2,3.81E2,2.97E2,3.52E2,6.2E2,2.38E2,2E0,6.4E1,6.3E1,5E1,7E1,1.82E2,4.5E1,2.07E2,2.4E2,2.78E2,2.98E2,2.51E2,1.67E2,2.22E2,1.59E2],"tree_param":{"num_deleted":"0","num_feature":"31","num_nodes":"47","size_leaf_vector":"1"}},{"base_weights":[9.780104E-4,-1.0319039E-1,6.580976E-2,-1.24784626E-1,1.0522435E-2,5.3461026E-2,1.12927966E-1,-1.47836E-1,-7.052689E-3,-1.381173E-3,9.558768E-2,1.0090754E-1,4.1693907E-2,8.948344E-2,5.714129E-3,3.7385963E-2,-1.6188322E-1,5.751367E-3,-1.4357701E-2,-1.212935E-2,6.7574225E-2,3.620112E-2,1.0002388E-1,5.044896E-2,1.0652795E-1,5.0008516E-3,5.1123634E-2,9.250826E-2,-4.8525035E-4,3.6608416E-3,1.4566766E-3,-8.832197E-3,-2.8102025E-3,-1.3953826E-3,3.4304447E-3,-2.751247E-3,-6.3743086E-5,5.1294058E-3,2.318405E-3,4.2039753E-4,2.133143E-3,2.2379041E-3,5.2098827E-3,2.7131205E-4,3.789048E-3,4.449542E-3,5.5460944E-3,-1.0772375E-4,3.939384E-3,-1.2063229E-3,2.7057107E-3,2.2210479E-3,4.7766874E-3],"categories":[],"categories_nodes":[],"categories_segments":[],"categories_sizes":[],"default_left":[0,0,0,0,0,0,0,0,0,0,0,0,0,0,0,0,0,0,0,0,0,0,0,0,0,0,0,0,0,0,0,0,0,0,0,0,0,0,0,0,0,0,0,0,0,0,0,0,0,0,0,0,0],"id":7,"left_children":[1,3,5,7,9,11,13,15,17,19,21,23,25,27,-1,29,31,-1,33,35,37,39,41,43,45,47,49,51,-1,-1,-1,-1,-1,-1,-1,-1,-1,-1,-1,-1,-1,-1,-1,-1,-1,-1,-1,-1,-1,-1,-1,-1,-1],"loss_changes":[3.1335903E1,4.372175E0,1.6580534E0,4.0589237E0,2.8871825E-1,1.2620373E0,8.606434E-3,3.260973E0,2.2103335E-1,1.8684699E-1,5.599797E-3,1.2224436E-1,6.2912846E-1,1.1998802E-2,0E0,2.4183497E-2,1.8042316E0,0E0,2.6385176E-1,1.0143275E-1,2.0488486E-2,3.5966188E-4,2.717644E-3,5.3193018E-2,2.1259785E-2,1.9710216E-1,3.2693982E-1,9.938478E-4,0E0,0E0,0E0,0E0,0E0,0E0,0E0,0E0,0E0,0E0,0E0,0E0,0E0,0E0,0E0,0E0,0E0,0E0,0E0,0E0,0E0,0E0,0E0,0E0,0E0],"parents":[2147483647,0,0,1,1,2,2,3,3,4,4,5,5,6,6,7,7,8,8,9,9,10,10,11,11,12,12,13,13,15,15,16,16,18,18,19,19,20,20,21,21,22,22,23,23,24,24,25,25,26,26,27,27],"right_children":[2,4,6,8,10,12,14,16,18,20,22,24,26,28,-1,30,32,-1,34,36,38,40,42,44,46,48,50,52,-1,-1,-1,-1,-1,-1,-1,-1,-1,-1,-1,-1,-1,-1,-1,-1,-1,-1,-1,-1,-1,-1,-1,-1,-1],"split_conditions":[1E0,1E0,1E0,1E0,1E0,-1.8369701E-16,1E0,1E0,1E0,9.571591E-1,1E0,1E0,1.3995057E-1,1.1E1,5.714129E-3,2.5881904E-1,1E0,5.751367E-3,1E0,9E0,1E0,-8.660254E-1,1.0092128E-3,1E0,1E0,1E0,1E0,1.0092128E-3,-4.8525035E-4,3.6608416E-3,1.4566766E-3,-8.832197E-3,-2.8102025E-3,-1.3953826E-3,3.4304447E-3,-2.751247E-3,-6.3743086E-5,5.1294058E-3,2.318405E-3,4.2039753E-4,2.133143E-3,2.2379041E-3,5.2098827E-3,2.7131205E-4,3.789048E-3,4.449542E-3,5.5460944E-3,-1.0772375E-4,3.939384E-3,-1.2063229E-3,2.7057107E-3,2.2210479E-3,4.7766874E-3],"split_indices":[8,11,11,10,7,15,0,1,1,28,0,0,28,1,0,15,7,0,7,1,1,14,28,7,10,7,0,28,0,0,0,0,0,0,0,0,0,0,0,0,0,0,0,0,0,0,0,0,0,0,0,0,0],"split_type":[0,0,0,0,0,0,0,0,0,0,0,0,0,0,0,0,0,0,0,0,0,0,0,0,0,0,0,0,0,0,0,0,0,0,0,0,0,0,0,0,0,0,0,0,0,0,0,0,0,0,0,0,0],"sum_hessian":[4.638E3,1.779E3,2.859E3,1.495E3,2.84E2,2.267E3,5.92E2,1.25E3,2.45E2,2.5E2,3.4E1,4.49E2,1.818E3,3.6E1,5.56E2,8.8E1,1.162E3,1.3E1,2.32E2,2.17E2,3.3E1,3E0,3.1E1,4.6E1,4.03E2,3.72E2,1.446E3,3.5E1,1E0,1.5E1,7.3E1,1.019E3,1.43E2,2E2,3.2E1,4.3E1,1.74E2,1.1E1,2.2E1,1E0,2E0,3E0,2.8E1,1.7E1,2.9E1,8.5E1,3.18E2,3.4E2,3.2E1,5.5E1,1.391E3,3E0,3.2E1],"tree_param":{"num_deleted":"0","num_feature":"31","num_nodes":"53","size_leaf_vector":"1"}},{"base_weights":[1.4088205E-4,6.294251E-2,-9.9463366E-2,8.258148E-2,3.3809565E-2,-1.185231E-1,6.1512548E-3,1.07227415E-1,6.867003E-2,-3.3821303E-2,3.835859E-2,-3.0710978E-2,-1.4507619E-1,-2.595905E-3,7.183607E-2,1.0743662E-1,-4.7311783E-4,9.78029E-2,4.8361424E-2,-5.0580572E-2,3.9222844E-2,5.7308013E-3,4.761197E-2,-8.9812376E-2,-7.3707034E-3,3.1006463E-2,-1.5840986E-1,-1.3307464E-2,6.532264E-2,-1.3452113E-2,8.812841E-2,4.2749676E-3,5.433934E-3,3.6354305E-3,5.3586084E-3,2.0522866E-3,4.5862063E-3,-2.671059E-3,2.8543621E-3,1.0080894E-3,3.0638645E-3,-4.5214838E-5,4.5629833E-3,4.8530856E-3,2.167127E-3,3.294841E-3,-5.40241E-3,-9.3321427E-4,3.4071598E-3,1.1018019E-3,2.473992E-3,-8.520022E-3,-2.4902541E-3,-2.7660124E-3,-7.211241E-5,4.9318615E-3,2.3274727E-3,1.0767505E-3,-2.7808787E-3,2.1539822E-3,4.598226E-3],"categories":[],"categories_nodes":[],"categories_segments":[],"categories_sizes":[],"default_left":[0,0,0,0,0,0,0,0,0,0,0,0,0,0,0,0,0,0,0,0,0,0,0,0,0,0,0,0,0,0,0,0,0,0,0,0,0,0,0,0,0,0,0,0,0,0,0,0,0,0,0,0,0,0,0,0,0,0,0,0,0],"id":8,"left_children":[1,3,5,7,9,11,13,15,17,19,21,23,25,27,29,31,-1,33,35,37,39,41,43,45,47,49,51,53,55,57,59,-1,-1,-1,-1,-1,-1,-1,-1,-1,-1,-1,-1,-1,-1,-1,-1,-1,-1,-1,-1,-1,-1,-1,-1,-1,-1,-1,-1,-1,-1],"loss_changes":[2.86806E1,1.6060686E0,3.5697536E0,5.6830025E-1,3.5017765E-1,3.4977322E0,1.564656E-1,1.5761852E-2,6.3188314E-1,9.012391E-2,3.2066524E-1,4.82143E-1,2.711958E0,1.7620005E-1,4.5650914E-2,7.1382523E-3,0E0,9.589338E-2,1.979922E-1,2.1094307E-2,4.649874E-3,1.3401073E-1,1.706022E-1,2.8822923E-1,2.161831E-1,1.2498215E-2,1.3875084E0,1.0410479E-1,1.6047373E-2,1.0049213E-2,7.0410967E-4,0E0,0E0,0E0,0E0,0E0,0E0,0E0,0E0,0E0,0E0,0E0,0E0,0E0,0E0,0E0,0E0,0E0,0E0,0E0,0E0,0E0,0E0,0E0,0E0,0E0,0E0,0E0,0E0,0E0,0E0],"parents":[2147483647,0,0,1,1,2,2,3,3,4,4,5,5,6,6,7,7,8,8,9,9,10,10,11,11,12,12,13,13,14,14,15,15,17,17,18,18,19,19,20,20,21,21,22,22,23,23,24,24,25,25,26,26,27,27,28,28,29,29,30,30],"right_children":[2,4,6,8,10,12,14,16,18,20,22,24,26,28,30,32,-1,34,36,38,40,42,44,46,48,50,52,54,56,58,60,-1,-1,-1,-1,-1,-1,-1,-1,-1,-1,-1,-1,-1,-1,-1,-1,-1,-1,-1,-1,-1,-1,-1,-1,-1,-1,-1,-1,-1,-1],"split_conditions":[1E0,7.0710677E-1,1E0,-5E-1,1E0,-1.8369701E-16,1E0,8.145537E0,-1.8369701E-16,1E0,1.7357647E-2,-7.0710677E-1,1E0,9.0938944E-1,1E0,1E0,-4.7311783E-4,7.0710677E-1,1.6137117E0,4.5759687E0,1.0485346E0,1E0,3E0,1E0,1E0,4E0,1E0,2.676256E-1,1E0,2E0,1.0092128E-3,4.2749676E-3,5.433934E-3,3.6354305E-3,5.3586084E-3,2.0522866E-3,4.5862063E-3,-2.671059E-3,2.8543621E-3,1.0080894E-3,3.0638645E-3,-4.5214838E-5,4.5629833E-3,4.8530856E-3,2.167127E-3,3.294841E-3,-5.40241E-3,-9.3321427E-4,3.4071598E-3,1.1018019E-3,2.473992E-3,-8.520022E-3,-2.4902541E-3,-2.7660124E-3,-7.211241E-5,4.9318615E-3,2.3274727E-3,1.0767505E-3,-2.7808787E-3,2.1539822E-3,4.598226E-3],"split_indices":[2,15,11,14,0,15,7,30,15,7,28,15,1,28,0,0,0,14,28,28,28,7,1,1,7,16,7,28,1,17,28,0,0,0,0,0,0,0,0,0,0,0,0,0,0,0,0,0,0,0,0,0,0,0,0,0,0,0,0,0,0],"split_type":[0,0,0,0,0,0,0,0,0,0,0,0,0,0,0,0,0,0,0,0,0,0,0,0,0,0,0,0,0,0,0,0,0,0,0,0,0,0,0,0,0,0,0,0,0,0,0,0,0,0,0,0,0,0,0,0,0,0,0,0,0],"sum_hessian":[4.583E3,2.811E3,1.772E3,1.678E3,1.133E3,1.501E3,2.71E2,6.03E2,1.075E3,7.1E1,1.062E3,3.49E2,1.152E3,2.4E2,3.1E1,6.02E2,1E0,4.4E2,6.35E2,5.8E1,1.3E1,2.35E2,8.27E2,9.8E1,2.51E2,8.1E1,1.071E3,2.08E2,3.2E1,5E0,2.6E1,3.6E1,5.66E2,1.22E2,3.18E2,5.45E2,9E1,5.7E1,1E0,8E0,5E0,2.19E2,1.6E1,6.4E1,7.63E2,1E1,8.8E1,2.19E2,3.2E1,5.6E1,2.5E1,9.64E2,1.07E2,4.5E1,1.63E2,1E1,2.2E1,3E0,2E0,3E0,2.3E1],"tree_param":{"num_deleted":"0","num_feature":"31","num_nodes":"61","size_leaf_vector":"1"}},{"base_weights":[3.8488564E-4,-1.4469989E-1,5.46561E-2,-2.1053019E-1,-1.061993E-1,1.47862835E-2,9.313595E-2,-2.704113E-1,-1.9144358E-1,-1.3497272E-1,-7.44885E-2,-1.0180249E-2,3.199647E-2,7.140066E-2,1.0819729E-1,-1.5766945E-2,-1.2382239E-2,-1.0321567E-2,-8.695204E-3,-7.204792E-3,-5.8527E-3,-8.954795E-2,-5.4834895E-2,-2.7132697E-2,-1.1800203E-3,1.7884474E-2,4.0351253E-2,6.1273694E-2,7.902016E-2,4.978954E-3,5.6078583E-3,-4.9068565E-3,-3.988936E-3,-3.0916894E-3,-2.4507267E-3,-1.9035593E-3,-1.1686903E-3,-4.933292E-4,9.985264E-5,7.0938683E-4,1.0341246E-3,1.6330661E-3,2.3172137E-3,2.253266E-3,3.097833E-3,3.6973972E-3,4.2470135E-3],"categories":[],"categories_nodes":[],"categories_segments":[],"categories_sizes":[],"default_left":[0,0,0,0,0,0,0,0,0,0,0,0,0,0,0,0,0,0,0,0,0,0,0,0,0,0,0,0,0,0,0,0,0,0,0,0,0,0,0,0,0,0,0,0,0,0,0],"id":9,"left_children":[1,3,5,7,9,11,13,15,17,19,21,23,25,27,29,-1,-1,-1,-1,-1,-1,31,33,35,37,39,41,43,45,-1,-1,-1,-1,-1,-1,-1,-1,-1,-1,-1,-1,-1,-1,-1,-1,-1,-1],"loss_changes":[3.6212223E1,3.1508408E0,5.13354E0,4.7512245E-1,7.125883E-1,7.071471E-1,5.497732E-1,3.339815E-2,5.689621E-2,5.0811768E-2,1.0726333E-1,1.02499E-1,1.14115596E-1,4.9172163E-2,2.309513E-2,0E0,0E0,0E0,0E0,0E0,0E0,1.0043621E-2,3.7721395E-3,8.6903125E-3,1.2162756E-2,3.4716055E-3,2.6644826E-2,5.841255E-4,5.6097507E-3,0E0,0E0,0E0,0E0,0E0,0E0,0E0,0E0,0E0,0E0,0E0,0E0,0E0,0E0,0E0,0E0,0E0,0E0],"parents":[2147483647,0,0,1,1,2,2,3,3,4,4,5,5,6,6,7,7,8,8,9,9,10,10,11,11,12,12,13,13,14,14,21,21,22,22,23,23,24,24,25,25,26,26,27,27,28,28],"right_children":[2,4,6,8,10,12,14,16,18,20,22,24,26,28,30,-1,-1,-1,-1,-1,-1,32,34,36,38,40,42,44,46,-1,-1,-1,-1,-1,-1,-1,-1,-1,-1,-1,-1,-1,-1,-1,-1,-1,-1],"split_conditions":[6.779785E1,4.7532566E1,8.667662E1,3.8598175E1,5.460229E1,7.8431595E1,9.542798E1,1E0,4.417951E1,5.1890385E1,6.1989452E1,7.3028915E1,8.160297E1,8.993974E1,9.871536E1,-1.5766945E-2,-1.2382239E-2,-1.0321567E-2,-8.695204E-3,-7.204792E-3,-5.8527E-3,5.7951263E1,4.2230334E-2,6.952831E1,7.476024E1,6.2149606E0,8.3940544E1,3.6199803E0,9.2956764E1,4.978954E-3,5.6078583E-3,-4.9068565E-3,-3.988936E-3,-3.0916894E-3,-2.4507267E-3,-1.9035593E-3,-1.1686903E-3,-4.933292E-4,9.985264E-5,7.0938683E-4,1.0341246E-3,1.6330661E-3,2.3172137E-3,2.253266E-3,3.097833E-3,3.6973972E-3,4.2470135E-3],"split_indices":[29,29,29,29,29,29,29,0,29,29,29,29,29,29,29,0,0,0,0,0,0,29,28,29,29,27,29,30,29,0,0,0,0,0,0,0,0,0,0,0,0,0,0,0,0,0,0],"split_type":[0,0,0,0,0,0,0,0,0,0,0,0,0,0,0,0,0,0,0,0,0,0,0,0,0,0,0,0,0,0,0,0,0,0,0,0,0,0,0,0,0,0,0,0,0,0,0],"sum_hessian":[4.597E3,1.251E3,3.346E3,4.6E2,7.91E2,1.644E3,1.702E3,1.08E2,3.52E2,4.13E2,3.78E2,6.71E2,9.73E2,6.99E2,1.003E3,3.2E1,7.6E1,1.84E2,1.68E2,2.69E2,1.44E2,2.12E2,1.66E2,2.32E2,4.39E2,3.63E2,6.1E2,3.04E2,3.95E2,3.24E2,6.79E2,1.08E2,1.04E2,7.1E1,9.5E1,5.7E1,1.75E2,1.17E2,3.22E2,1.59E2,2.04E2,2.7E2,3.4E2,1.5E1,2.89E2,2.2E2,1.75E2],"tree_param":{"num_deleted":"0","num_feature":"31","num_nodes":"47","size_leaf_vector":"1"}},{"base_weights":[-1.7505133E-4,-1.3939965E-1,5.2113358E-2,-1.9296296E-1,-9.691981E-2,1.5643233E-2,8.9491785E-2,-2.5036559E-1,-1.7482954E-1,-1.2070729E-1,-6.696804E-2,-9.009071E-3,3.1071678E-2,7.136129E-2,1.0442888E-1,-1.58434E-2,-1.1872115E-2,-9.533512E-3,-7.884257E-3,-6.5425597E-3,-1.0546594E-1,-8.281394E-2,-5.2266713E-2,-2.9200219E-2,-9.917784E-4,2.2374332E-2,4.2829603E-2,6.334854E-2,8.094034E-2,4.8519867E-3,1.0603653E-1,-1.4470667E-3,-5.288355E-3,-4.3259845E-3,-3.273877E-3,-2.7508957E-3,-1.7826954E-3,-1.5625505E-3,-8.365757E-4,-4.4271458E-4,1.484113E-4,9.1384567E-4,1.4669404E-3,1.8514853E-3,2.3146311E-3,2.938579E-3,3.4011563E-3,2.7174193E-3,4.0882565E-3,5.304925E-3,1.5353918E-3],"categories":[],"categories_nodes":[],"categories_segments":[],"categories_sizes":[],"default_left":[0,0,0,0,0,0,0,0,0,0,0,0,0,0,0,0,0,0,0,0,0,0,0,0,0,0,0,0,0,0,0,0,0,0,0,0,0,0,0,0,0,0,0,0,0,0,0,0,0,0,0],"id":10,"left_children":[1,3,5,7,9,11,13,15,17,19,21,23,25,27,29,-1,-1,-1,-1,-1,31,33,35,37,39,41,43,45,47,-1,49,-1,-1,-1,-1,-1,-1,-1,-1,-1,-1,-1,-1,-1,-1,-1,-1,-1,-1,-1,-1],"loss_changes":[3.3035866E1,2.8004704E0,4.495783E0,5.2560234E-1,4.8566294E-1,6.358392E-1,4.3370914E-1,3.562832E-2,8.372688E-2,4.572344E-2,6.765485E-2,1.0422069E-1,1.0416788E-1,5.1594257E-2,2.9468536E-4,0E0,0E0,0E0,0E0,0E0,6.034374E-4,3.7788153E-3,5.488366E-3,4.1565597E-3,1.4410923E-2,1.6385853E-2,7.042885E-3,4.7100782E-3,2.8598309E-3,0E0,1.0871887E-4,0E0,0E0,0E0,0E0,0E0,0E0,0E0,0E0,0E0,0E0,0E0,0E0,0E0,0E0,0E0,0E0,0E0,0E0,0E0,0E0],"parents":[2147483647,0,0,1,1,2,2,3,3,4,4,5,5,6,6,7,7,8,8,9,9,10,10,11,11,12,12,13,13,14,14,20,20,21,21,22,22,23,23,24,24,25,25,26,26,27,27,28,28,30,30],"right_children":[2,4,6,8,10,12,14,16,18,20,22,24,26,28,30,-1,-1,-1,-1,-1,32,34,36,38,40,42,44,46,48,-1,50,-1,-1,-1,-1,-1,-1,-1,-1,-1,-1,-1,-1,-1,-1,-1,-1,-1,-1,-1,-1],"split_conditions":[6.779785E1,4.8622704E1,8.696811E1,3.9332603E1,5.584646E1,7.822546E1,9.664189E1,2.9728432E1,4.473676E1,5.2433895E1,6.1351425E1,7.204017E1,8.34128E1,9.1812546E1,9.822687E1,-1.58434E-2,-1.1872115E-2,-9.533512E-3,-7.884257E-3,-6.5425597E-3,2E0,1.4558387E1,2.3519243E1,1.3040879E1,7.476024E1,8.160297E1,8.471112E1,8.936486E1,1.1999898E0,4.8519867E-3,2.4270517E1,-1.4470667E-3,-5.288355E-3,-4.3259845E-3,-3.273877E-3,-2.7508957E-3,-1.7826954E-3,-1.5625505E-3,-8.365757E-4,-4.4271458E-4,1.484113E-4,9.1384567E-4,1.4669404E-3,1.8514853E-3,2.3146311E-3,2.938579E-3,3.4011563E-3,2.7174193E-3,4.0882565E-3,5.304925E-3,1.5353918E-3],"split_indices":[29,29,29,29,29,29,29,29,29,29,29,29,29,29,29,0,0,0,0,0,1,27,25,18,29,29,29,29,24,0,23,0,0,0,0,0,0,0,0,0,0,0,0,0,0,0,0,0,0,0,0],"split_type":[0,0,0,0,0,0,0,0,0,0,0,0,0,0,0,0,0,0,0,0,0,0,0,0,0,0,0,0,0,0,0,0,0,0,0,0,0,0,0,0,0,0,0,0,0,0,0,0,0,0,0],"sum_hessian":[4.536E3,1.238E3,3.298E3,5.46E2,6.92E2,1.67E3,1.628E3,1.28E2,4.18E2,3.84E2,3.08E2,6.43E2,1.027E3,7.38E2,8.9E2,1.7E1,1.11E2,2.12E2,2.06E2,2.26E2,1.58E2,1.46E2,1.62E2,1.82E2,4.61E2,5.92E2,4.35E2,4.06E2,3.32E2,1.7E2,7.2E2,1E0,1.57E2,1.17E2,2.9E1,1.37E2,2.5E1,1.55E2,2.7E1,1.54E2,3.07E2,3.75E2,2.17E2,1.67E2,2.68E2,2.12E2,1.94E2,1.2E1,3.2E2,7.19E2,1E0],"tree_param":{"num_deleted":"0","num_feature":"31","num_nodes":"51","size_leaf_vector":"1"}},{"base_weights":[2.8705206E-5,-1.3256232E-1,4.973529E-2,-1.8095942E-1,-9.132461E-2,1.1936418E-2,8.2429275E-2,-2.3324396E-1,-1.6029227E-1,-1.10253975E-1,-5.880075E-2,-1.2605837E-2,2.5473459E-2,6.371088E-2,9.8376095E-2,-2.8537792E-1,-1.0754684E-2,-1.7154957E-1,-7.1826237E-3,-6.1640046E-3,-9.868041E-2,-6.885228E-2,-4.7598697E-2,-2.7653243E-2,-4.690744E-3,1.4787229E-2,3.4295354E-2,5.374861E-2,7.189971E-2,4.5104576E-3,5.0356085E-3,-4.1571246E-3,-1.4429832E-2,-8.593526E-3,-2.3711205E-3,-5.2912845E-3,-4.445607E-3,-3.589794E-3,-2.2617925E-3,-2.4332386E-3,-6.566441E-4,9.072681E-4,-1.4121629E-3,-2.8878474E-4,8.737831E-4,5.499482E-4,9.788651E-4,1.4245475E-3,1.9986602E-3,1.8464671E-3,2.73488E-3,3.4018084E-3,3.9222813E-3],"categories":[],"categories_nodes":[],"categories_segments":[],"categories_sizes":[],"default_left":[0,0,0,0,0,0,0,0,0,0,0,0,0,0,0,0,0,0,0,0,0,0,0,0,0,0,0,0,0,0,0,0,0,0,0,0,0,0,0,0,0,0,0,0,0,0,0,0,0,0,0,0,0],"id":11,"left_children":[1,3,5,7,9,11,13,15,17,19,21,23,25,27,29,31,-1,33,-1,-1,35,37,39,41,43,45,47,49,51,-1,-1,-1,-1,-1,-1,-1,-1,-1,-1,-1,-1,-1,-1,-1,-1,-1,-1,-1,-1,-1,-1,-1,-1],"loss_changes":[2.9947905E1,2.4562511E0,4.0833206E0,5.7745934E-1,4.0662193E-1,5.099612E-1,5.2267265E-1,8.907032E-2,5.2345276E-2,5.16057E-2,2.4759531E-2,6.489976E-2,9.2728674E-2,6.28674E-2,9.135246E-3,7.4100494E-4,0E0,1.4109612E-3,0E0,0E0,6.5743923E-3,5.7200193E-3,3.8067997E-3,5.5925995E-3,8.73469E-3,7.932253E-3,1.6690612E-2,3.933549E-3,5.9423447E-3,0E0,0E0,0E0,0E0,0E0,0E0,0E0,0E0,0E0,0E0,0E0,0E0,0E0,0E0,0E0,0E0,0E0,0E0,0E0,0E0,0E0,0E0,0E0,0E0],"parents":[2147483647,0,0,1,1,2,2,3,3,4,4,5,5,6,6,7,7,8,8,9,9,10,10,11,11,12,12,13,13,14,14,15,15,17,17,20,20,21,21,22,22,23,23,24,24,25,25,26,26,27,27,28,28],"right_children":[2,4,6,8,10,12,14,16,18,20,22,24,26,28,30,32,-1,34,-1,-1,36,38,40,42,44,46,48,50,52,-1,-1,-1,-1,-1,-1,-1,-1,-1,-1,-1,-1,-1,-1,-1,-1,-1,-1,-1,-1,-1,-1,-1,-1],"split_conditions":[6.779785E1,4.890984E1,8.595645E1,4.0355667E1,5.7951263E1,7.736169E1,9.587218E1,1E0,4.6031113E1,5.2136776E1,6.3432056E1,7.204017E1,8.149747E1,8.9764725E1,9.8114944E1,7.746109E1,-1.0754684E-2,1.6053345E-2,-7.1826237E-3,-6.1640046E-3,5.460229E1,1.6840439E1,2.3E1,2.874131E0,4.1912156E-3,7.987077E1,8.372425E1,1.5618423E0,9.367029E1,4.5104576E-3,5.0356085E-3,-4.1571246E-3,-1.4429832E-2,-8.593526E-3,-2.3711205E-3,-5.2912845E-3,-4.445607E-3,-3.589794E-3,-2.2617925E-3,-2.4332386E-3,-6.566441E-4,9.072681E-4,-1.4121629E-3,-2.8878474E-4,8.737831E-4,5.499482E-4,9.788651E-4,1.4245475E-3,1.9986602E-3,1.8464671E-3,2.73488E-3,3.4018084E-3,3.9222813E-3],"split_indices":[29,29,29,29,29,29,29,0,29,29,29,29,29,29,29,19,0,21,0,0,29,24,13,30,21,29,29,23,29,0,0,0,0,0,0,0,0,0,0,0,0,0,0,0,0,0,0,0,0,0,0,0,0],"split_type":[0,0,0,0,0,0,0,0,0,0,0,0,0,0,0,0,0,0,0,0,0,0,0,0,0,0,0,0,0,0,0,0,0,0,0,0,0,0,0,0,0,0,0,0,0,0,0,0,0,0,0,0,0],"sum_hessian":[4.542E3,1.238E3,3.304E3,5.68E2,6.7E2,1.533E3,1.771E3,1.58E2,4.1E2,4.22E2,2.48E2,5.45E2,9.88E2,8.17E2,9.54E2,3.7E1,1.21E2,2.39E2,1.71E2,1.94E2,2.28E2,1.28E2,1.2E2,1.87E2,3.58E2,4.48E2,5.4E2,3.72E2,4.45E2,2.21E2,7.33E2,1E0,3.6E1,2.38E2,1E0,1.26E2,1.02E2,1.12E2,1.6E1,1.16E2,4E0,2E0,1.85E2,3.42E2,1.6E1,2.52E2,1.96E2,2.7E2,2.7E2,2.2E1,3.5E2,2.87E2,1.58E2],"tree_param":{"num_deleted":"0","num_feature":"31","num_nodes":"53","size_leaf_vector":"1"}},{"base_weights":[2.5059673E-4,-1.2604295E-1,4.6967022E-2,-1.6730325E-1,-8.14503E-2,1.1109361E-2,7.826828E-2,-2.1041973E-1,-1.4514984E-1,-1.0007882E-1,-5.4981858E-2,-9.782921E-3,2.5833918E-2,6.0700603E-2,9.350243E-2,-1.2409771E-2,-9.638258E-3,-1.5916082E-1,-1.3503547E-1,-1.10690966E-1,-9.0776205E-2,-6.685647E-2,-4.7794696E-2,-2.479096E-2,-1.5536258E-3,1.5801538E-2,3.298906E-2,5.1822245E-2,6.8377025E-2,8.325083E-2,4.7852104E-3,-7.977427E-3,-2.3118437E-3,-6.763118E-3,-1.9408286E-3,-4.82612E-3,-5.8087404E-3,-4.564934E-3,-1.380078E-3,-3.4660622E-3,-1.3688088E-3,-2.8149763E-3,-2.0194862E-3,-1.3601428E-3,-7.712498E-4,-4.1657538E-4,6.388363E-5,5.78416E-4,9.383983E-4,1.3679386E-3,1.9409027E-3,2.615381E-3,1.6879998E-3,3.0676622E-3,3.6072296E-3,1.7555356E-3,4.180119E-3],"categories":[],"categories_nodes":[],"categories_segments":[],"categories_sizes":[],"default_left":[0,0,0,0,0,0,0,0,0,0,0,0,0,0,0,0,0,0,0,0,0,0,0,0,0,0,0,0,0,0,0,0,0,0,0,0,0,0,0,0,0,0,0,0,0,0,0,0,0,0,0,0,0,0,0,0,0],"id":12,"left_children":[1,3,5,7,9,11,13,15,17,19,21,23,25,27,29,-1,-1,31,33,35,37,39,41,43,45,47,49,51,53,55,-1,-1,-1,-1,-1,-1,-1,-1,-1,-1,-1,-1,-1,-1,-1,-1,-1,-1,-1,-1,-1,-1,-1,-1,-1,-1,-1],"loss_changes":[2.6962944E1,2.2568169E0,3.7434244E0,5.807705E-1,2.8787303E-1,4.7892433E-1,4.709711E-1,9.554291E-2,3.8876534E-2,2.4306536E-2,1.7970145E-2,7.9499066E-2,6.501669E-2,5.3024292E-2,1.3520241E-2,0E0,0E0,1.9788742E-4,2.9468536E-4,1.06287E-3,3.784418E-3,6.957501E-3,7.6766014E-3,4.7308505E-3,8.01296E-3,4.579872E-3,1.6397655E-2,1.6443729E-3,7.2700977E-3,4.3153763E-5,0E0,0E0,0E0,0E0,0E0,0E0,0E0,0E0,0E0,0E0,0E0,0E0,0E0,0E0,0E0,0E0,0E0,0E0,0E0,0E0,0E0,0E0,0E0,0E0,0E0,0E0,0E0],"parents":[2147483647,0,0,1,1,2,2,3,3,4,4,5,5,6,6,7,7,8,8,9,9,10,10,11,11,12,12,13,13,14,14,17,17,18,18,19,19,20,20,21,21,22,22,23,23,24,24,25,25,26,26,27,27,28,28,29,29],"right_children":[2,4,6,8,10,12,14,16,18,20,22,24,26,28,30,-1,-1,32,34,36,38,40,42,44,46,48,50,52,54,56,-1,-1,-1,-1,-1,-1,-1,-1,-1,-1,-1,-1,-1,-1,-1,-1,-1,-1,-1,-1,-1,-1,-1,-1,-1,-1,-1],"split_conditions":[6.779785E1,5.0171913E1,8.595645E1,4.2198734E1,5.7951263E1,7.822546E1,9.587218E1,3.6105816E1,4.6031113E1,5.291229E1,6.1989452E1,7.2662704E1,8.160297E1,8.993974E1,9.775377E1,-1.2409771E-2,-9.638258E-3,1.6053345E-2,3.9059982E-1,7.348238E0,1.3201707E1,1.9514162E1,1.2246469E-16,7.1678825E1,7.476024E1,7.972461E1,8.381896E1,2.1E1,9.1812546E1,7.632193E-1,4.7852104E-3,-7.977427E-3,-2.3118437E-3,-6.763118E-3,-1.9408286E-3,-4.82612E-3,-5.8087404E-3,-4.564934E-3,-1.380078E-3,-3.4660622E-3,-1.3688088E-3,-2.8149763E-3,-2.0194862E-3,-1.3601428E-3,-7.712498E-4,-4.1657538E-4,6.388363E-5,5.78416E-4,9.383983E-4,1.3679386E-3,1.9409027E-3,2.615381E-3,1.6879998E-3,3.0676622E-3,3.6072296E-3,1.7555356E-3,4.180119E-3],"split_indices":[29,29,29,29,29,29,29,29,29,29,29,29,29,29,29,0,0,21,21,24,18,24,14,29,29,29,29,3,29,27,0,0,0,0,0,0,0,0,0,0,0,0,0,0,0,0,0,0,0,0,0,0,0,0,0,0,0],"split_type":[0,0,0,0,0,0,0,0,0,0,0,0,0,0,0,0,0,0,0,0,0,0,0,0,0,0,0,0,0,0,0,0,0,0,0,0,0,0,0,0,0,0,0,0,0,0,0,0,0,0,0,0,0,0,0,0,0],"sum_hessian":[4.568E3,1.233E3,3.335E3,6.39E2,5.94E2,1.555E3,1.78E3,2.14E2,4.25E2,3.47E2,2.47E2,6.43E2,9.12E2,8.29E2,9.51E2,6.4E1,1.5E2,1.72E2,2.53E2,1.57E2,1.9E2,9E1,1.57E2,2.27E2,4.16E2,3.81E2,5.31E2,3.88E2,4.41E2,1.75E2,7.76E2,1.71E2,1E0,2.52E2,1E0,4.9E1,1.08E2,1.88E2,2E0,8.4E1,6E0,7E1,8.7E1,1.79E2,4.8E1,1.22E2,2.94E2,1.59E2,2.22E2,2.73E2,2.58E2,3.76E2,1.2E1,1.6E2,2.81E2,2E0,1.73E2],"tree_param":{"num_deleted":"0","num_feature":"31","num_nodes":"57","size_leaf_vector":"1"}},{"base_weights":[-1.5194198E-3,-1.1993137E-1,4.435492E-2,-1.711507E-1,-8.74158E-2,1.2772331E-2,7.6782204E-2,-2.2072597E-1,-1.5456583E-1,-1.07059516E-1,-5.8231283E-2,-7.023881E-3,2.7451877E-2,5.9116226E-2,8.8113636E-2,-1.2725561E-2,-1.0181194E-2,-8.199624E-3,-6.9152536E-3,-5.7924143E-3,-9.181992E-2,-7.4511334E-2,-4.889393E-2,-2.3944078E-2,4.6109263E-4,2.0387258E-2,3.807858E-2,5.289389E-2,6.72873E-2,4.0085968E-3,4.544364E-3,-5.7851984E-3,-4.4520823E-3,-4.0079295E-3,-3.102998E-3,-2.2701744E-3,-3.0874144E-3,-1.343683E-3,-7.9577137E-4,-2.5500628E-4,2.2981202E-4,7.974161E-4,1.291361E-3,1.654231E-3,2.0062164E-3,2.4267614E-3,2.7918909E-3,3.3774804E-3,1.0581533E-3],"categories":[],"categories_nodes":[],"categories_segments":[],"categories_sizes":[],"default_left":[0,0,0,0,0,0,0,0,0,0,0,0,0,0,0,0,0,0,0,0,0,0,0,0,0,0,0,0,0,0,0,0,0,0,0,0,0,0,0,0,0,0,0,0,0,0,0,0,0],"id":13,"left_children":[1,3,5,7,9,11,13,15,17,19,21,23,25,27,29,-1,-1,-1,-1,-1,31,33,35,37,39,41,43,45,47,-1,-1,-1,-1,-1,-1,-1,-1,-1,-1,-1,-1,-1,-1,-1,-1,-1,-1,-1,-1],"loss_changes":[2.4900496E1,2.1167831E0,3.3827705E0,3.7369442E-1,4.4380045E-1,4.8694682E-1,3.2108498E-1,1.8667221E-2,3.480053E-2,5.2045345E-2,4.4696808E-2,9.043716E-2,7.144445E-2,2.8980494E-2,1.454258E-2,0E0,0E0,0E0,0E0,0E0,1.3762712E-3,3.0413866E-3,6.3942075E-3,4.7233105E-3,1.1429685E-2,1.3593733E-2,2.5853515E-3,2.0118952E-3,1.873374E-3,0E0,0E0,0E0,0E0,0E0,0E0,0E0,0E0,0E0,0E0,0E0,0E0,0E0,0E0,0E0,0E0,0E0,0E0,0E0,0E0],"parents":[2147483647,0,0,1,1,2,2,3,3,4,4,5,5,6,6,7,7,8,8,9,9,10,10,11,11,12,12,13,13,14,14,20,20,21,21,22,22,23,23,24,24,25,25,26,26,27,27,28,28],"right_children":[2,4,6,8,10,12,14,16,18,20,22,24,26,28,30,-1,-1,-1,-1,-1,32,34,36,38,40,42,44,46,48,-1,-1,-1,-1,-1,-1,-1,-1,-1,-1,-1,-1,-1,-1,-1,-1,-1,-1,-1,-1],"split_conditions":[6.779785E1,4.7532566E1,8.696811E1,3.8598175E1,5.584646E1,7.882076E1,9.542798E1,3.331888E1,4.473676E1,5.2136776E1,5.9907856E1,7.2662704E1,8.372425E1,9.121216E1,9.822687E1,-1.2725561E-2,-1.0181194E-2,-8.199624E-3,-6.9152536E-3,-5.7924143E-3,1.0092128E-3,1.3001126E1,1E0,7.145246E1,7.567384E1,8.160297E1,8.471112E1,8.859494E1,9.500228E-1,4.0085968E-3,4.544364E-3,-5.7851984E-3,-4.4520823E-3,-4.0079295E-3,-3.102998E-3,-2.2701744E-3,-3.0874144E-3,-1.343683E-3,-7.9577137E-4,-2.5500628E-4,2.2981202E-4,7.974161E-4,1.291361E-3,1.654231E-3,2.0062164E-3,2.4267614E-3,2.7918909E-3,3.3774804E-3,1.0581533E-3],"split_indices":[29,29,29,29,29,29,29,29,29,29,29,29,29,29,29,0,0,0,0,0,28,18,8,29,29,29,29,29,21,0,0,0,0,0,0,0,0,0,0,0,0,0,0,0,0,0,0,0,0],"split_type":[0,0,0,0,0,0,0,0,0,0,0,0,0,0,0,0,0,0,0,0,0,0,0,0,0,0,0,0,0,0,0,0,0,0,0,0,0,0,0,0,0,0,0,0,0,0,0,0,0],"sum_hessian":[4.582E3,1.279E3,3.303E3,4.95E2,7.84E2,1.674E3,1.629E3,1.21E2,3.74E2,4.67E2,3.17E2,7.13E2,9.61E2,6.39E2,9.9E2,3.6E1,8.5E1,2.31E2,1.43E2,2.92E2,1.75E2,1.13E2,2.04E2,2.18E2,4.95E2,5.79E2,3.82E2,3.67E2,2.72E2,2.64E2,7.26E2,1.4E1,1.61E2,7.4E1,3.9E1,1.64E2,4E1,1.58E2,6E1,2.11E2,2.84E2,3.21E2,2.58E2,1.16E2,2.66E2,1.55E2,2.12E2,2.7E2,2E0],"tree_param":{"num_deleted":"0","num_feature":"31","num_nodes":"49","size_leaf_vector":"1"}},{"base_weights":[7.9744234E-4,-1.0903577E-1,4.3655705E-2,-1.5020415E-1,-7.059258E-2,1.39826685E-2,7.298174E-2,-1.873136E-1,-1.2948109E-1,-8.9755826E-2,-4.750376E-2,-2.2849808E-3,2.7855743E-2,5.824595E-2,8.508459E-2,-1.1759795E-2,-8.704094E-3,-6.9207335E-3,-1.1680399E-1,-9.9287614E-2,-7.9626136E-2,-6.3575655E-2,-3.9853867E-2,-1.3058089E-2,4.707306E-3,2.0030214E-2,3.5867807E-2,4.7824975E-2,6.406113E-2,3.928447E-3,8.650358E-2,-1.3931216E-3,-5.857955E-3,-1.2596966E-3,-4.9777417E-3,-4.005033E-3,-1.2306412E-3,-3.2959916E-3,-1.2009552E-3,-1.7683577E-3,-2.2666228E-3,-9.0111495E-4,-3.3205395E-4,5.1644696E-5,4.7913744E-4,1.3279142E-4,1.0542193E-3,1.5451306E-3,1.9265991E-3,2.4221595E-3,1.5145168E-3,3.2528017E-3,2.2820737E-3,2.2844744E-3,4.333177E-3],"categories":[],"categories_nodes":[],"categories_segments":[],"categories_sizes":[],"default_left":[0,0,0,0,0,0,0,0,0,0,0,0,0,0,0,0,0,0,0,0,0,0,0,0,0,0,0,0,0,0,0,0,0,0,0,0,0,0,0,0,0,0,0,0,0,0,0,0,0,0,0,0,0,0,0],"id":14,"left_children":[1,3,5,7,9,11,13,15,17,19,21,23,25,27,29,-1,-1,-1,31,33,35,37,39,41,43,45,47,49,51,-1,53,-1,-1,-1,-1,-1,-1,-1,-1,-1,-1,-1,-1,-1,-1,-1,-1,-1,-1,-1,-1,-1,-1,-1,-1],"loss_changes":[2.1667574E1,2.034173E0,2.880186E0,4.5484734E-1,2.9218245E-1,3.7176242E-1,2.9198837E-1,9.907484E-2,2.9472828E-2,2.733612E-2,3.508848E-2,5.7235926E-2,5.502063E-2,4.2628527E-2,1.6355515E-3,0E0,0E0,0E0,2.1998882E-3,1.1347532E-3,2.779603E-3,7.4112415E-3,3.5586953E-3,9.405069E-3,8.248635E-3,8.222654E-3,4.6031475E-3,1.5028715E-3,5.8454275E-3,0E0,8.6450577E-4,0E0,0E0,0E0,0E0,0E0,0E0,0E0,0E0,0E0,0E0,0E0,0E0,0E0,0E0,0E0,0E0,0E0,0E0,0E0,0E0,0E0,0E0,0E0,0E0],"parents":[2147483647,0,0,1,1,2,2,3,3,4,4,5,5,6,6,7,7,8,8,9,9,10,10,11,11,12,12,13,13,14,14,18,18,19,19,20,20,21,21,22,22,23,23,24,24,25,25,26,26,27,27,28,28,30,30],"right_children":[2,4,6,8,10,12,14,16,18,20,22,24,26,28,30,-1,-1,-1,32,34,36,38,40,42,44,46,48,50,52,-1,54,-1,-1,-1,-1,-1,-1,-1,-1,-1,-1,-1,-1,-1,-1,-1,-1,-1,-1,-1,-1,-1,-1,-1,-1],"split_conditions":[6.952831E1,4.997424E1,8.696811E1,4.2198734E1,5.7951263E1,7.972461E1,9.664189E1,3.5327423E1,4.728833E1,5.291229E1,6.1989452E1,7.476024E1,8.34128E1,8.993974E1,9.822687E1,-1.1759795E-2,-8.704094E-3,-6.9207335E-3,1.6133592E0,1.7446578E0,1.3201707E1,1.9514162E1,7.760619E1,7.2662704E1,7.788659E1,1.2052597E0,8.471112E1,1.3089872E1,2.5911076E1,3.928447E-3,1.286381E1,-1.3931216E-3,-5.857955E-3,-1.2596966E-3,-4.9777417E-3,-4.005033E-3,-1.2306412E-3,-3.2959916E-3,-1.2009552E-3,-1.7683577E-3,-2.2666228E-3,-9.0111495E-4,-3.3205395E-4,5.1644696E-5,4.7913744E-4,1.3279142E-4,1.0542193E-3,1.5451306E-3,1.9265991E-3,2.4221595E-3,1.5145168E-3,3.2528017E-3,2.2820737E-3,2.2844744E-3,4.333177E-3],"split_indices":[29,29,29,29,29,29,29,29,29,29,29,29,29,29,29,0,0,0,24,25,18,24,19,29,29,23,29,18,25,0,18,0,0,0,0,0,0,0,0,0,0,0,0,0,0,0,0,0,0,0,0,0,0,0,0],"split_type":[0,0,0,0,0,0,0,0,0,0,0,0,0,0,0,0,0,0,0,0,0,0,0,0,0,0,0,0,0,0,0,0,0,0,0,0,0,0,0,0,0,0,0,0,0,0,0,0,0,0,0,0,0,0,0],"sum_hessian":[4.601E3,1.291E3,3.31E3,6.22E2,6.69E2,1.646E3,1.664E3,2.2E2,4.02E2,3.64E2,3.05E2,7.58E2,8.88E2,7.53E2,9.11E2,4.4E1,1.76E2,2.3E2,1.72E2,1.83E2,1.81E2,9.6E1,2.09E2,2.98E2,4.6E2,4.51E2,4.37E2,2.73E2,4.8E2,1.73E2,7.38E2,1E0,1.71E2,1E0,1.82E2,1.79E2,2E0,9E1,6E0,1.19E2,9E1,1.67E2,1.31E2,2.63E2,1.97E2,2.6E1,4.25E2,1.57E2,2.8E2,2.62E2,1.1E1,4.53E2,2.7E1,4E0,7.34E2],"tree_param":{"num_deleted":"0","num_feature":"31","num_nodes":"55","size_leaf_vector":"1"}},{"base_weights":[3.6649068E-4,-6.950084E-2,4.37733E-2,-8.3908014E-2,6.8635517E-3,5.7181742E-2,2.384637E-2,-2.1475818E-2,-1.0140942E-1,-2.8796366E-4,5.6728058E-2,3.3629045E-2,7.1285896E-2,-1.755854E-2,2.6706308E-2,1.3559095E-2,-4.0818278E-2,2.1339316E-2,-1.10475175E-1,4.0403638E-2,-5.9382417E-3,-4.116019E-3,6.700594E-2,3.1149434E-2,7.510497E-2,4.2772967E-2,7.40361E-2,-2.9770367E-2,2.5138196E-2,7.003626E-2,2.386031E-2,3.4154912E-3,-7.331009E-5,-3.6184818E-3,-1.0932533E-3,6.293656E-4,1.5108695E-3,-5.9074727E-3,-2.1143025E-3,-2.9544493E-3,2.4810287E-3,-1.7353699E-3,7.065469E-5,-1.1641722E-3,5.644277E-4,1.9695845E-3,3.7628475E-3,4.296444E-3,1.4554408E-3,1.423891E-3,4.1884985E-3,1.2850118E-3,2.983107E-3,3.7068424E-3,-5.6199136E-4,2.038916E-3,-1.6509073E-3,5.895386E-4,2.3821674E-3,2.4314949E-3,3.830228E-3,1.4282149E-4,1.5051605E-3],"categories":[],"categories_nodes":[],"categories_segments":[],"categories_sizes":[],"default_left":[0,0,0,0,0,0,0,0,0,0,0,0,0,0,0,0,0,0,0,0,0,0,0,0,0,0,0,0,0,0,0,0,0,0,0,0,0,0,0,0,0,0,0,0,0,0,0,0,0,0,0,0,0,0,0,0,0,0,0,0,0,0,0],"id":15,"left_children":[1,3,5,7,9,11,13,15,17,19,21,23,25,27,29,31,33,35,37,39,41,43,45,47,49,51,53,55,57,59,61,-1,-1,-1,-1,-1,-1,-1,-1,-1,-1,-1,-1,-1,-1,-1,-1,-1,-1,-1,-1,-1,-1,-1,-1,-1,-1,-1,-1,-1,-1,-1,-1],"loss_changes":[1.3865597E1,1.9281168E0,7.5211E-1,1.6083908E0,9.950963E-2,5.5734444E-1,1.3498908E-1,2.2011574E-1,1.2832012E0,5.6570046E-2,2.2162981E-2,6.276083E-2,7.9405785E-2,3.9332353E-2,1.2941492E-1,9.552708E-2,1.23399526E-1,5.8357194E-3,5.559845E-1,3.0442547E-2,4.5731254E-2,2.0344323E-3,3.8708746E-3,6.44573E-2,1.1755273E-2,2.585937E-2,9.071827E-3,1.4635768E-2,4.5448057E-3,5.4139793E-3,1.3090795E-1,0E0,0E0,0E0,0E0,0E0,0E0,0E0,0E0,0E0,0E0,0E0,0E0,0E0,0E0,0E0,0E0,0E0,0E0,0E0,0E0,0E0,0E0,0E0,0E0,0E0,0E0,0E0,0E0,0E0,0E0,0E0,0E0],"parents":[2147483647,0,0,1,1,2,2,3,3,4,4,5,5,6,6,7,7,8,8,9,9,10,10,11,11,12,12,13,13,14,14,15,15,16,16,17,17,18,18,19,19,20,20,21,21,22,22,23,23,24,24,25,25,26,26,27,27,28,28,29,29,30,30],"right_children":[2,4,6,8,10,12,14,16,18,20,22,24,26,28,30,32,34,36,38,40,42,44,46,48,50,52,54,56,58,60,62,-1,-1,-1,-1,-1,-1,-1,-1,-1,-1,-1,-1,-1,-1,-1,-1,-1,-1,-1,-1,-1,-1,-1,-1,-1,-1,-1,-1,-1,-1,-1,-1],"split_conditions":[1E0,1E0,7.0710677E-1,-1.8369701E-16,1E0,7E0,1E0,4.586363E0,1E0,3E0,1E0,1E0,-8.660254E-1,1E0,3E0,1E0,1E0,1.1168214E1,1E0,1E0,1E1,3E0,7.165485E0,1E0,1E0,2E0,8.145537E0,5.283283E0,8E0,1.525285E1,9E0,3.4154912E-3,-7.331009E-5,-3.6184818E-3,-1.0932533E-3,6.293656E-4,1.5108695E-3,-5.9074727E-3,-2.1143025E-3,-2.9544493E-3,2.4810287E-3,-1.7353699E-3,7.065469E-5,-1.1641722E-3,5.644277E-4,1.9695845E-3,3.7628475E-3,4.296444E-3,1.4554408E-3,1.423891E-3,4.1884985E-3,1.2850118E-3,2.983107E-3,3.7068424E-3,-5.6199136E-4,2.038916E-3,-1.6509073E-3,5.895386E-4,2.3821674E-3,2.4314949E-3,3.830228E-3,1.4282149E-4,1.5051605E-3],"split_indices":[8,11,15,15,7,13,0,30,1,1,0,7,15,7,1,1,10,26,7,0,1,16,22,1,0,16,30,30,4,26,1,0,0,0,0,0,0,0,0,0,0,0,0,0,0,0,0,0,0,0,0,0,0,0,0,0,0,0,0,0,0,0,0],"split_type":[0,0,0,0,0,0,0,0,0,0,0,0,0,0,0,0,0,0,0,0,0,0,0,0,0,0,0,0,0,0,0,0,0,0,0,0,0,0,0,0,0,0,0,0,0,0,0,0,0,0,0,0,0,0,0,0,0,0,0,0,0,0,0],"sum_hessian":[4.57E3,1.751E3,2.819E3,1.473E3,2.78E2,1.684E3,1.135E3,3.23E2,1.15E3,2.44E2,3.4E1,6.32E2,1.052E3,7.3E1,1.062E3,1.15E2,2.08E2,7.9E1,1.071E3,2.9E1,2.15E2,5E0,2.9E1,5.98E2,3.4E1,9.4E1,9.58E2,5.7E1,1.6E1,6.4E1,9.98E2,2.4E1,9.1E1,7.7E1,1.31E2,4.1E1,3.8E1,9.62E2,1.09E2,2E0,2.7E1,4.3E1,1.72E2,2E0,3E0,8E0,2.1E1,2E1,5.78E2,6E0,2.8E1,4.8E1,4.6E1,9.57E2,1E0,2E0,5.5E1,1.1E1,5E0,1.7E1,4.7E1,2.29E2,7.69E2],"tree_param":{"num_deleted":"0","num_feature":"31","num_nodes":"63","size_leaf_vector":"1"}},{"base_weights":[6.6207675E-4,-1.01526804E-1,3.8615122E-2,-1.3702162E-1,-6.4820156E-2,9.373836E-3,6.488867E-2,-1.8039158E-1,-1.20825216E-1,-7.974492E-2,-4.4228405E-2,-9.230712E-3,2.0773795E-2,5.0720457E-2,7.638454E-2,-1.1427737E-2,-8.305301E-3,-1.3550203E-1,-1.10941485E-1,-8.669965E-2,-6.801053E-2,-4.8582904E-2,-3.1777214E-2,-2.2051565E-2,-3.3863857E-3,1.1809047E-2,2.7310185E-2,4.6202224E-2,5.887561E-2,6.937755E-2,7.868876E-2,-6.792545E-3,-1.8176883E-3,-1.2106091E-3,-5.558238E-3,-4.2291577E-3,-5.6784367E-3,-3.429056E-3,-9.927074E-4,-2.7980092E-3,-1.9971065E-3,5.946934E-4,-1.6955078E-3,9.3895197E-4,-1.1295783E-3,-3.4720366E-4,5.492312E-5,5.5782247E-4,1.5565593E-3,1.1235478E-3,1.5824216E-3,2.1115346E-3,2.4908439E-3,1.3031433E-3,2.9690552E-3,1.3282617E-3,3.4808815E-3,3.93728E-3,9.4416144E-4],"categories":[],"categories_nodes":[],"categories_segments":[],"categories_sizes":[],"default_left":[0,0,0,0,0,0,0,0,0,0,0,0,0,0,0,0,0,0,0,0,0,0,0,0,0,0,0,0,0,0,0,0,0,0,0,0,0,0,0,0,0,0,0,0,0,0,0,0,0,0,0,0,0,0,0,0,0,0,0],"id":16,"left_children":[1,3,5,7,9,11,13,15,17,19,21,23,25,27,29,-1,-1,31,33,35,37,39,41,43,45,47,49,51,53,55,57,-1,-1,-1,-1,-1,-1,-1,-1,-1,-1,-1,-1,-1,-1,-1,-1,-1,-1,-1,-1,-1,-1,-1,-1,-1,-1,-1,-1],"loss_changes":[1.7743628E1,1.6054058E0,2.5623484E0,4.2003727E-1,1.8424988E-1,3.3529568E-1,2.822981E-1,7.8314304E-2,5.184126E-2,2.2911549E-2,1.2498856E-2,4.4957805E-2,5.710265E-2,2.6388884E-2,1.0169983E-2,0E0,0E0,1.3217926E-3,2.7501583E-3,2.7912855E-3,2.3753047E-3,9.87646E-3,6.9236755E-3,4.569389E-3,6.6132825E-3,4.885666E-3,1.1171311E-2,5.260825E-3,3.0635595E-3,6.996393E-4,9.636879E-4,0E0,0E0,0E0,0E0,0E0,0E0,0E0,0E0,0E0,0E0,0E0,0E0,0E0,0E0,0E0,0E0,0E0,0E0,0E0,0E0,0E0,0E0,0E0,0E0,0E0,0E0,0E0,0E0],"parents":[2147483647,0,0,1,1,2,2,3,3,4,4,5,5,6,6,7,7,8,8,9,9,10,10,11,11,12,12,13,13,14,14,17,17,18,18,19,19,20,20,21,21,22,22,23,23,24,24,25,25,26,26,27,27,28,28,29,29,30,30],"right_children":[2,4,6,8,10,12,14,16,18,20,22,24,26,28,30,-1,-1,32,34,36,38,40,42,44,46,48,50,52,54,56,58,-1,-1,-1,-1,-1,-1,-1,-1,-1,-1,-1,-1,-1,-1,-1,-1,-1,-1,-1,-1,-1,-1,-1,-1,-1,-1,-1,-1],"split_conditions":[6.779785E1,5.0171913E1,8.630873E1,4.091507E1,5.7951263E1,7.788659E1,9.587218E1,3.331888E1,4.543405E1,5.389874E1,1E0,7.204017E1,8.160297E1,9.1812546E1,9.822687E1,-1.1427737E-2,-8.305301E-3,1E1,1.6133592E0,1E0,1.3201707E1,6.404826E1,3.805207E0,2.874131E0,7.567384E1,1E1,8.381896E1,8.874229E1,9.8735553E-1,8.8315636E-1,2.4862526E1,-6.792545E-3,-1.8176883E-3,-1.2106091E-3,-5.558238E-3,-4.2291577E-3,-5.6784367E-3,-3.429056E-3,-9.927074E-4,-2.7980092E-3,-1.9971065E-3,5.946934E-4,-1.6955078E-3,9.3895197E-4,-1.1295783E-3,-3.4720366E-4,5.492312E-5,5.5782247E-4,1.5565593E-3,1.1235478E-3,1.5824216E-3,2.1115346E-3,2.4908439E-3,1.3031433E-3,2.9690552E-3,1.3282617E-3,3.4808815E-3,3.93728E-3,9.4416144E-4],"split_indices":[29,29,29,29,29,29,29,29,29,29,9,29,29,29,29,0,0,30,24,7,18,29,22,30,29,5,29,29,24,24,27,0,0,0,0,0,0,0,0,0,0,0,0,0,0,0,0,0,0,0,0,0,0,0,0,0,0,0,0],"split_type":[0,0,0,0,0,0,0,0,0,0,0,0,0,0,0,0,0,0,0,0,0,0,0,0,0,0,0,0,0,0,0,0,0,0,0,0,0,0,0,0,0,0,0,0,0,0,0,0,0,0,0,0,0,0,0,0,0,0,0],"sum_hessian":[4.573E3,1.238E3,3.335E3,6.28E2,6.1E2,1.579E3,1.756E3,1.68E2,4.6E2,3.52E2,2.58E2,6E2,9.79E2,7.89E2,9.67E2,3.5E1,1.33E2,1.8E2,2.8E2,2.17E2,1.35E2,1.89E2,6.9E1,1.87E2,4.13E2,4.14E2,5.65E2,5.12E2,2.77E2,2.47E2,7.2E2,1.79E2,1E0,1E0,2.79E2,2.05E2,1.2E1,1.33E2,2E0,9.9E1,9E1,3E0,6.6E1,2E0,1.85E2,2.3E2,1.83E2,4.02E2,1.2E1,2.7E2,2.95E2,2.5E2,2.62E2,5E0,2.72E2,2E0,2.45E2,7.19E2,1E0],"tree_param":{"num_deleted":"0","num_feature":"31","num_nodes":"59","size_leaf_vector":"1"}},{"base_weights":[-1.16605E-5,-9.968067E-2,3.5179604E-2,-1.3200815E-1,-6.9552965E-2,6.2375097E-3,6.0727566E-2,-1.642415E-1,-1.14854574E-1,-8.2255065E-2,-5.112613E-2,-1.1958851E-2,1.7466197E-2,4.423832E-2,7.1334794E-2,-2.4000974E-1,-7.921951E-3,-1.231619E-1,-1.0522424E-1,-9.319176E-2,-7.713164E-2,-5.6684982E-2,-4.106122E-2,-2.3949167E-2,-3.316347E-3,8.961462E-3,2.5171159E-2,3.868692E-2,4.9919702E-2,5.9374418E-2,7.3973596E-2,-3.4633398E-3,-1.2461743E-2,-1.7722457E-3,-6.171498E-3,-1.1803448E-3,-5.277326E-3,-3.2209314E-3,-4.7701388E-3,-7.9659524E-4,-3.8655635E-3,-1.9643016E-3,-2.9437148E-3,-1.3524648E-3,-2.4099003E-3,9.384826E-4,-1.2269615E-3,-4.3162736E-4,-2.232194E-5,3.7484014E-4,8.066158E-4,1.0712944E-3,1.4056421E-3,1.5400075E-3,1.9946422E-3,2.2940575E-3,2.7152346E-3,1.068883E-3,3.0018704E-3,3.6387646E-3,4.205732E-3],"categories":[],"categories_nodes":[],"categories_segments":[],"categories_sizes":[],"default_left":[0,0,0,0,0,0,0,0,0,0,0,0,0,0,0,0,0,0,0,0,0,0,0,0,0,0,0,0,0,0,0,0,0,0,0,0,0,0,0,0,0,0,0,0,0,0,0,0,0,0,0,0,0,0,0,0,0,0,0,0,0],"id":17,"left_children":[1,3,5,7,9,11,13,15,17,19,21,23,25,27,29,31,-1,33,35,37,39,41,43,45,47,49,51,53,55,57,59,-1,-1,-1,-1,-1,-1,-1,-1,-1,-1,-1,-1,-1,-1,-1,-1,-1,-1,-1,-1,-1,-1,-1,-1,-1,-1,-1,-1,-1,-1],"loss_changes":[1.5941489E1,1.1459265E0,2.4833045E0,2.9685307E-1,1.3997531E-1,3.2221913E-1,3.0887508E-1,4.8143387E-2,1.7120838E-2,1.31521225E-2,1.1883616E-2,6.2303647E-2,6.366488E-2,2.017808E-2,2.9819965E-2,1.6377568E-3,0E0,2.3388863E-4,2.2695065E-3,9.159446E-4,1.5496016E-3,3.8198829E-3,8.0963075E-3,6.8127066E-3,5.351356E-3,4.7628917E-3,5.0275624E-3,2.1857023E-3,3.5826564E-3,3.7800074E-3,4.621029E-3,0E0,0E0,0E0,0E0,0E0,0E0,0E0,0E0,0E0,0E0,0E0,0E0,0E0,0E0,0E0,0E0,0E0,0E0,0E0,0E0,0E0,0E0,0E0,0E0,0E0,0E0,0E0,0E0,0E0,0E0],"parents":[2147483647,0,0,1,1,2,2,3,3,4,4,5,5,6,6,7,7,8,8,9,9,10,10,11,11,12,12,13,13,14,14,15,15,17,17,18,18,19,19,20,20,21,21,22,22,23,23,24,24,25,25,26,26,27,27,28,28,29,29,30,30],"right_children":[2,4,6,8,10,12,14,16,18,20,22,24,26,28,30,32,-1,34,36,38,40,42,44,46,48,50,52,54,56,58,60,-1,-1,-1,-1,-1,-1,-1,-1,-1,-1,-1,-1,-1,-1,-1,-1,-1,-1,-1,-1,-1,-1,-1,-1,-1,-1,-1,-1,-1,-1],"split_conditions":[6.603443E1,4.890984E1,8.579526E1,4.185563E1,5.584646E1,7.736169E1,9.39739E1,2.9728432E1,4.6031113E1,5.0801838E1,6.1989452E1,7.204017E1,8.160297E1,8.936486E1,9.664189E1,2.2831566E0,-7.921951E-3,-9.659258E-1,1.6133592E0,1.6817234E0,5.288E-1,3E0,2.5881904E-1,2.874131E0,7.430307E1,1.0929857E1,8.34128E1,5.91706E0,1E0,9.8735553E-1,1E0,-3.4633398E-3,-1.2461743E-2,-1.7722457E-3,-6.171498E-3,-1.1803448E-3,-5.277326E-3,-3.2209314E-3,-4.7701388E-3,-7.9659524E-4,-3.8655635E-3,-1.9643016E-3,-2.9437148E-3,-1.3524648E-3,-2.4099003E-3,9.384826E-4,-1.2269615E-3,-4.3162736E-4,-2.232194E-5,3.7484014E-4,8.066158E-4,1.0712944E-3,1.4056421E-3,1.5400075E-3,1.9946422E-3,2.2940575E-3,2.7152346E-3,1.068883E-3,3.0018704E-3,3.6387646E-3,4.205732E-3],"split_indices":[29,29,29,29,29,29,29,29,29,29,29,29,29,29,29,22,0,15,24,27,27,13,15,30,29,27,29,22,12,24,12,0,0,0,0,0,0,0,0,0,0,0,0,0,0,0,0,0,0,0,0,0,0,0,0,0,0,0,0,0,0],"split_type":[0,0,0,0,0,0,0,0,0,0,0,0,0,0,0,0,0,0,0,0,0,0,0,0,0,0,0,0,0,0,0,0,0,0,0,0,0,0,0,0,0,0,0,0,0,0,0,0,0,0,0,0,0,0,0,0,0,0,0,0,0],"sum_hessian":[4.543E3,1.185E3,3.358E3,5.7E2,6.15E2,1.575E3,1.783E3,1.95E2,3.75E2,3.62E2,2.53E2,6.01E2,9.74E2,7E2,1.083E3,1.1E1,1.84E2,1.95E2,1.8E2,1.1E2,2.52E2,1.6E2,9.3E1,2.51E2,3.5E2,4.64E2,5.1E2,3.58E2,3.42E2,2E2,8.83E2,1E0,1E1,1E0,1.94E2,1E0,1.79E2,1E1,1E2,1E0,2.51E2,2E1,1.4E2,3.3E1,6E1,3E0,2.48E2,1.22E2,2.28E2,3.87E2,7.7E1,2.28E2,2.82E2,5.1E1,3.07E2,1.84E2,1.58E2,4E0,1.96E2,7.97E2,8.6E1],"tree_param":{"num_deleted":"0","num_feature":"31","num_nodes":"61","size_leaf_vector":"1"}},{"base_weights":[3.4401394E-6,-9.5684804E-2,3.356448E-2,-1.3324861E-1,-7.005147E-2,5.6219744E-3,5.7068147E-2,-1.7332713E-1,-1.20716035E-1,-8.450576E-2,-4.9403004E-2,-1.4504039E-2,1.5194124E-2,4.207453E-2,6.685211E-2,-2.3014872E-1,-1.6363883E-1,-1.3085169E-1,-5.434256E-3,-8.992399E-2,-6.944795E-2,-5.7751186E-2,-3.8147986E-2,-2.443756E-2,-5.772137E-3,7.2293747E-3,2.263507E-2,3.549565E-2,4.763085E-2,5.643172E-2,6.944066E-2,-3.3767566E-3,-1.1873122E-2,-2.3154735E-3,-8.217811E-3,-1.778473E-3,-6.557818E-3,-4.2309016E-3,-4.772885E-3,-3.347598E-3,-4.9196496E-3,-2.9515221E-3,-1.8100826E-3,-2.1502883E-3,-1.2917507E-3,-1.3784234E-3,-8.8910776E-4,-3.8965922E-4,8.091556E-4,2.5382004E-4,6.0105E-4,9.5363037E-4,1.3357797E-3,1.5180077E-3,1.9207562E-3,2.6183526E-3,2.1175279E-3,2.831982E-3,2.3085476E-4,3.4174155E-3,3.8893067E-3],"categories":[],"categories_nodes":[],"categories_segments":[],"categories_sizes":[],"default_left":[0,0,0,0,0,0,0,0,0,0,0,0,0,0,0,0,0,0,0,0,0,0,0,0,0,0,0,0,0,0,0,0,0,0,0,0,0,0,0,0,0,0,0,0,0,0,0,0,0,0,0,0,0,0,0,0,0,0,0,0,0],"id":18,"left_children":[1,3,5,7,9,11,13,15,17,19,21,23,25,27,29,31,33,35,-1,37,39,41,43,45,47,49,51,53,55,57,59,-1,-1,-1,-1,-1,-1,-1,-1,-1,-1,-1,-1,-1,-1,-1,-1,-1,-1,-1,-1,-1,-1,-1,-1,-1,-1,-1,-1,-1,-1],"loss_changes":[1.4791694E1,1.1422768E0,2.2392013E0,2.2218418E-1,2.0862603E-1,3.0056047E-1,2.6886988E-1,2.454567E-2,3.1140327E-2,2.7858257E-2,2.5608778E-2,4.3488413E-2,6.2479764E-2,2.5140285E-2,2.6265144E-2,6.133318E-4,8.0537796E-4,1.0535717E-3,0E0,8.485317E-4,1.7207861E-3,2.4942756E-3,6.604895E-3,4.4065863E-3,1.2062346E-2,5.2208956E-3,7.4275136E-3,3.931284E-3,7.6605678E-3,2.1948218E-3,2.8147697E-3,0E0,0E0,0E0,0E0,0E0,0E0,0E0,0E0,0E0,0E0,0E0,0E0,0E0,0E0,0E0,0E0,0E0,0E0,0E0,0E0,0E0,0E0,0E0,0E0,0E0,0E0,0E0,0E0,0E0,0E0],"parents":[2147483647,0,0,1,1,2,2,3,3,4,4,5,5,6,6,7,7,8,8,9,9,10,10,11,11,12,12,13,13,14,14,15,15,16,16,17,17,19,19,20,20,21,21,22,22,23,23,24,24,25,25,26,26,27,27,28,28,29,29,30,30],"right_children":[2,4,6,8,10,12,14,16,18,20,22,24,26,28,30,32,34,36,-1,38,40,42,44,46,48,50,52,54,56,58,60,-1,-1,-1,-1,-1,-1,-1,-1,-1,-1,-1,-1,-1,-1,-1,-1,-1,-1,-1,-1,-1,-1,-1,-1,-1,-1,-1,-1,-1,-1],"split_conditions":[6.603443E1,4.728833E1,8.5486275E1,3.8598175E1,5.460229E1,7.583343E1,9.367029E1,2.9728432E1,4.417951E1,5.2136776E1,6.0685947E1,7.1678825E1,8.091612E1,8.859494E1,9.664189E1,2.2831566E0,7.744487E1,2.874131E0,-5.434256E-3,1.0950964E1,1E0,1.9362988E1,5E0,7.008957E1,1E0,7.957859E1,8.34128E1,3E0,8E0,7.770947E1,1E0,-3.3767566E-3,-1.1873122E-2,-2.3154735E-3,-8.217811E-3,-1.778473E-3,-6.557818E-3,-4.2309016E-3,-4.772885E-3,-3.347598E-3,-4.9196496E-3,-2.9515221E-3,-1.8100826E-3,-2.1502883E-3,-1.2917507E-3,-1.3784234E-3,-8.8910776E-4,-3.8965922E-4,8.091556E-4,2.5382004E-4,6.0105E-4,9.5363037E-4,1.3357797E-3,1.5180077E-3,1.9207562E-3,2.6183526E-3,2.1175279E-3,2.831982E-3,2.3085476E-4,3.4174155E-3,3.8893067E-3],"split_indices":[29,29,29,29,29,29,29,29,29,29,29,29,29,29,29,22,19,30,0,24,7,24,16,29,7,29,29,16,13,19,12,0,0,0,0,0,0,0,0,0,0,0,0,0,0,0,0,0,0,0,0,0,0,0,0,0,0,0,0,0,0],"split_type":[0,0,0,0,0,0,0,0,0,0,0,0,0,0,0,0,0,0,0,0,0,0,0,0,0,0,0,0,0,0,0,0,0,0,0,0,0,0,0,0,0,0,0,0,0,0,0,0,0,0,0,0,0,0,0,0,0,0,0,0,0],"sum_hessian":[4.604E3,1.195E3,3.409E3,4.83E2,7.12E2,1.558E3,1.851E3,1.12E2,3.71E2,4.17E2,2.95E2,5.02E2,1.056E3,7.33E2,1.118E3,1.3E1,9.9E1,1.96E2,1.75E2,3.03E2,1.14E2,1.67E2,1.28E2,2.34E2,2.68E2,5.11E2,5.45E2,3.39E2,3.94E2,2.27E2,8.91E2,1E0,1.2E1,1E0,9.8E1,1E0,1.95E2,1.63E2,1.4E2,1.08E2,6E0,1.56E2,1.1E1,9E1,3.8E1,1.57E2,7.7E1,2.46E2,2.2E1,3.54E2,1.57E2,2.94E2,2.51E2,1.27E2,2.12E2,2.03E2,1.91E2,2.26E2,1E0,7.96E2,9.5E1],"tree_param":{"num_deleted":"0","num_feature":"31","num_nodes":"61","size_leaf_vector":"1"}},{"base_weights":[-1.0012441E-4,-8.6643934E-2,3.3129588E-2,-1.2171115E-1,-5.8056362E-2,7.898621E-3,5.5166446E-2,-1.582789E-1,-1.0739218E-1,-7.3628746E-2,-4.042672E-2,-4.917067E-3,1.8121054E-2,4.316052E-2,6.5837875E-2,-2.2043835E-1,-1.492211E-1,-5.941409E-3,-9.716692E-2,-8.256796E-2,-6.495648E-2,-5.0309226E-2,-3.3099804E-2,-1.9582616E-2,-1.5118017E-4,1.4521369E-2,2.7223885E-2,3.701448E-2,4.965785E-2,6.1792992E-2,6.8164185E-2,-4.471566E-3,-1.1561238E-2,-7.697243E-3,-5.8336244E-3,-1.0450662E-3,-4.870815E-3,-4.1401875E-3,-1.0149152E-3,-4.5381445E-3,-3.129422E-3,-3.041218E-3,-2.2399402E-3,-1.8118935E-3,-1.1290378E-3,-8.077255E-5,-1.0477175E-3,-3.3951548E-4,1.2994766E-4,5.5835175E-4,9.120386E-4,4.7561433E-4,1.4053305E-3,1.5840492E-3,1.9912876E-3,2.1364333E-3,2.6406252E-3,3.0934818E-3,8.7418855E-4,6.725788E-4,3.4117603E-3],"categories":[],"categories_nodes":[],"categories_segments":[],"categories_sizes":[],"default_left":[0,0,0,0,0,0,0,0,0,0,0,0,0,0,0,0,0,0,0,0,0,0,0,0,0,0,0,0,0,0,0,0,0,0,0,0,0,0,0,0,0,0,0,0,0,0,0,0,0,0,0,0,0,0,0,0,0,0,0,0,0],"id":19,"left_children":[1,3,5,7,9,11,13,15,17,19,21,23,25,27,29,31,33,-1,35,37,39,41,43,45,47,49,51,53,55,57,59,-1,-1,-1,-1,-1,-1,-1,-1,-1,-1,-1,-1,-1,-1,-1,-1,-1,-1,-1,-1,-1,-1,-1,-1,-1,-1,-1,-1,-1,-1],"loss_changes":[1.3154022E1,1.2650881E0,1.8371816E0,2.809391E-1,1.8947268E-1,2.021027E-1,2.2316265E-1,5.606413E-2,3.6631107E-2,2.3397684E-2,2.2301972E-2,4.7874674E-2,2.771902E-2,3.1425953E-2,4.5576096E-3,4.7570467E-3,3.7178993E-3,0E0,2.2053719E-3,9.4747543E-4,6.1136484E-3,5.3291917E-3,5.552545E-3,4.1067004E-3,9.475545E-3,7.494077E-3,3.5161823E-3,5.2157044E-3,6.5308213E-3,1.1014938E-4,1.3437271E-3,0E0,0E0,0E0,0E0,0E0,0E0,0E0,0E0,0E0,0E0,0E0,0E0,0E0,0E0,0E0,0E0,0E0,0E0,0E0,0E0,0E0,0E0,0E0,0E0,0E0,0E0,0E0,0E0,0E0,0E0],"parents":[2147483647,0,0,1,1,2,2,3,3,4,4,5,5,6,6,7,7,8,8,9,9,10,10,11,11,12,12,13,13,14,14,15,15,16,16,18,18,19,19,20,20,21,21,22,22,23,23,24,24,25,25,26,26,27,27,28,28,29,29,30,30],"right_children":[2,4,6,8,10,12,14,16,18,20,22,24,26,28,30,32,34,-1,36,38,40,42,44,46,48,50,52,54,56,58,60,-1,-1,-1,-1,-1,-1,-1,-1,-1,-1,-1,-1,-1,-1,-1,-1,-1,-1,-1,-1,-1,-1,-1,-1,-1,-1,-1,-1,-1,-1],"split_conditions":[6.834275E1,4.890984E1,8.595645E1,4.0355667E1,5.584646E1,7.882076E1,9.587218E1,2.9728432E1,4.5068295E1,5.1890385E1,6.1351425E1,7.204017E1,8.3940544E1,9.030082E1,9.943388E1,1.1131364E1,1.6119331E1,-5.941409E-3,1.6133592E0,2.4270517E1,1.0092128E-3,6.9181603E-1,5E0,2E0,7.476024E1,8.160297E1,1E0,3E0,6.123234E-17,3.8404543E0,1E0,-4.471566E-3,-1.1561238E-2,-7.697243E-3,-5.8336244E-3,-1.0450662E-3,-4.870815E-3,-4.1401875E-3,-1.0149152E-3,-4.5381445E-3,-3.129422E-3,-3.041218E-3,-2.2399402E-3,-1.8118935E-3,-1.1290378E-3,-8.077255E-5,-1.0477175E-3,-3.3951548E-4,1.2994766E-4,5.5835175E-4,9.120386E-4,4.7561433E-4,1.4053305E-3,1.5840492E-3,1.9912876E-3,2.1364333E-3,2.6406252E-3,3.0934818E-3,8.7418855E-4,6.725788E-4,3.4117603E-3],"split_indices":[29,29,29,29,29,29,29,29,29,29,29,29,29,29,29,26,23,0,24,23,28,28,16,13,29,29,4,16,15,21,5,0,0,0,0,0,0,0,0,0,0,0,0,0,0,0,0,0,0,0,0,0,0,0,0,0,0,0,0,0,0],"split_type":[0,0,0,0,0,0,0,0,0,0,0,0,0,0,0,0,0,0,0,0,0,0,0,0,0,0,0,0,0,0,0,0,0,0,0,0,0,0,0,0,0,0,0,0,0,0,0,0,0,0,0,0,0,0,0,0,0,0,0,0,0],"sum_hessian":[4.572E3,1.268E3,3.304E3,5.68E2,7E2,1.541E3,1.763E3,1.57E2,4.11E2,3.7E2,3.3E2,6.84E2,8.57E2,8.32E2,9.31E2,1.7E1,1.4E2,1.89E2,2.22E2,1.78E2,1.92E2,1.38E2,1.92E2,1.67E2,5.17E2,6.16E2,2.41E2,4.31E2,4.01E2,3.5E2,5.81E2,2E0,1.5E1,1.19E2,2.1E1,1E0,2.21E2,1.77E2,1E0,1.3E1,1.79E2,4.4E1,9.4E1,1.46E2,4.6E1,1.2E1,1.55E2,1.51E2,3.66E2,3.26E2,2.9E2,1.2E1,2.29E2,1.53E2,2.78E2,1.3E2,2.71E2,3.49E2,1E0,1E0,5.8E2],"tree_param":{"num_deleted":"0","num_feature":"31","num_nodes":"61","size_leaf_vector":"1"}},{"base_weights":[4.2512032E-4,3.3353597E-2,-5.2152358E-2,3.804814E-2,1.5315406E-2,2.5206411E-2,-5.7616122E-2,2.3641916E-2,5.4432586E-2,-2.29183E-2,1.9023746E-2,3.562918E-2,1.101951E-2,-6.508886E-2,-7.0011215E-3,1.9862656E-2,5.3527743E-2,3.0969596E-2,5.6164645E-2,-3.8695574E-2,-1.5476284E-2,-8.0299296E-4,2.6384193E-2,2.0308519E-2,4.678683E-2,1.5864254E-3,9.064187E-3,-5.3272165E-2,-9.752265E-2,-5.697978E-2,9.084628E-3,7.480389E-4,1.5221747E-3,3.2321692E-3,2.1895857E-3,-5.471652E-4,1.8844738E-3,6.4959674E-4,2.814251E-3,-2.742556E-3,-1.313905E-4,-9.4645406E-4,1.4982562E-3,-1.4680205E-4,1.804623E-3,1.2619825E-3,3.1658162E-3,1.1677941E-4,1.0754443E-3,2.7658707E-3,1.7672401E-3,-6.107509E-4,4.8884156E-4,-4.2011635E-3,-7.515153E-4,-6.108505E-3,-4.245713E-3,-4.749056E-3,-1.9503387E-3,-1.0046138E-3,1.3222247E-3],"categories":[],"categories_nodes":[],"categories_segments":[],"categories_sizes":[],"default_left":[0,0,0,0,0,0,0,0,0,0,0,0,0,0,0,0,0,0,0,0,0,0,0,0,0,0,0,0,0,0,0,0,0,0,0,0,0,0,0,0,0,0,0,0,0,0,0,0,0,0,0,0,0,0,0,0,0,0,0,0,0],"id":20,"left_children":[1,3,5,7,9,11,13,15,17,19,21,23,25,27,29,31,33,35,37,39,41,43,45,47,49,-1,51,53,55,57,59,-1,-1,-1,-1,-1,-1,-1,-1,-1,-1,-1,-1,-1,-1,-1,-1,-1,-1,-1,-1,-1,-1,-1,-1,-1,-1,-1,-1,-1,-1],"loss_changes":[7.925883E0,2.377944E-1,7.466197E-1,5.257859E-1,8.309583E-2,1.6907796E-2,6.2249374E-1,1.3334286E-1,4.0688038E-2,5.5067055E-3,7.765791E-2,1.0502972E-2,1.7775381E-3,5.447831E-1,1.7175774E-1,5.4418743E-2,1.1562705E-2,2.1254517E-2,4.315138E-3,9.178972E-3,6.3725114E-3,1.1517436E-2,1.4802843E-2,5.969871E-4,1.7538965E-3,0E0,8.473187E-4,1.2382197E0,1.0833812E-1,3.1811E-2,8.2585484E-2,0E0,0E0,0E0,0E0,0E0,0E0,0E0,0E0,0E0,0E0,0E0,0E0,0E0,0E0,0E0,0E0,0E0,0E0,0E0,0E0,0E0,0E0,0E0,0E0,0E0,0E0,0E0,0E0,0E0,0E0],"parents":[2147483647,0,0,1,1,2,2,3,3,4,4,5,5,6,6,7,7,8,8,9,9,10,10,11,11,12,12,13,13,14,14,15,15,16,16,17,17,18,18,19,19,20,20,21,21,22,22,23,23,24,24,26,26,27,27,28,28,29,29,30,30],"right_children":[2,4,6,8,10,12,14,16,18,20,22,24,26,28,30,32,34,36,38,40,42,44,46,48,50,-1,52,54,56,58,60,-1,-1,-1,-1,-1,-1,-1,-1,-1,-1,-1,-1,-1,-1,-1,-1,-1,-1,-1,-1,-1,-1,-1,-1,-1,-1,-1,-1,-1,-1],"split_conditions":[1E0,2.1E1,1E0,7E0,1E0,2.1E1,1E0,2.003586E0,1E0,2.554953E0,1.7357647E-2,6E0,1.704414E1,2.1E1,1E0,1E0,3.8918338E0,1.7674457E0,1E0,1E0,1.4E1,1E0,1E0,1.28394E1,1.365905E1,1.5864254E-3,5E0,7E0,2.9985848E-1,1.1E1,7E0,7.480389E-4,1.5221747E-3,3.2321692E-3,2.1895857E-3,-5.471652E-4,1.8844738E-3,6.4959674E-4,2.814251E-3,-2.742556E-3,-1.313905E-4,-9.4645406E-4,1.4982562E-3,-1.4680205E-4,1.804623E-3,1.2619825E-3,3.1658162E-3,1.1677941E-4,1.0754443E-3,2.7658707E-3,1.7672401E-3,-6.107509E-4,4.8884156E-4,-4.2011635E-3,-7.515153E-4,-6.108505E-3,-4.245713E-3,-4.749056E-3,-1.9503387E-3,-1.0046138E-3,1.3222247E-3],"split_indices":[2,13,1,13,0,13,7,28,0,28,28,13,25,13,0,9,28,27,8,7,3,7,7,18,24,0,4,13,28,13,13,0,0,0,0,0,0,0,0,0,0,0,0,0,0,0,0,0,0,0,0,0,0,0,0,0,0,0,0,0,0],"split_type":[0,0,0,0,0,0,0,0,0,0,0,0,0,0,0,0,0,0,0,0,0,0,0,0,0,0,0,0,0,0,0,0,0,0,0,0,0,0,0,0,0,0,0,0,0,0,0,0,0,0,0,0,0,0,0,0,0,0,0,0,0],"sum_hessian":[4.576E3,2.814E3,1.762E3,2.232E3,5.82E2,1.16E2,1.646E3,1.189E3,1.043E3,5.1E1,5.31E2,6.6E1,5E1,1.434E3,2.12E2,1.057E3,1.32E2,7.3E1,9.7E2,1.5E1,3.6E1,1.44E2,3.87E2,2.9E1,3.7E1,3E0,4.7E1,1.053E3,3.81E2,5.1E1,1.61E2,7.24E2,3.33E2,5.9E1,7.3E1,1E1,6.3E1,3E0,9.67E2,1E1,5E0,3.4E1,2E0,1.37E2,7E0,3.77E2,1E1,2E0,2.7E1,1.9E1,1.8E1,1E0,4.6E1,5.83E2,4.7E2,1.26E2,2.55E2,1.5E1,3.6E1,6E1,1.01E2],"tree_param":{"num_deleted":"0","num_feature":"31","num_nodes":"61","size_leaf_vector":"1"}},{"base_weights":[7.219531E-4,-5.074292E-2,3.1647757E-2,-6.10331E-2,5.4426696E-3,2.5600156E-2,5.5056404E-2,2.5039893E-2,-6.712217E-2,-4.008523E-4,4.515603E-2,8.680413E-3,2.9725095E-2,5.519095E-2,-5.7788193E-4,4.3862946E-2,1.4010106E-2,-7.4119665E-2,-1.9523397E-2,-6.091249E-3,3.669144E-2,5.7580643E-3,5.339281E-2,4.0910454E-3,4.47628E-2,4.9903076E-2,2.6881771E-2,4.1977428E-2,5.5884678E-2,8.454025E-4,2.627159E-3,4.4473732E-4,9.951972E-4,-5.070262E-3,-3.1084386E-3,-3.1052912E-3,-1.7915998E-5,-1.6823225E-3,-8.23805E-5,1.2448132E-4,2.0133501E-3,1.6712627E-3,-5.9969304E-4,1.620592E-3,3.0082304E-3,-2.3105156E-3,3.8073395E-4,5.827129E-4,2.9309602E-3,3.080932E-3,2.239992E-3,1.1290864E-3,1.9031669E-3,2.17184E-3,-1.180619E-4,2.8081213E-3,1.6489752E-3],"categories":[],"categories_nodes":[],"categories_segments":[],"categories_sizes":[],"default_left":[0,0,0,0,0,0,0,0,0,0,0,0,0,0,0,0,0,0,0,0,0,0,0,0,0,0,0,0,0,0,0,0,0,0,0,0,0,0,0,0,0,0,0,0,0,0,0,0,0,0,0,0,0,0,0,0,0],"id":21,"left_children":[1,3,5,7,9,11,13,15,17,19,21,23,25,27,-1,29,31,33,35,37,39,41,43,45,47,49,51,53,55,-1,-1,-1,-1,-1,-1,-1,-1,-1,-1,-1,-1,-1,-1,-1,-1,-1,-1,-1,-1,-1,-1,-1,-1,-1,-1,-1,-1],"loss_changes":[7.2338023E0,9.866729E-1,4.0049696E-1,7.5743914E-1,6.1515566E-2,1.5733457E-1,5.854249E-3,1.9316439E-2,4.4720125E-1,4.9191702E-2,1.0725975E-2,7.334119E-2,1.0278952E-1,2.9797554E-3,0E0,7.3007196E-3,1.6922047E-3,3.7652206E-1,1.4197837E-1,2.4678525E-2,3.6907643E-3,3.8389189E-3,2.0281672E-3,7.0363075E-2,2.2255085E-2,1.0572016E-2,7.57339E-2,2.2378825E-3,1.6405582E-3,0E0,0E0,0E0,0E0,0E0,0E0,0E0,0E0,0E0,0E0,0E0,0E0,0E0,0E0,0E0,0E0,0E0,0E0,0E0,0E0,0E0,0E0,0E0,0E0,0E0,0E0,0E0,0E0],"parents":[2147483647,0,0,1,1,2,2,3,3,4,4,5,5,6,6,7,7,8,8,9,9,10,10,11,11,12,12,13,13,15,15,16,16,17,17,18,18,19,19,20,20,21,21,22,22,23,23,24,24,25,25,26,26,27,27,28,28],"right_children":[2,4,6,8,10,12,14,16,18,20,22,24,26,28,-1,30,32,34,36,38,40,42,44,46,48,50,52,54,56,-1,-1,-1,-1,-1,-1,-1,-1,-1,-1,-1,-1,-1,-1,-1,-1,-1,-1,-1,-1,-1,-1,-1,-1,-1,-1,-1,-1],"split_conditions":[1E0,1E0,1E0,1E0,1E0,1.94308E-1,8.145537E0,1E0,1E0,7.599041E-1,1E0,1E0,4.586363E0,1E0,-5.7788193E-4,1.2952017E1,0E0,9E0,1E0,1.0092128E-3,5.2355013E0,1.4721891E1,1.2957204E1,1E0,1E0,1E0,1E0,3E0,2.5936563E-2,8.454025E-4,2.627159E-3,4.4473732E-4,9.951972E-4,-5.070262E-3,-3.1084386E-3,-3.1052912E-3,-1.7915998E-5,-1.6823225E-3,-8.23805E-5,1.2448132E-4,2.0133501E-3,1.6712627E-3,-5.9969304E-4,1.620592E-3,3.0082304E-3,-2.3105156E-3,3.8073395E-4,5.827129E-4,2.9309602E-3,3.080932E-3,2.239992E-3,1.1290864E-3,1.9031669E-3,2.17184E-3,-1.180619E-4,2.8081213E-3,1.6489752E-3],"split_indices":[8,11,11,1,7,28,30,12,7,28,0,7,30,0,0,18,14,1,0,28,23,22,18,0,0,1,9,1,21,0,0,0,0,0,0,0,0,0,0,0,0,0,0,0,0,0,0,0,0,0,0,0,0,0,0,0,0],"split_type":[0,0,0,0,0,0,0,0,0,0,0,0,0,0,0,0,0,0,0,0,0,0,0,0,0,0,0,0,0,0,0,0,0,0,0,0,0,0,0,0,0,0,0,0,0,0,0,0,0,0,0,0,0,0,0,0,0],"sum_hessian":[4.543E3,1.705E3,2.838E3,1.441E3,2.64E2,2.257E3,5.81E2,9.5E1,1.346E3,2.31E2,3.3E1,4.43E2,1.814E3,5.8E2,1E0,3.4E1,6.1E1,1.173E3,1.73E2,2.01E2,3E1,6E0,2.7E1,3.94E2,4.9E1,2.22E2,1.592E3,3.2E1,5.48E2,9E0,2.5E1,3.4E1,2.7E1,3.55E2,8.18E2,5.3E1,1.2E2,2.7E1,1.74E2,3E0,2.7E1,2E0,4E0,8E0,1.9E1,2.5E1,3.69E2,1.5E1,3.4E1,6.4E1,1.58E2,1.152E3,4.4E2,3.1E1,1E0,5.4E2,8E0],"tree_param":{"num_deleted":"0","num_feature":"31","num_nodes":"57","size_leaf_vector":"1"}},{"base_weights":[1.5849262E-4,-7.742568E-2,2.880706E-2,-1.0395444E-1,-4.7418475E-2,7.812733E-3,4.9809303E-2,-1.4751601E-1,-9.444973E-2,-6.050774E-2,-3.5378817E-2,-4.474728E-3,1.7650189E-2,3.953908E-2,5.8495063E-2,-1.3425197E-1,-1.7772426E-1,-1.0815179E-1,-8.433057E-2,-8.3281405E-2,-5.810823E-2,-4.170742E-2,-2.877582E-2,-1.3980189E-2,3.8369812E-4,1.2395892E-2,2.4290701E-2,3.3385962E-2,4.3739725E-2,6.1469305E-2,5.5799972E-2,-6.751059E-3,-1.7601684E-3,-2.2778497E-3,-9.025907E-3,-2.1498918E-3,-5.4271664E-3,-4.233563E-3,-1.8379859E-3,-1.4544994E-3,-4.3442813E-3,-3.099041E-3,-2.5071397E-3,-1.4384704E-3,-2.3016327E-3,-1.8771722E-3,-1.0711593E-3,-1.0497791E-3,-5.7078473E-4,-1.677491E-4,3.528118E-4,5.314565E-4,1.0240222E-3,8.390176E-4,1.2756139E-3,1.4057518E-3,1.803856E-3,1.7545987E-3,2.2881653E-3,3.3349942E-3,2.916206E-3,2.5531878E-3,2.8993997E-3],"categories":[],"categories_nodes":[],"categories_segments":[],"categories_sizes":[],"default_left":[0,0,0,0,0,0,0,0,0,0,0,0,0,0,0,0,0,0,0,0,0,0,0,0,0,0,0,0,0,0,0,0,0,0,0,0,0,0,0,0,0,0,0,0,0,0,0,0,0,0,0,0,0,0,0,0,0,0,0,0,0,0,0],"id":22,"left_children":[1,3,5,7,9,11,13,15,17,19,21,23,25,27,29,31,33,35,37,39,41,43,45,47,49,51,53,55,57,59,61,-1,-1,-1,-1,-1,-1,-1,-1,-1,-1,-1,-1,-1,-1,-1,-1,-1,-1,-1,-1,-1,-1,-1,-1,-1,-1,-1,-1,-1,-1,-1,-1],"loss_changes":[1.013763E1,9.7421646E-1,1.4683416E0,2.5602198E-1,8.9104176E-2,2.0158151E-1,1.4621353E-1,2.2218704E-2,6.547499E-2,1.024282E-2,1.1503279E-2,3.4272093E-2,3.200817E-2,1.8338561E-2,3.784418E-3,1.6467571E-3,3.592372E-3,1.0724068E-3,1.97649E-3,2.160117E-3,4.6963096E-3,7.237524E-3,8.9944005E-3,4.276052E-3,1.22973425E-2,7.1954355E-3,3.3150762E-3,3.4539104E-3,6.303787E-3,2.986312E-3,2.0440817E-3,0E0,0E0,0E0,0E0,0E0,0E0,0E0,0E0,0E0,0E0,0E0,0E0,0E0,0E0,0E0,0E0,0E0,0E0,0E0,0E0,0E0,0E0,0E0,0E0,0E0,0E0,0E0,0E0,0E0,0E0,0E0,0E0],"parents":[2147483647,0,0,1,1,2,2,3,3,4,4,5,5,6,6,7,7,8,8,9,9,10,10,11,11,12,12,13,13,14,14,15,15,16,16,17,17,18,18,19,19,20,20,21,21,22,22,23,23,24,24,25,25,26,26,27,27,28,28,29,29,30,30],"right_children":[2,4,6,8,10,12,14,16,18,20,22,24,26,28,30,32,34,36,38,40,42,44,46,48,50,52,54,56,58,60,62,-1,-1,-1,-1,-1,-1,-1,-1,-1,-1,-1,-1,-1,-1,-1,-1,-1,-1,-1,-1,-1,-1,-1,-1,-1,-1,-1,-1,-1,-1,-1,-1],"split_conditions":[6.779785E1,5.0171913E1,8.6812706E1,3.8598175E1,5.584646E1,7.918668E1,9.664189E1,5.894472E0,4.473676E1,-1.8369701E-16,6.1989452E1,7.3333496E1,8.358025E1,9.030082E1,1E0,8.967856E-1,7.746109E1,2.874131E0,8.145537E0,7.841625E0,5.3256298E1,5E0,4.4512242E-2,4E0,1E0,1E0,3E0,3E0,-2.5881904E-1,1E0,9.943388E1,-6.751059E-3,-1.7601684E-3,-2.2778497E-3,-9.025907E-3,-2.1498918E-3,-5.4271664E-3,-4.233563E-3,-1.8379859E-3,-1.4544994E-3,-4.3442813E-3,-3.099041E-3,-2.5071397E-3,-1.4384704E-3,-2.3016327E-3,-1.8771722E-3,-1.0711593E-3,-1.0497791E-3,-5.7078473E-4,-1.677491E-4,3.528118E-4,5.314565E-4,1.0240222E-3,8.390176E-4,1.2756139E-3,1.4057518E-3,1.803856E-3,1.7545987E-3,2.2881653E-3,3.3349942E-3,2.916206E-3,2.5531878E-3,2.8993997E-3],"split_indices":[29,29,29,29,29,29,29,30,29,15,29,29,29,29,11,28,19,30,30,26,29,13,28,5,2,2,4,16,15,10,29,0,0,0,0,0,0,0,0,0,0,0,0,0,0,0,0,0,0,0,0,0,0,0,0,0,0,0,0,0,0,0,0],"split_type":[0,0,0,0,0,0,0,0,0,0,0,0,0,0,0,0,0,0,0,0,0,0,0,0,0,0,0,0,0,0,0,0,0,0,0,0,0,0,0,0,0,0,0,0,0,0,0,0,0,0,0,0,0,0,0,0,0,0,0,0,0,0,0],"sum_hessian":[4.559E3,1.229E3,3.33E3,6.51E2,5.78E2,1.666E3,1.664E3,1.14E2,5.37E2,2.75E2,3.03E2,7.41E2,9.25E2,7.65E2,8.99E2,8.3E1,3.1E1,2.24E2,3.13E2,2.3E1,2.52E2,1.52E2,1.51E2,2.5E2,4.91E2,5.18E2,4.07E2,3.14E2,4.51E2,4.17E2,4.82E2,8.2E1,1E0,1E0,3E1,2E0,2.22E2,3.1E2,3E0,2E0,2.1E1,1.65E2,8.7E1,4E1,1.12E2,6.7E1,8.4E1,6.5E1,1.85E2,3.15E2,1.76E2,4.27E2,9.1E1,5.9E1,3.48E2,1.1E2,2.04E2,8.9E1,3.62E2,1.49E2,2.68E2,1.6E2,3.22E2],"tree_param":{"num_deleted":"0","num_feature":"31","num_nodes":"63","size_leaf_vector":"1"}},{"base_weights":[3.6109734E-5,2.8691681E-2,-4.523842E-2,3.74885E-2,1.599166E-2,-5.4366264E-2,3.5177716E-3,2.1938894E-2,4.7177874E-2,3.4567082E-4,2.0630386E-2,-6.390868E-2,-1.7817311E-4,-1.6057423E-3,3.5351004E-2,6.963405E-5,2.6595334E-2,2.6825236E-2,4.888148E-2,-2.774801E-3,3.855417E-2,-1.33955935E-2,2.2550168E-2,1.712306E-2,-7.001937E-2,-4.387172E-2,6.0016117E-3,-5.68443E-3,3.5849135E-2,2.4034325E-2,4.2178508E-2,-1.9338056E-4,1.8465118E-3,1.1463012E-3,2.1941753E-3,-8.102104E-4,1.5557283E-3,1.9806314E-3,2.4773728E-3,-2.0410686E-3,-4.9104514E-5,-1.6324918E-4,2.6355775E-3,1.7317474E-3,-9.893002E-4,2.566965E-3,1.0114958E-3,7.6802855E-4,2.5588216E-3,-3.8211958E-3,-1.3037616E-3,-2.529088E-3,4.5169741E-4,-2.0395995E-5,2.2465598E-3,-1.2680175E-3,1.258915E-5,-6.169394E-4,2.1660344E-3,6.5207482E-6,1.5689671E-3,2.2300498E-3,5.580803E-4],"categories":[],"categories_nodes":[],"categories_segments":[],"categories_sizes":[],"default_left":[0,0,0,0,0,0,0,0,0,0,0,0,0,0,0,0,0,0,0,0,0,0,0,0,0,0,0,0,0,0,0,0,0,0,0,0,0,0,0,0,0,0,0,0,0,0,0,0,0,0,0,0,0,0,0,0,0,0,0,0,0,0,0],"id":23,"left_children":[1,3,5,7,9,11,13,15,17,19,21,23,25,27,29,31,33,35,37,39,41,43,45,47,49,51,53,55,57,59,61,-1,-1,-1,-1,-1,-1,-1,-1,-1,-1,-1,-1,-1,-1,-1,-1,-1,-1,-1,-1,-1,-1,-1,-1,-1,-1,-1,-1,-1,-1,-1,-1],"loss_changes":[5.9445386E0,3.1288624E-1,7.905798E-1,2.486186E-1,8.34569E-2,7.735486E-1,4.5887303E-2,6.496751E-2,3.4054995E-2,3.1583313E-2,5.8243066E-2,6.31042E-1,6.1017063E-2,3.73261E-2,1.9995905E-3,1.6542435E-2,3.236109E-2,1.5454143E-2,3.8397312E-3,1.6670499E-2,1.20130945E-2,1.5418162E-2,5.507177E-2,4.6155844E-3,3.3095312E-1,1.039692E-2,4.9423367E-2,2.570248E-2,9.1754515E-3,2.9806755E-3,1.2303591E-3,0E0,0E0,0E0,0E0,0E0,0E0,0E0,0E0,0E0,0E0,0E0,0E0,0E0,0E0,0E0,0E0,0E0,0E0,0E0,0E0,0E0,0E0,0E0,0E0,0E0,0E0,0E0,0E0,0E0,0E0,0E0,0E0],"parents":[2147483647,0,0,1,1,2,2,3,3,4,4,5,5,6,6,7,7,8,8,9,9,10,10,11,11,12,12,13,13,14,14,15,15,16,16,17,17,18,18,19,19,20,20,21,21,22,22,23,23,24,24,25,25,26,26,27,27,28,28,29,29,30,30],"right_children":[2,4,6,8,10,12,14,16,18,20,22,24,26,28,30,32,34,36,38,40,42,44,46,48,50,52,54,56,58,60,62,-1,-1,-1,-1,-1,-1,-1,-1,-1,-1,-1,-1,-1,-1,-1,-1,-1,-1,-1,-1,-1,-1,-1,-1,-1,-1,-1,-1,-1,-1,-1,-1],"split_conditions":[1E0,7.0710677E-1,1E0,7E0,1.0617443E-1,1E0,2.3977282E0,2.9134225E-2,1E0,1E0,1E0,1E0,1.0092128E-3,1E0,1.4628971E1,1E0,1.6137117E0,7.463954E-1,-7.0710677E-1,1E0,1E0,3.839815E0,3E0,1E0,1E0,6.291991E-3,1E0,2.1464644E-1,1E0,9.9360895E0,9E0,-1.9338056E-4,1.8465118E-3,1.1463012E-3,2.1941753E-3,-8.102104E-4,1.5557283E-3,1.9806314E-3,2.4773728E-3,-2.0410686E-3,-4.9104514E-5,-1.6324918E-4,2.6355775E-3,1.7317474E-3,-9.893002E-4,2.566965E-3,1.0114958E-3,7.6802855E-4,2.5588216E-3,-3.8211958E-3,-1.3037616E-3,-2.529088E-3,4.5169741E-4,-2.0395995E-5,2.2465598E-3,-1.2680175E-3,1.258915E-5,-6.169394E-4,2.1660344E-3,6.5207482E-6,1.5689671E-3,2.2300498E-3,5.580803E-4],"split_indices":[2,15,11,13,28,10,28,28,0,7,0,1,28,7,25,7,28,23,15,0,0,23,1,7,7,21,7,28,0,22,4,0,0,0,0,0,0,0,0,0,0,0,0,0,0,0,0,0,0,0,0,0,0,0,0,0,0,0,0,0,0,0,0],"split_type":[0,0,0,0,0,0,0,0,0,0,0,0,0,0,0,0,0,0,0,0,0,0,0,0,0,0,0,0,0,0,0,0,0,0,0,0,0,0,0,0,0,0,0,0,0,0,0,0,0,0,0,0,0,0,0,0,0,0,0,0,0,0,0],"sum_hessian":[4.58E3,2.805E3,1.775E3,1.656E3,1.149E3,1.495E3,2.8E2,6.37E2,1.019E3,2.63E2,8.86E2,1.271E3,2.24E2,2.42E2,3.8E1,1.12E2,5.25E2,8E1,9.39E2,2.44E2,1.9E1,4.7E1,8.39E2,8.9E1,1.182E3,2.7E1,1.97E2,2.19E2,2.3E1,1.6E1,2.2E1,1.02E2,1E1,4.35E2,9E1,7E0,7.3E1,6.7E1,8.72E2,1E1,2.34E2,5E0,1.4E1,5E0,4.2E1,6.1E1,7.78E2,8.6E1,3E0,1.031E3,1.51E2,2.4E1,3E0,1.7E2,2.7E1,5E1,1.69E2,3E0,2E1,4E0,1.2E1,2E1,2E0],"tree_param":{"num_deleted":"0","num_feature":"31","num_nodes":"63","size_leaf_vector":"1"}},{"base_weights":[2.3133129E-4,-6.9899105E-2,2.6246032E-2,-1.1035084E-1,-5.347377E-2,5.1363227E-3,4.4516176E-2,-1.4702663E-1,-9.901351E-2,-6.585967E-2,-3.4936186E-2,-4.4725114E-3,1.4044723E-2,3.4627113E-2,5.261409E-2,-1.8910424E-1,-1.3478382E-1,-1.08772896E-1,-9.06391E-2,-7.359987E-2,-5.5622887E-2,-4.0807378E-2,-2.9066602E-2,-1.2949052E-2,-1.1340914E-4,7.867316E-3,1.7072875E-2,2.8670179E-2,3.768636E-2,4.7925137E-2,5.44305E-2,-3.872161E-3,-9.976208E-3,-4.0440643E-3,-6.986221E-3,-2.1706016E-3,-5.4750238E-3,-4.972502E-3,-4.1543366E-3,-6.3482823E-4,-3.688136E-3,-2.6921183E-3,-4.3169274E-3,-2.913092E-3,-1.854319E-3,-4.031967E-4,-1.5886402E-3,-1.062169E-3,-5.043511E-4,-1.997575E-4,3.419638E-4,7.976547E-5,5.4275396E-4,7.246249E-4,1.0299026E-3,4.6238038E-4,1.4605707E-3,1.4526361E-3,1.9728623E-3,2.2474527E-3,2.5756788E-3,2.727463E-3,1.0079577E-3],"categories":[],"categories_nodes":[],"categories_segments":[],"categories_sizes":[],"default_left":[0,0,0,0,0,0,0,0,0,0,0,0,0,0,0,0,0,0,0,0,0,0,0,0,0,0,0,0,0,0,0,0,0,0,0,0,0,0,0,0,0,0,0,0,0,0,0,0,0,0,0,0,0,0,0,0,0,0,0,0,0,0,0],"id":24,"left_children":[1,3,5,7,9,11,13,15,17,19,21,23,25,27,29,31,33,35,37,39,41,43,45,47,49,51,53,55,57,59,61,-1,-1,-1,-1,-1,-1,-1,-1,-1,-1,-1,-1,-1,-1,-1,-1,-1,-1,-1,-1,-1,-1,-1,-1,-1,-1,-1,-1,-1,-1,-1,-1],"loss_changes":[8.333971E0,8.153386E-1,1.2848485E0,1.334691E-1,1.9998074E-1,1.32485E-1,1.4120245E-1,1.6754031E-2,1.26161575E-2,3.7662983E-2,1.1047691E-2,2.7526364E-2,1.4886692E-2,1.3626039E-2,5.73802E-3,3.1642318E-3,6.541848E-3,1.0482073E-3,1.9848347E-3,2.0092726E-3,7.984698E-3,9.205192E-3,1.0031387E-2,5.7915896E-3,1.3332666E-2,4.967328E-3,4.5952946E-3,2.6522279E-3,6.956935E-3,6.9606304E-4,1.745224E-3,0E0,0E0,0E0,0E0,0E0,0E0,0E0,0E0,0E0,0E0,0E0,0E0,0E0,0E0,0E0,0E0,0E0,0E0,0E0,0E0,0E0,0E0,0E0,0E0,0E0,0E0,0E0,0E0,0E0,0E0,0E0,0E0],"parents":[2147483647,0,0,1,1,2,2,3,3,4,4,5,5,6,6,7,7,8,8,9,9,10,10,11,11,12,12,13,13,14,14,15,15,16,16,17,17,18,18,19,19,20,20,21,21,22,22,23,23,24,24,25,25,26,26,27,27,28,28,29,29,30,30],"right_children":[2,4,6,8,10,12,14,16,18,20,22,24,26,28,30,32,34,36,38,40,42,44,46,48,50,52,54,56,58,60,62,-1,-1,-1,-1,-1,-1,-1,-1,-1,-1,-1,-1,-1,-1,-1,-1,-1,-1,-1,-1,-1,-1,-1,-1,-1,-1,-1,-1,-1,-1,-1,-1],"split_conditions":[6.779785E1,4.543405E1,8.595645E1,3.7186607E1,5.460229E1,7.9310356E1,9.587218E1,2.9728432E1,4.185563E1,5.0171913E1,6.0685947E1,7.3333496E1,8.149747E1,8.859494E1,9.8554756E1,3E0,7.748515E1,1.236763E0,9.274118E0,1.6133592E0,1E0,1E0,-7.0710677E-1,4E0,1E0,6.540674E0,8.40571E1,1.1207565E0,-2.5881904E-1,7.759514E1,1.9675262E1,-3.872161E-3,-9.976208E-3,-4.0440643E-3,-6.986221E-3,-2.1706016E-3,-5.4750238E-3,-4.972502E-3,-4.1543366E-3,-6.3482823E-4,-3.688136E-3,-2.6921183E-3,-4.3169274E-3,-2.913092E-3,-1.854319E-3,-4.031967E-4,-1.5886402E-3,-1.062169E-3,-5.043511E-4,-1.997575E-4,3.419638E-4,7.976547E-5,5.4275396E-4,7.246249E-4,1.0299026E-3,4.6238038E-4,1.4605707E-3,1.4526361E-3,1.9728623E-3,2.2474527E-3,2.5756788E-3,2.727463E-3,1.0079577E-3],"split_indices":[29,29,29,29,29,29,29,29,29,29,29,29,29,29,29,4,19,25,22,24,7,0,15,5,2,24,29,23,15,19,24,0,0,0,0,0,0,0,0,0,0,0,0,0,0,0,0,0,0,0,0,0,0,0,0,0,0,0,0,0,0,0,0],"split_type":[0,0,0,0,0,0,0,0,0,0,0,0,0,0,0,0,0,0,0,0,0,0,0,0,0,0,0,0,0,0,0,0,0,0,0,0,0,0,0,0,0,0,0,0,0,0,0,0,0,0,0,0,0,0,0,0,0,0,0,0,0,0,0],"sum_hessian":[4.566E3,1.235E3,3.331E3,3.55E2,8.8E2,1.546E3,1.785E3,8.1E1,2.74E2,5.26E2,3.54E2,7.44E2,8.02E2,8.06E2,9.79E2,1.5E1,6.6E1,1.21E2,1.53E2,2.96E2,2.3E2,1.74E2,1.8E2,2.52E2,4.92E2,2.65E2,5.37E2,2.77E2,5.29E2,2.81E2,6.98E2,2E0,1.3E1,7E0,5.9E1,2E0,1.19E2,6.5E1,8.8E1,1E0,2.95E2,2.2E2,1E1,2.8E1,1.46E2,2.1E1,1.59E2,6.3E1,1.89E2,3.16E2,1.76E2,8.6E1,1.79E2,3.13E2,2.24E2,8E0,2.69E2,9.3E1,4.36E2,1.61E2,1.2E2,6.95E2,3E0],"tree_param":{"num_deleted":"0","num_feature":"31","num_nodes":"63","size_leaf_vector":"1"}},{"base_weights":[4.7634006E-4,-6.3378185E-2,2.550655E-2,-9.477372E-2,-4.2379644E-2,5.0425106E-3,4.080308E-2,-1.2985685E-1,-8.551744E-2,-5.4182097E-2,-2.9147081E-2,-4.749295E-3,1.15875695E-2,2.9785503E-2,4.8115328E-2,-7.862671E-3,-1.16973296E-1,-4.942532E-3,-7.880717E-2,-5.9745617E-2,-4.677215E-2,-3.615649E-2,-2.3876587E-2,-8.773018E-3,4.0850916E-4,6.2561077E-3,1.6423512E-2,2.4068113E-2,3.190125E-2,4.0190373E-2,4.9908392E-2,-1.5254676E-3,-5.885968E-3,-3.1024024E-3,-4.0288577E-3,-8.222714E-4,-3.012271E-3,-2.2400992E-3,-4.1765226E-3,-1.4160856E-3,-2.1267426E-3,-9.975774E-4,-1.7010961E-3,-4.897164E-4,6.255202E-4,-2.0875044E-4,3.8784902E-4,1.6648034E-3,2.916906E-4,1.2562134E-3,7.5367984E-4,4.2673675E-4,1.2404763E-3,1.5241839E-3,1.8544259E-3,2.593234E-3,1.8561919E-3,2.445165E-3,2.9721379E-3],"categories":[],"categories_nodes":[],"categories_segments":[],"categories_sizes":[],"default_left":[0,0,0,0,0,0,0,0,0,0,0,0,0,0,0,0,0,0,0,0,0,0,0,0,0,0,0,0,0,0,0,0,0,0,0,0,0,0,0,0,0,0,0,0,0,0,0,0,0,0,0,0,0,0,0,0,0,0,0],"id":25,"left_children":[1,3,5,7,9,11,13,15,17,19,21,23,25,27,29,-1,31,-1,33,35,37,39,41,43,45,47,49,51,53,55,57,-1,-1,-1,-1,-1,-1,-1,-1,-1,-1,-1,-1,-1,-1,-1,-1,-1,-1,-1,-1,-1,-1,-1,-1,-1,-1,-1,-1],"loss_changes":[7.3329825E0,8.4774876E-1,1.0315373E0,1.5678453E-1,1.19613886E-1,9.04831E-2,1.5050888E-1,1.9019961E-2,2.9071331E-2,1.4066696E-2,1.2731731E-2,1.1750108E-2,2.1709375E-2,8.365095E-3,1.4079809E-2,0E0,1.3110638E-3,0E0,3.2764673E-3,3.986776E-3,9.293258E-3,6.5911263E-3,7.8030378E-3,7.0348904E-3,8.419167E-3,4.418973E-3,4.8244447E-3,2.1837056E-3,2.8990507E-3,5.735725E-3,5.8996677E-3,0E0,0E0,0E0,0E0,0E0,0E0,0E0,0E0,0E0,0E0,0E0,0E0,0E0,0E0,0E0,0E0,0E0,0E0,0E0,0E0,0E0,0E0,0E0,0E0,0E0,0E0,0E0,0E0],"parents":[2147483647,0,0,1,1,2,2,3,3,4,4,5,5,6,6,7,7,8,8,9,9,10,10,11,11,12,12,13,13,14,14,16,16,18,18,19,19,20,20,21,21,22,22,23,23,24,24,25,25,26,26,27,27,28,28,29,29,30,30],"right_children":[2,4,6,8,10,12,14,16,18,20,22,24,26,28,30,-1,32,-1,34,36,38,40,42,44,46,48,50,52,54,56,58,-1,-1,-1,-1,-1,-1,-1,-1,-1,-1,-1,-1,-1,-1,-1,-1,-1,-1,-1,-1,-1,-1,-1,-1,-1,-1,-1,-1],"split_conditions":[6.952831E1,4.8130554E1,8.522011E1,3.8598175E1,5.584646E1,7.788659E1,9.367029E1,1E0,4.2553566E1,5.2136776E1,6.1989452E1,1E0,8.160297E1,8.696811E1,9.664189E1,-7.862671E-3,3E0,-4.942532E-3,7.221642E0,1.7446578E0,1E0,7E0,1E0,2.690344E1,7.4873856E1,7.2000915E-1,4.5522313E0,1.1207565E0,9.1812546E1,7E0,1E0,-1.5254676E-3,-5.885968E-3,-3.1024024E-3,-4.0288577E-3,-8.222714E-4,-3.012271E-3,-2.2400992E-3,-4.1765226E-3,-1.4160856E-3,-2.1267426E-3,-9.975774E-4,-1.7010961E-3,-4.897164E-4,6.255202E-4,-2.0875044E-4,3.8784902E-4,1.6648034E-3,2.916906E-4,1.2562134E-3,7.5367984E-4,4.2673675E-4,1.2404763E-3,1.5241839E-3,1.8544259E-3,2.593234E-3,1.8561919E-3,2.445165E-3,2.9721379E-3],"split_indices":[29,29,29,29,29,29,29,0,29,29,29,2,29,29,29,0,5,0,25,25,7,13,8,25,29,22,22,23,29,13,12,0,0,0,0,0,0,0,0,0,0,0,0,0,0,0,0,0,0,0,0,0,0,0,0,0,0,0,0],"split_type":[0,0,0,0,0,0,0,0,0,0,0,0,0,0,0,0,0,0,0,0,0,0,0,0,0,0,0,0,0,0,0,0,0,0,0,0,0,0,0,0,0,0,0,0,0,0,0,0,0,0,0,0,0,0,0,0,0,0,0],"sum_hessian":[4.586E3,1.291E3,3.295E3,5.16E2,7.75E2,1.41E3,1.885E3,1.05E2,4.11E2,4.08E2,3.67E2,5.65E2,8.45E2,7.54E2,1.131E3,3E1,7.5E1,1.33E2,2.78E2,2.29E2,1.79E2,1.55E2,2.12E2,3.17E2,2.48E2,4.03E2,4.42E2,2.07E2,5.47E2,2.13E2,9.18E2,1E0,7.4E1,3E1,2.48E2,3E0,2.26E2,1.72E2,7E0,7.2E1,8.3E1,1.55E2,5.7E1,3.03E2,1.4E1,1.53E2,9.5E1,5E0,3.98E2,5.7E1,3.85E2,1E1,1.97E2,4.35E2,1.12E2,4.1E1,1.72E2,8.36E2,8.2E1],"tree_param":{"num_deleted":"0","num_feature":"31","num_nodes":"59","size_leaf_vector":"1"}},{"base_weights":[-4.0468478E-4,-6.53652E-2,2.237205E-2,-9.287944E-2,-4.6380557E-2,3.855027E-3,3.9190196E-2,-1.37019E-1,-8.414915E-2,-5.6374412E-2,-3.2879192E-2,-8.050373E-3,1.1845706E-2,2.8608575E-2,4.5698874E-2,-1.7983736E-1,-1.2396958E-1,-9.395357E-2,-7.694627E-2,-6.3789226E-2,-5.0609376E-2,-4.479649E-2,-2.836254E-2,-1.6534781E-2,-3.5384155E-3,7.31638E-3,1.6104048E-2,2.5240928E-2,3.196119E-2,4.067844E-2,4.8832115E-2,-9.263742E-3,-2.4568886E-3,-3.0441196E-3,-6.360739E-3,-1.8544266E-3,-4.7209035E-3,-2.6097908E-3,-3.8899574E-3,-5.1823707E-4,-3.202052E-3,-3.9759804E-3,-2.4188876E-3,-1.60956E-3,-2.6843834E-3,-1.7841107E-3,-1.1807056E-3,-2.407765E-4,-9.85179E-4,1.17903364E-4,-3.83416E-4,6.379014E-4,2.0409639E-4,7.7387143E-4,1.8263682E-3,4.893359E-4,1.3034645E-3,1.3626522E-3,1.8827787E-3,1.9542542E-3,2.4316325E-3,8.9923386E-4,2.449543E-3],"categories":[],"categories_nodes":[],"categories_segments":[],"categories_sizes":[],"default_left":[0,0,0,0,0,0,0,0,0,0,0,0,0,0,0,0,0,0,0,0,0,0,0,0,0,0,0,0,0,0,0,0,0,0,0,0,0,0,0,0,0,0,0,0,0,0,0,0,0,0,0,0,0,0,0,0,0,0,0,0,0,0,0],"id":26,"left_children":[1,3,5,7,9,11,13,15,17,19,21,23,25,27,29,31,33,35,37,39,41,43,45,47,49,51,53,55,57,59,61,-1,-1,-1,-1,-1,-1,-1,-1,-1,-1,-1,-1,-1,-1,-1,-1,-1,-1,-1,-1,-1,-1,-1,-1,-1,-1,-1,-1,-1,-1,-1,-1],"loss_changes":[6.7424674E0,6.136298E-1,1.0505867E0,1.7420912E-1,9.286773E-2,1.5297285E-1,1.2045908E-1,2.1288395E-2,2.1371603E-2,1.39558315E-2,1.4931202E-2,2.4671212E-2,1.8436685E-2,6.8255663E-3,1.5206814E-2,2.2668242E-3,5.152881E-3,9.0920925E-4,9.843111E-4,1.6501546E-3,1.1056423E-2,7.3498636E-3,6.8386644E-3,8.223571E-3,1.0318939E-2,8.185074E-3,5.7694763E-3,4.123032E-3,7.955104E-3,3.4982562E-3,2.3897886E-3,0E0,0E0,0E0,0E0,0E0,0E0,0E0,0E0,0E0,0E0,0E0,0E0,0E0,0E0,0E0,0E0,0E0,0E0,0E0,0E0,0E0,0E0,0E0,0E0,0E0,0E0,0E0,0E0,0E0,0E0,0E0,0E0],"parents":[2147483647,0,0,1,1,2,2,3,3,4,4,5,5,6,6,7,7,8,8,9,9,10,10,11,11,12,12,13,13,14,14,15,15,16,16,17,17,18,18,19,19,20,20,21,21,22,22,23,23,24,24,25,25,26,26,27,27,28,28,29,29,30,30],"right_children":[2,4,6,8,10,12,14,16,18,20,22,24,26,28,30,32,34,36,38,40,42,44,46,48,50,52,54,56,58,60,62,-1,-1,-1,-1,-1,-1,-1,-1,-1,-1,-1,-1,-1,-1,-1,-1,-1,-1,-1,-1,-1,-1,-1,-1,-1,-1,-1,-1,-1,-1,-1,-1],"split_conditions":[6.603443E1,4.7532566E1,8.579526E1,3.7186607E1,5.460229E1,7.736169E1,9.39739E1,2.9728432E1,4.2553566E1,5.0171913E1,5.0381345E-1,7.145246E1,8.169944E1,8.914222E1,9.871536E1,7.7705574E1,7.746109E1,2.874131E0,4.7572015E-4,1.6133592E0,1.0092128E-3,2E0,5.7951263E1,4.220201E0,1E0,1E0,1E0,1.3347824E0,1E0,1E0,1.286381E1,-9.263742E-3,-2.4568886E-3,-3.0441196E-3,-6.360739E-3,-1.8544266E-3,-4.7209035E-3,-2.6097908E-3,-3.8899574E-3,-5.1823707E-4,-3.202052E-3,-3.9759804E-3,-2.4188876E-3,-1.60956E-3,-2.6843834E-3,-1.7841107E-3,-1.1807056E-3,-2.407765E-4,-9.85179E-4,1.17903364E-4,-3.83416E-4,6.379014E-4,2.0409639E-4,7.7387143E-4,1.8263682E-3,4.893359E-4,1.3034645E-3,1.3626522E-3,1.8827787E-3,1.9542542E-3,2.4316325E-3,8.9923386E-4,2.449543E-3],"split_indices":[29,29,29,29,29,29,29,29,29,29,28,29,29,29,29,19,19,30,28,24,28,20,29,23,8,12,10,23,12,12,18,0,0,0,0,0,0,0,0,0,0,0,0,0,0,0,0,0,0,0,0,0,0,0,0,0,0,0,0,0,0,0,0],"split_type":[0,0,0,0,0,0,0,0,0,0,0,0,0,0,0,0,0,0,0,0,0,0,0,0,0,0,0,0,0,0,0,0,0,0,0,0,0,0,0,0,0,0,0,0,0,0,0,0,0,0,0,0,0,0,0,0,0,0,0,0,0,0,0],"sum_hessian":[4.555E3,1.182E3,3.373E3,4.81E2,7.01E2,1.606E3,1.767E3,7.7E1,4.04E2,4.01E2,3E2,6.45E2,9.61E2,6.75E2,1.092E3,1.5E1,6.2E1,1.66E2,2.38E2,1.71E2,2.3E2,8E1,2.2E2,2.23E2,4.22E2,4.67E2,4.94E2,3.41E2,3.34E2,4.25E2,6.67E2,1.4E1,1E0,4E0,5.8E1,2E0,1.64E2,1E1,2.28E2,1E0,1.7E2,1.4E1,2.16E2,3.5E1,4.5E1,8.4E1,1.36E2,4.8E1,1.75E2,1.74E2,2.48E2,1.73E2,2.94E2,4.81E2,1.3E1,1.8E1,3.23E2,1.86E2,1.48E2,3.59E2,6.6E1,4E0,6.63E2],"tree_param":{"num_deleted":"0","num_feature":"31","num_nodes":"63","size_leaf_vector":"1"}},{"base_weights":[4.4776112E-5,-5.682563E-2,2.281695E-2,-8.461315E-2,-3.8414832E-2,6.26565E-3,3.8795155E-2,-1.0384775E-1,-7.106911E-2,-4.813746E-2,-2.3133503E-2,-4.9831127E-3,1.234129E-2,3.1059274E-2,4.55006E-2,-1.3922131E-1,-9.7838804E-2,-7.653577E-2,-6.6020474E-2,-5.5095233E-2,-4.1402817E-2,-2.5403801E-2,-6.035196E-3,-1.1198099E-2,-3.586761E-4,9.656713E-3,1.9838817E-2,2.6952194E-2,3.623107E-2,4.818795E-2,4.3158438E-2,-7.084561E-3,-1.7516017E-3,-5.0562867E-3,-4.110146E-3,-4.20472E-3,-3.4626077E-3,-2.801568E-3,-3.6480203E-3,-4.1383253E-3,-2.6883564E-3,-3.174483E-3,-1.961256E-3,-1.4434386E-3,-7.496355E-4,2.9064927E-4,-6.214385E-4,-6.6764845E-4,6.160214E-4,-2.4495882E-4,3.6927222E-4,2.7177593E-4,6.0490525E-4,1.2204989E-3,8.9507364E-4,1.3776169E-3,7.121246E-4,1.9598403E-3,1.5058338E-3,2.6828551E-3,2.2453114E-3,1.9275846E-3,2.2545492E-3],"categories":[],"categories_nodes":[],"categories_segments":[],"categories_sizes":[],"default_left":[0,0,0,0,0,0,0,0,0,0,0,0,0,0,0,0,0,0,0,0,0,0,0,0,0,0,0,0,0,0,0,0,0,0,0,0,0,0,0,0,0,0,0,0,0,0,0,0,0,0,0,0,0,0,0,0,0,0,0,0,0,0,0],"id":27,"left_children":[1,3,5,7,9,11,13,15,17,19,21,23,25,27,29,31,33,35,37,39,41,43,45,47,49,51,53,55,57,59,61,-1,-1,-1,-1,-1,-1,-1,-1,-1,-1,-1,-1,-1,-1,-1,-1,-1,-1,-1,-1,-1,-1,-1,-1,-1,-1,-1,-1,-1,-1,-1,-1],"loss_changes":[6.0103874E0,6.756301E-1,8.7617755E-1,1.3017154E-1,1.17746115E-1,1.1139294E-1,8.6043596E-2,3.2290936E-2,3.5856962E-3,2.0585656E-2,1.1996791E-2,1.6435724E-2,2.1103516E-2,1.5718937E-2,3.591299E-3,2.499044E-3,1.34933E-3,2.104044E-3,7.696986E-3,4.2597055E-3,9.630442E-3,9.523615E-3,2.9508327E-3,1.2530286E-2,1.1604539E-2,7.98291E-3,2.024971E-3,2.9790103E-3,5.0756633E-3,4.967153E-3,2.632916E-3,0E0,0E0,0E0,0E0,0E0,0E0,0E0,0E0,0E0,0E0,0E0,0E0,0E0,0E0,0E0,0E0,0E0,0E0,0E0,0E0,0E0,0E0,0E0,0E0,0E0,0E0,0E0,0E0,0E0,0E0,0E0,0E0],"parents":[2147483647,0,0,1,1,2,2,3,3,4,4,5,5,6,6,7,7,8,8,9,9,10,10,11,11,12,12,13,13,14,14,15,15,16,16,17,17,18,18,19,19,20,20,21,21,22,22,23,23,24,24,25,25,26,26,27,27,28,28,29,29,30,30],"right_children":[2,4,6,8,10,12,14,16,18,20,22,24,26,28,30,32,34,36,38,40,42,44,46,48,50,52,54,56,58,60,62,-1,-1,-1,-1,-1,-1,-1,-1,-1,-1,-1,-1,-1,-1,-1,-1,-1,-1,-1,-1,-1,-1,-1,-1,-1,-1,-1,-1,-1,-1,-1,-1],"split_conditions":[6.952831E1,4.8130554E1,8.696811E1,4.2198734E1,5.7951263E1,7.788659E1,9.664189E1,3E0,4.543405E1,5.2136776E1,1.5763705E1,7.406806E1,8.471112E1,9.1812546E1,1E0,3.1584518E1,1.6295523E1,1.6892984E1,1.7588253E1,1.0092128E-3,1E0,1E0,1.77899E1,7.3496264E-4,1E0,8.066897E1,1E0,1.3080355E1,1E0,1E0,9.929003E1,-7.084561E-3,-1.7516017E-3,-5.0562867E-3,-4.110146E-3,-4.20472E-3,-3.4626077E-3,-2.801568E-3,-3.6480203E-3,-4.1383253E-3,-2.6883564E-3,-3.174483E-3,-1.961256E-3,-1.4434386E-3,-7.496355E-4,2.9064927E-4,-6.214385E-4,-6.6764845E-4,6.160214E-4,-2.4495882E-4,3.6927222E-4,2.7177593E-4,6.0490525E-4,1.2204989E-3,8.9507364E-4,1.3776169E-3,7.121246E-4,1.9598403E-3,1.5058338E-3,2.6828551E-3,2.2453114E-3,1.9275846E-3,2.2545492E-3],"split_indices":[29,29,29,29,29,29,29,1,29,29,24,29,29,29,11,25,24,26,26,28,0,9,24,21,2,29,12,18,11,10,29,0,0,0,0,0,0,0,0,0,0,0,0,0,0,0,0,0,0,0,0,0,0,0,0,0,0,0,0,0,0,0,0],"split_type":[0,0,0,0,0,0,0,0,0,0,0,0,0,0,0,0,0,0,0,0,0,0,0,0,0,0,0,0,0,0,0,0,0,0,0,0,0,0,0,0,0,0,0,0,0,0,0,0,0,0,0,0,0,0,0,0,0,0,0,0,0,0,0],"sum_hessian":[4.639E3,1.326E3,3.313E3,5.27E2,7.99E2,1.628E3,1.685E3,2.15E2,3.12E2,4.87E2,3.12E2,5.71E2,1.057E3,7.85E2,9E2,2.8E1,1.87E2,1.43E2,1.69E2,2.36E2,2.51E2,2.75E2,3.7E1,2.43E2,3.28E2,7.8E2,2.77E2,4.41E2,3.44E2,4.1E2,4.9E2,2.7E1,1E0,1.5E2,3.7E1,6.5E1,7.8E1,7.3E1,9.6E1,8E0,2.28E2,2E1,2.31E2,2.05E2,7E1,1.3E1,2.4E1,2.23E2,2E1,2.07E2,1.21E2,2.87E2,4.93E2,7.9E1,1.98E2,4.2E2,2.1E1,2.28E2,1.16E2,1.48E2,2.62E2,1.51E2,3.39E2],"tree_param":{"num_deleted":"0","num_feature":"31","num_nodes":"63","size_leaf_vector":"1"}},{"base_weights":[2.6902446E-4,-5.7038784E-2,2.1603134E-2,-9.0411074E-2,-4.262176E-2,5.6171436E-3,3.6153384E-2,-1.2003007E-1,-8.1046894E-2,-5.3256392E-2,-2.7131306E-2,-4.5168926E-3,1.1958096E-2,2.8872576E-2,4.2843048E-2,-1.5493599E-1,-1.0884089E-1,-9.083246E-2,-7.599024E-2,-5.847934E-2,-4.428594E-2,-3.7190966E-2,-2.181601E-2,-1.2989478E-2,-1.09055E-3,7.156889E-3,1.5387009E-2,2.3572566E-2,3.193233E-2,4.543684E-2,4.0541757E-2,-2.732557E-3,-8.175972E-3,-2.7626117E-3,-5.562577E-3,-2.661888E-3,-4.6636728E-3,-3.8102765E-3,-8.502185E-4,-3.0512833E-3,-2.2178032E-3,-3.7573464E-3,-2.0734079E-3,-2.5527123E-3,-1.4771726E-3,-1.3753459E-3,-5.497066E-4,-2.2286922E-4,-8.608875E-4,2.2805718E-4,-2.5932607E-4,8.5889077E-4,2.6974853E-4,1.1918633E-3,7.128313E-4,4.380703E-4,1.2093614E-3,1.8826856E-3,1.4482638E-3,2.537718E-3,2.103476E-3,1.7674956E-3,2.0823753E-3],"categories":[],"categories_nodes":[],"categories_segments":[],"categories_sizes":[],"default_left":[0,0,0,0,0,0,0,0,0,0,0,0,0,0,0,0,0,0,0,0,0,0,0,0,0,0,0,0,0,0,0,0,0,0,0,0,0,0,0,0,0,0,0,0,0,0,0,0,0,0,0,0,0,0,0,0,0,0,0,0,0,0,0],"id":28,"left_children":[1,3,5,7,9,11,13,15,17,19,21,23,25,27,29,31,33,35,37,39,41,43,45,47,49,51,53,55,57,59,61,-1,-1,-1,-1,-1,-1,-1,-1,-1,-1,-1,-1,-1,-1,-1,-1,-1,-1,-1,-1,-1,-1,-1,-1,-1,-1,-1,-1,-1,-1,-1,-1],"loss_changes":[5.615462E0,5.956335E-1,7.783096E-1,9.42812E-2,1.4220417E-1,1.0261209E-1,8.409619E-2,1.75066E-2,7.3485374E-3,2.1585822E-2,1.8277466E-2,1.7839273E-2,1.6056463E-2,1.2901783E-2,3.595829E-3,7.4184835E-3,2.8959513E-3,3.5687685E-3,1.1931658E-3,8.908987E-3,1.375398E-2,1.1426061E-2,1.423195E-2,6.30871E-3,1.0186144E-2,7.163966E-3,5.1239133E-3,2.6284903E-3,7.923424E-3,5.38522E-3,1.3522506E-3,0E0,0E0,0E0,0E0,0E0,0E0,0E0,0E0,0E0,0E0,0E0,0E0,0E0,0E0,0E0,0E0,0E0,0E0,0E0,0E0,0E0,0E0,0E0,0E0,0E0,0E0,0E0,0E0,0E0,0E0,0E0,0E0],"parents":[2147483647,0,0,1,1,2,2,3,3,4,4,5,5,6,6,7,7,8,8,9,9,10,10,11,11,12,12,13,13,14,14,15,15,16,16,17,17,18,18,19,19,20,20,21,21,22,22,23,23,24,24,25,25,26,26,27,27,28,28,29,29,30,30],"right_children":[2,4,6,8,10,12,14,16,18,20,22,24,26,28,30,32,34,36,38,40,42,44,46,48,50,52,54,56,58,60,62,-1,-1,-1,-1,-1,-1,-1,-1,-1,-1,-1,-1,-1,-1,-1,-1,-1,-1,-1,-1,-1,-1,-1,-1,-1,-1,-1,-1,-1,-1,-1,-1],"split_conditions":[6.779785E1,4.543405E1,8.615493E1,3.7186607E1,5.460229E1,7.788659E1,9.664189E1,2.9728432E1,4.091507E1,5.1076664E1,5.0381345E-1,7.1678825E1,8.160297E1,8.936486E1,1E0,1.1131364E1,7.746109E1,7.7496605E1,1.6053345E-2,5E0,4E0,6.0685947E1,6.1989452E1,5.908272E0,1E0,2.5881904E-1,1E0,1.1207565E0,7E0,1E0,6.8282285E0,-2.732557E-3,-8.175972E-3,-2.7626117E-3,-5.562577E-3,-2.661888E-3,-4.6636728E-3,-3.8102765E-3,-8.502185E-4,-3.0512833E-3,-2.2178032E-3,-3.7573464E-3,-2.0734079E-3,-2.5527123E-3,-1.4771726E-3,-1.3753459E-3,-5.497066E-4,-2.2286922E-4,-8.608875E-4,2.2805718E-4,-2.5932607E-4,8.5889077E-4,2.6974853E-4,1.1918633E-3,7.128313E-4,4.380703E-4,1.2093614E-3,1.8826856E-3,1.4482638E-3,2.537718E-3,2.103476E-3,1.7674956E-3,2.0823753E-3],"split_indices":[29,29,29,29,29,29,29,29,29,29,28,29,29,29,11,26,19,19,21,16,1,29,29,27,8,15,8,23,13,10,22,0,0,0,0,0,0,0,0,0,0,0,0,0,0,0,0,0,0,0,0,0,0,0,0,0,0,0,0,0,0,0,0],"split_type":[0,0,0,0,0,0,0,0,0,0,0,0,0,0,0,0,0,0,0,0,0,0,0,0,0,0,0,0,0,0,0,0,0,0,0,0,0,0,0,0,0,0,0,0,0,0,0,0,0,0,0,0,0,0,0,0,0,0,0,0,0,0,0],"sum_hessian":[4.591E3,1.245E3,3.346E3,3.74E2,8.71E2,