{"learner":{"attributes":{"best_iteration":"130","best_score":"0.24033534815392546","scikit_learn":"{\"_estimator_type\": \"classifier\"}"},"feature_names":["event_type_enc","event_cause_enc","priority_enc","corridor_enc","zone_enc","veh_type_enc","corridor_zone_enc","requires_road_closure","is_corridor","is_weekend","is_morning_peak","is_evening_peak","is_night","hour","hour_sin","hour_cos","day_of_week","month","latitude","longitude","geo_cluster","route_length_km","dist_silk_board_km","dist_mg_road_km","dist_hebbal_km","dist_whitefield_km","dist_electronic_city_km","dist_city_center_km","duration_log"],"feature_types":["int","int","int","int","int","int","int","int","int","int","int","int","int","int","float","float","int","int","float","float","int","float","float","float","float","float","float","float","float"],"gradient_booster":{"model":{"gbtree_model_param":{"num_parallel_tree":"1","num_trees":"604"},"iteration_indptr":[0,4,8,12,16,20,24,28,32,36,40,44,48,52,56,60,64,68,72,76,80,84,88,92,96,100,104,108,112,116,120,124,128,132,136,140,144,148,152,156,160,164,168,172,176,180,184,188,192,196,200,204,208,212,216,220,224,228,232,236,240,244,248,252,256,260,264,268,272,276,280,284,288,292,296,300,304,308,312,316,320,324,328,332,336,340,344,348,352,356,360,364,368,372,376,380,384,388,392,396,400,404,408,412,416,420,424,428,432,436,440,444,448,452,456,460,464,468,472,476,480,484,488,492,496,500,504,508,512,516,520,524,528,532,536,540,544,548,552,556,560,564,568,572,576,580,584,588,592,596,600,604],"tree_info":[0,1,2,3,0,1,2,3,0,1,2,3,0,1,2,3,0,1,2,3,0,1,2,3,0,1,2,3,0,1,2,3,0,1,2,3,0,1,2,3,0,1,2,3,0,1,2,3,0,1,2,3,0,1,2,3,0,1,2,3,0,1,2,3,0,1,2,3,0,1,2,3,0,1,2,3,0,1,2,3,0,1,2,3,0,1,2,3,0,1,2,3,0,1,2,3,0,1,2,3,0,1,2,3,0,1,2,3,0,1,2,3,0,1,2,3,0,1,2,3,0,1,2,3,0,1,2,3,0,1,2,3,0,1,2,3,0,1,2,3,0,1,2,3,0,1,2,3,0,1,2,3,0,1,2,3,0,1,2,3,0,1,2,3,0,1,2,3,0,1,2,3,0,1,2,3,0,1,2,3,0,1,2,3,0,1,2,3,0,1,2,3,0,1,2,3,0,1,2,3,0,1,2,3,0,1,2,3,0,1,2,3,0,1,2,3,0,1,2,3,0,1,2,3,0,1,2,3,0,1,2,3,0,1,2,3,0,1,2,3,0,1,2,3,0,1,2,3,0,1,2,3,0,1,2,3,0,1,2,3,0,1,2,3,0,1,2,3,0,1,2,3,0,1,2,3,0,1,2,3,0,1,2,3,0,1,2,3,0,1,2,3,0,1,2,3,0,1,2,3,0,1,2,3,0,1,2,3,0,1,2,3,0,1,2,3,0,1,2,3,0,1,2,3,0,1,2,3,0,1,2,3,0,1,2,3,0,1,2,3,0,1,2,3,0,1,2,3,0,1,2,3,0,1,2,3,0,1,2,3,0,1,2,3,0,1,2,3,0,1,2,3,0,1,2,3,0,1,2,3,0,1,2,3,0,1,2,3,0,1,2,3,0,1,2,3,0,1,2,3,0,1,2,3,0,1,2,3,0,1,2,3,0,1,2,3,0,1,2,3,0,1,2,3,0,1,2,3,0,1,2,3,0,1,2,3,0,1,2,3,0,1,2,3,0,1,2,3,0,1,2,3,0,1,2,3,0,1,2,3,0,1,2,3,0,1,2,3,0,1,2,3,0,1,2,3,0,1,2,3,0,1,2,3,0,1,2,3,0,1,2,3,0,1,2,3,0,1,2,3,0,1,2,3,0,1,2,3,0,1,2,3,0,1,2,3,0,1,2,3,0,1,2,3,0,1,2,3,0,1,2,3,0,1,2,3,0,1,2,3,0,1,2,3,0,1,2,3,0,1,2,3,0,1,2,3,0,1,2,3,0,1,2,3,0,1,2,3,0,1,2,3,0,1,2,3,0,1,2,3,0,1,2,3,0,1,2,3,0,1,2,3,0,1,2,3,0,1,2,3,0,1,2,3],"trees":[{"base_weights":[1.0519847E0,-1.3930182E-1,1.7908931E0,1.8090186E0,-2.6984692E-1,1.3160622E0,1.3814597E-1,8.235294E-3,1.2934783E-1,-4.8352116E-1,8.212351E-1,1.685734E0,8.816521E-1,-6.314741E-1,3.7697843E-1,2.1487603E-1,1.0246735E0,1.8277886E0,1.3226545E0,-5.074627E-1,1.0397176E0,-4.6562586E-2,-3.4324944E-1,1.3422818E-1,1.1906542E-1,1.0736842E0,-3.2258064E-1,8.2568806E-1,1.6842105E0,1.918552E0,1.1780822E0,1.3933649E0,-3.0434782E-2,-4.3529414E-2,1.826087E-2,1.3232876E-1,9.0653265E-1,-3.5724137E-2,-9.032258E-4,-6.885246E-3,7.7241376E-2,-0E0,1.2101695E-1,-3.1678833E-2,3.2307692E-2,3.4054056E-2,8.33463E-2,4.2608693E-2,1.23649634E-1,5.804878E-2,1.3670975E-1,9.297711E-2,-6.0869567E-3,1.3103999E-1,8.12459E-2,5.3895216E-2,1.2656E-1],"categories":[],"categories_nodes":[],"categories_segments":[],"categories_sizes":[],"default_left":[0,0,0,0,0,0,0,0,0,0,0,0,0,0,0,0,0,0,0,0,0,0,0,0,0,0,0,0,0,0,0,0,0,0,0,0,0,0,0,0,0,0,0,0,0,0,0,0,0,0,0,0,0,0,0,0,0],"id":0,"left_children":[1,3,5,7,9,11,-1,-1,-1,13,15,17,19,21,23,25,27,29,31,33,35,-1,37,39,-1,41,43,45,47,49,51,53,-1,-1,-1,-1,55,-1,-1,-1,-1,-1,-1,-1,-1,-1,-1,-1,-1,-1,-1,-1,-1,-1,-1,-1,-1],"loss_changes":[1.7189407E3,1.908326E2,1.0190381E2,2.8758087E0,1.6411693E2,5.2752747E1,0E0,0E0,0E0,7.508244E1,1.40121E1,6.937256E0,3.5082603E1,4.648514E0,2.7692501E1,1.4308908E1,9.912262E0,5.273163E0,7.39402E0,1.6343203E0,1.4332321E1,0E0,3.008679E0,1.6903055E1,0E0,8.3529E0,2.1834779E0,7.854603E0,6.047859E-1,2.5263672E0,3.582285E0,3.7026978E0,0E0,0E0,0E0,0E0,1.3923668E1,0E0,0E0,0E0,0E0,0E0,0E0,0E0,0E0,0E0,0E0,0E0,0E0,0E0,0E0,0E0,0E0,0E0,0E0,0E0,0E0],"parents":[2147483647,0,0,1,1,2,2,3,3,4,4,5,5,9,9,10,10,11,11,12,12,13,13,14,14,15,15,16,16,17,17,18,18,19,19,20,20,22,22,23,23,25,25,26,26,27,27,28,28,29,29,30,30,31,31,36,36],"right_children":[2,4,6,8,10,12,-1,-1,-1,14,16,18,20,22,24,26,28,30,32,34,36,-1,38,40,-1,42,44,46,48,50,52,54,-1,-1,-1,-1,56,-1,-1,-1,-1,-1,-1,-1,-1,-1,-1,-1,-1,-1,-1,-1,-1,-1,-1,-1,-1],"split_conditions":[1E0,1E0,9E0,1.2849749E1,1E0,7.0710677E-1,1.3814597E-1,8.235294E-3,1.2934783E-1,1E0,9E0,1E0,5.517055E0,9.745118E-4,1E0,3E0,1E0,1E0,7.769226E1,1E0,2E0,-4.6562586E-2,4E0,1.1E1,1.1906542E-1,1E0,6E0,4E0,7.749543E1,1.1015337E0,1.5413213E1,2E0,-3.0434782E-2,-4.3529414E-2,1.826087E-2,1.3232876E-1,1E0,-3.5724137E-2,-9.032258E-4,-6.885246E-3,7.7241376E-2,-0E0,1.2101695E-1,-3.1678833E-2,3.2307692E-2,3.4054056E-2,8.33463E-2,4.2608693E-2,1.23649634E-1,5.804878E-2,1.3670975E-1,9.297711E-2,-6.0869567E-3,1.3103999E-1,8.12459E-2,5.3895216E-2,1.2656E-1],"split_indices":[8,1,1,18,11,15,0,0,0,10,1,12,25,21,7,1,9,14,19,0,1,0,16,1,0,0,16,5,19,27,22,1,0,0,0,0,7,0,0,0,0,0,0,0,0,0,0,0,0,0,0,0,0,0,0,0,0],"split_type":[0,0,0,0,0,0,0,0,0,0,0,0,0,0,0,0,0,0,0,0,0,0,0,0,0,0,0,0,0,0,0,0,0,0,0,0,0,0,0,0,0,0,0,0,0,0,0,0,0,0,0,0,0,0,0,0,0],"sum_hessian":[1.9515E3,7.47375E2,1.204125E3,4.6125E1,7.0125E2,3.3675E2,8.67375E2,1.125E0,4.5E1,5.86875E2,1.14375E2,1.80375E2,1.56375E2,5.01E2,8.5875E1,2.925E1,8.5125E1,1.2675E2,5.3625E1,1.575E1,1.40625E2,4.47375E2,5.3625E1,7.35E1,1.2375E1,1.0875E1,1.8375E1,6.7125E1,1.8E1,1.095E2,1.725E1,5.175E1,1.875E0,1.3875E1,1.875E0,1.725E1,1.23375E2,3.525E1,1.8375E1,6E1,1.35E1,4.5E0,6.375E0,1.6125E1,2.25E0,3.6E1,3.1125E1,1.875E0,1.6125E1,4.125E0,1.05375E2,1.5375E1,1.875E0,1.4625E1,3.7125E1,1.0875E2,1.4625E1],"tree_param":{"num_deleted":"0","num_feature":"29","num_nodes":"57","size_leaf_vector":"1"}},{"base_weights":[-8.833291E-2,-4.6344742E-1,5.159034E-1,-1.0897203E-2,-6.4279526E-1,6.2052507E-2,6.9033897E-1,1.3286094E-1,-4.5924455E-2,-4.532988E-2,-5.444744E-1,-5.19337E-1,2.2087745E-1,5.638464E-1,1.0402802E0,2.0066889E-2,1.4913294E0,8.235294E-3,-5.635359E-1,4.6153846E-1,-5.813953E-1,1.0873146E-1,1.3793104E0,7.785598E-1,2.6979473E-1,1.2616633E0,-3.4146342E-1,2.6477188E-1,-4.0837696E-1,1.7419355E0,-3.2307692E-2,-5.835694E-1,8.235294E-3,8.235294E-3,4.117647E-2,-2.0689656E-1,-4.2043343E-2,-7.34856E-2,9.5813954E-1,-6.0869567E-3,1.6039604E0,4.2533937E-1,1.0937178E0,1.4205906E-1,1.5966387E0,1.4601227E0,3.0167598E-1,-4.2168677E-2,-6.741573E-2,3.60442E-2,-1.781818E-2,-3.254054E-2,7E-2,1.28E-1,4.2608693E-2,8.235294E-3,-4.2325582E-2,8.235294E-3,-2.8E-2,-3.00684E-2,5.915493E-2,1.0993289E-1,-2.6486488E-2,1.278261E-1,-2.4705883E-2,3.8748264E-2,-8.901734E-3,2.910891E-2,8.132119E-2,7.1499175E-3,8.042553E-2,1.19636364E-1,8.235294E-3,3.932584E-2,1.0871934E-1,3.6438353E-2,-3.7560977E-2,4.117647E-2,-1.4E-2],"categories":[],"categories_nodes":[],"categories_segments":[],"categories_sizes":[],"default_left":[0,0,0,0,0,0,0,0,0,0,0,0,0,0,0,0,0,0,0,0,0,0,0,0,0,0,0,0,0,0,0,0,0,0,0,0,0,0,0,0,0,0,0,0,0,0,0,0,0,0,0,0,0,0,0,0,0,0,0,0,0,0,0,0,0,0,0,0,0,0,0,0,0,0,0,0,0,0,0],"id":1,"left_children":[1,3,5,7,9,11,13,15,-1,-1,17,19,21,23,25,27,29,-1,31,33,35,37,39,41,43,45,47,49,51,53,-1,55,-1,-1,-1,57,-1,59,61,-1,63,65,67,69,71,73,75,-1,77,-1,-1,-1,-1,-1,-1,-1,-1,-1,-1,-1,-1,-1,-1,-1,-1,-1,-1,-1,-1,-1,-1,-1,-1,-1,-1,-1,-1,-1,-1],"loss_changes":[4.4414844E2,9.8110016E1,5.9382416E1,3.2004047E1,5.380249E-2,1.9459764E1,2.3410583E1,4.321844E1,0E0,0E0,6.5159893E-1,3.022771E0,2.1318249E1,2.5068367E1,4.4097275E1,2.7537506E1,1.1387253E1,0E0,6.861572E-1,7.2398186E-2,1.8530464E-1,2.3557764E1,4.9157314E0,2.5235855E1,2.8670425E1,2.3040924E1,1.4253781E0,2.1841404E1,8.062488E0,7.8918076E-1,0E0,7.234297E-1,0E0,0E0,0E0,2.7423936E-1,0E0,4.153215E1,2.2588474E1,0E0,6.1323357E0,7.897703E0,5.112854E0,6.177701E0,2.2728767E0,7.639511E0,4.3845024E0,0E0,1.0847323E0,0E0,0E0,0E0,0E0,0E0,0E0,0E0,0E0,0E0,0E0,0E0,0E0,0E0,0E0,0E0,0E0,0E0,0E0,0E0,0E0,0E0,0E0,0E0,0E0,0E0,0E0,0E0,0E0,0E0,0E0],"parents":[2147483647,0,0,1,1,2,2,3,3,4,4,5,5,6,6,7,7,10,10,11,11,12,12,13,13,14,14,15,15,16,16,18,18,19,19,20,20,21,21,22,22,23,23,24,24,25,25,26,26,27,27,28,28,29,29,31,31,35,35,37,37,38,38,40,40,41,41,42,42,43,43,44,44,45,45,46,46,48,48],"right_children":[2,4,6,8,10,12,14,16,-1,-1,18,20,22,24,26,28,30,-1,32,34,36,38,40,42,44,46,48,50,52,54,-1,56,-1,-1,-1,58,-1,60,62,-1,64,66,68,70,72,74,76,-1,78,-1,-1,-1,-1,-1,-1,-1,-1,-1,-1,-1,-1,-1,-1,-1,-1,-1,-1,-1,-1,-1,-1,-1,-1,-1,-1,-1,-1,-1,-1],"split_conditions":[1E0,9E0,5E0,1E0,1E1,1E0,1E0,7.769781E1,-4.5924455E-2,-4.532988E-2,7.750267E1,2.8168817E0,1E0,1E0,1E0,2.676256E-1,1E0,8.235294E-3,7.769226E1,7.7676254E1,7.747293E1,1E0,3E0,-5E-1,1E0,1E0,1.2978411E1,1E0,4.2748194E0,4E0,-3.2307692E-2,3.5200572E-1,8.235294E-3,8.235294E-3,4.117647E-2,1.7623188E1,-4.2043343E-2,4.490963E-2,2.326905E-1,-6.0869567E-3,1E0,1.2E1,4.8820653E0,1.2E1,1.1E1,9E0,1.1E1,-4.2168677E-2,1.2984261E1,3.60442E-2,-1.781818E-2,-3.254054E-2,7E-2,1.28E-1,4.2608693E-2,8.235294E-3,-4.2325582E-2,8.235294E-3,-2.8E-2,-3.00684E-2,5.915493E-2,1.0993289E-1,-2.6486488E-2,1.278261E-1,-2.4705883E-2,3.8748264E-2,-8.901734E-3,2.910891E-2,8.132119E-2,7.1499175E-3,8.042553E-2,1.19636364E-1,8.235294E-3,3.932584E-2,1.0871934E-1,3.6438353E-2,-3.7560977E-2,4.117647E-2,-1.4E-2],"split_indices":[2,1,1,11,5,1,9,19,0,0,19,26,10,12,11,28,7,0,19,19,19,11,1,14,7,10,18,9,28,1,0,22,0,0,0,23,0,28,28,0,7,17,22,1,1,1,1,0,18,0,0,0,0,0,0,0,0,0,0,0,0,0,0,0,0,0,0,0,0,0,0,0,0,0,0,0,0,0,0],"split_type":[0,0,0,0,0,0,0,0,0,0,0,0,0,0,0,0,0,0,0,0,0,0,0,0,0,0,0,0,0,0,0,0,0,0,0,0,0,0,0,0,0,0,0,0,0,0,0,0,0,0,0,0,0,0,0,0,0,0,0,0,0,0,0,0,0,0,0,0,0,0,0,0,0,0,0,0,0,0,0],"sum_hessian":[1.9575E3,1.207875E3,7.49625E2,3.43125E2,8.6475E2,2.085E2,5.41125E2,2.8125E2,6.1875E1,8.19375E2,4.5375E1,4.425E1,1.6425E2,3.99375E2,1.4175E2,2.60625E2,2.0625E1,1.125E0,4.425E1,2.25E0,4.2E1,1.5075E2,1.35E1,2.29875E2,1.695E2,1.2225E2,1.95E1,1.66125E2,9.45E1,1.8375E1,2.25E0,4.3125E1,1.125E0,1.125E0,1.125E0,2.625E0,3.9375E1,1.24875E2,2.5875E1,1.875E0,1.1625E1,1.095E2,1.20375E2,1.55625E2,1.3875E1,1.00875E2,2.1375E1,9.375E0,1.0125E1,1.12125E2,5.4E1,9.15E1,3E0,1.65E1,1.875E0,1.125E0,4.2E1,1.125E0,1.5E0,9.0375E1,3.45E1,1.7625E1,8.25E0,1.05E1,1.125E0,8.8875E1,2.0625E1,1.1625E1,1.0875E2,1.5075E2,4.875E0,1.275E1,1.125E0,1.0125E1,9.075E1,1.725E1,4.125E0,1.125E0,9E0],"tree_param":{"num_deleted":"0","num_feature":"29","num_nodes":"79","size_leaf_vector":"1"}},{"base_weights":[-6.5562916E-1,-5E-1,-4.6603262E-2,-4.6010546E-2,-2.8306264E-1,-4.8024315E-1,3.272727E-1,-4.504348E-2,-9.3457945E-2,8.108108E-1,-3.818182E-2,2.3728813E-1,-4.2857143E-1,1.05000004E-1,2.4E-1,4.4390243E-2,-3.2307692E-2,-3.8723405E-2,8.235294E-3,3.6842108E-2,-2.8E-2],"categories":[],"categories_nodes":[],"categories_segments":[],"categories_sizes":[],"default_left":[0,0,0,0,0,0,0,0,0,0,0,0,0,0,0,0,0,0,0,0,0],"id":2,"left_children":[1,3,-1,-1,5,7,9,-1,11,13,-1,15,17,-1,19,-1,-1,-1,-1,-1,-1],"loss_changes":[2.7623901E0,4.0451775E0,0E0,0E0,6.640824E0,2.5363674E0,6.244717E0,0E0,1.584146E0,3.2789187E0,0E0,2.338029E0,5.415698E-1,0E0,1.3557894E0,0E0,0E0,0E0,0E0,0E0,0E0],"parents":[2147483647,0,0,1,1,4,4,5,5,6,6,8,8,9,9,11,11,12,12,14,14],"right_children":[2,4,-1,-1,6,8,10,-1,12,14,-1,16,18,-1,20,-1,-1,-1,-1,-1,-1],"split_conditions":[1E0,1E0,-4.6603262E-2,-4.6010546E-2,2.1E1,1E0,5.6369056E-5,-4.504348E-2,1.4269888E0,2.705764E-1,-3.818182E-2,5.6369056E-5,7E0,1.05000004E-1,1.2873553E1,4.4390243E-2,-3.2307692E-2,-3.8723405E-2,8.235294E-3,3.6842108E-2,-2.8E-2],"split_indices":[0,2,0,0,13,12,21,0,28,28,0,21,1,0,22,0,0,0,0,0,0],"split_type":[0,0,0,0,0,0,0,0,0,0,0,0,0,0,0,0,0,0,0,0,0],"sum_hessian":[1.962E3,1.23E2,1.839E3,7.0125E1,5.2875E1,4.0125E1,1.275E1,2.775E1,1.2375E1,8.25E0,4.5E0,6.375E0,6E0,3E0,5.25E0,4.125E0,2.25E0,4.875E0,1.125E0,3.75E0,1.5E0],"tree_param":{"num_deleted":"0","num_feature":"29","num_nodes":"21","size_leaf_vector":"1"}},{"base_weights":[-3.0742836E-1,2.7430093E-1,-4.6628326E-2,-5.371966E-1,4.9250898E-1,-1.4511041E-1,-4.628099E-2,-6.4893615E-1,7.06383E-1,7.538462E-2,-2.4749164E-1,-6.0869567E-3,-4.616011E-2,8.999705E-1,-3.713355E-1,-3.5636362E-1,7.5E-1,1.0506701E0,-4.852071E-1,6.4935064E-1,-5.100917E-1,-3.36E-3,-4.0759493E-2,6.695652E-2,8.235294E-3,9.343993E-2,2.3280183E-2,3.818182E-2,-4.357616E-2,-3.0434782E-2,6.774193E-2,2.4137931E-2,-3.8473282E-2],"categories":[],"categories_nodes":[],"categories_segments":[],"categories_sizes":[],"default_left":[0,0,0,0,0,0,0,0,0,0,0,0,0,0,0,0,0,0,0,0,0,0,0,0,0,0,0,0,0,0,0,0,0],"id":3,"left_children":[1,3,-1,5,7,9,-1,11,13,-1,15,-1,-1,17,19,21,23,25,27,29,31,-1,-1,-1,-1,-1,-1,-1,-1,-1,-1,-1,-1],"loss_changes":[4.106446E2,1.3324811E2,0E0,7.662342E0,1.4507219E2,5.2241435E0,0E0,4.970131E-1,1.0452022E2,0E0,4.326157E0,0E0,0E0,8.893973E1,1.1201068E1,2.3667479E0,4.0984654E-1,7.758841E1,6.318757E0,3.7431016E0,2.4916039E0,0E0,0E0,0E0,0E0,0E0,0E0,0E0,0E0,0E0,0E0,0E0,0E0],"parents":[2147483647,0,0,1,1,3,3,4,4,5,5,7,7,8,8,10,10,13,13,14,14,15,15,16,16,17,17,18,18,19,19,20,20],"right_children":[2,4,-1,6,8,10,-1,12,14,-1,16,-1,-1,18,20,22,24,26,28,30,32,-1,-1,-1,-1,-1,-1,-1,-1,-1,-1,-1,-1],"split_conditions":[1E0,6.123234E-17,-4.6628326E-2,-7.0710677E-1,-7.0710677E-1,1.0092128E-3,-4.628099E-2,4.7572015E-4,1.8686026E0,7.538462E-2,1.9261934E1,-6.0869567E-3,-4.616011E-2,1E0,1E0,1E0,1E0,1E0,3E0,5.0372705E0,1.5304168E0,-3.36E-3,-4.0759493E-2,6.695652E-2,8.235294E-3,9.343993E-2,2.3280183E-2,3.818182E-2,-4.357616E-2,-3.0434782E-2,6.774193E-2,2.4137931E-2,-3.8473282E-2],"split_indices":[8,15,0,15,14,28,0,28,28,0,23,0,0,7,0,0,0,9,1,22,23,0,0,0,0,0,0,0,0,0,0,0,0],"split_type":[0,0,0,0,0,0,0,0,0,0,0,0,0,0,0,0,0,0,0,0,0,0,0,0,0,0,0,0,0,0,0,0,0],"sum_hessian":[1.966125E3,7.5E2,1.216125E3,1.58625E2,5.91375E2,3.8625E1,1.2E2,9.3E1,4.98375E2,2.25E0,3.6375E1,1.875E0,9.1125E1,4.22625E2,7.575E1,3.3375E1,3E0,3.81375E2,4.125E1,8.625E0,6.7125E1,1.4625E1,1.875E1,1.875E0,1.125E0,2.72625E2,1.0875E2,4.5E0,3.675E1,1.875E0,6.75E0,2.625E0,6.45E1],"tree_param":{"num_deleted":"0","num_feature":"29","num_nodes":"33","size_leaf_vector":"1"}},{"base_weights":[9.561143E-1,-1.3174182E-1,1.5778004E0,1.6028676E0,-2.6241586E-1,1.2025603E0,1.7204701E0,5.739208E-1,1.15344256E-1,-4.818342E-1,8.1279594E-1,1.5253881E0,7.901404E-1,8.696015E-1,1.2057513E-1,6.98501E-2,-1.186481E-3,3.353055E-2,-6.24453E-1,-2.2152063E-1,9.29963E-1,1.2436641E0,1.6956784E0,-1.6237941E-1,1.005922E0,8.212931E-2,4.458544E-3,2.6502985E-1,-5.335271E-1,-3.2438618E-1,-6.2840056E-1,-4.1776136E-1,4.173812E-2,8.1502956E-1,1.1357717E-1,8.2081294E-1,1.4553797E0,8.1467927E-1,1.19647235E-1,-4.294724E-2,2.1361972E-1,1.2132837E-1,7.7664167E-1,2.616205E-3,5.9005674E-2,8.506552E-3,-3.901441E-2,-3.854595E-2,1.9416748E-2,-1.3785807E-2,-4.4132568E-2,-4.095414E-2,1.1675642E-2,4.0033206E-2,8.014325E-2,2.9891925E-2,7.5713396E-2,1.05089515E-1,-2.4287114E-2,7.7705435E-2,6.1804266E-3,4.823816E-2,-1.0526326E-2,4.0855374E-2,9.130724E-2],"categories":[],"categories_nodes":[],"categories_segments":[],"categories_sizes":[],"default_left":[0,0,0,0,0,0,0,0,0,0,0,0,0,0,0,0,0,0,0,0,0,0,0,0,0,0,0,0,0,0,0,0,0,0,0,0,0,0,0,0,0,0,0,0,0,0,0,0,0,0,0,0,0,0,0,0,0,0,0,0,0,0,0,0,0],"id":4,"left_children":[1,3,5,7,9,11,13,15,-1,17,19,21,23,25,-1,-1,-1,27,29,31,33,35,37,39,41,-1,-1,43,45,47,49,51,-1,53,-1,55,57,59,-1,-1,61,-1,63,-1,-1,-1,-1,-1,-1,-1,-1,-1,-1,-1,-1,-1,-1,-1,-1,-1,-1,-1,-1,-1,-1],"loss_changes":[1.3879286E3,1.6976808E2,6.783765E1,1.4793091E0,1.6450664E2,4.712921E1,1.3354492E-1,9.5103157E-1,0E0,4.2531113E1,1.4538994E1,7.608917E0,3.3351936E1,9.6975493E-1,0E0,0E0,0E0,1.6722584E1,3.328247E-1,2.3100061E0,7.149231E0,5.9730225E0,8.3740234E-2,5.3361816E0,2.0631561E1,0E0,0E0,1.1856804E1,6.4429474E-1,1.2352037E0,2.7322388E-1,1.167928E0,0E0,6.827179E0,0E0,2.5170612E0,4.8273697E0,7.138841E-1,0E0,0E0,3.1287005E0,0E0,9.628979E0,0E0,0E0,0E0,0E0,0E0,0E0,0E0,0E0,0E0,0E0,0E0,0E0,0E0,0E0,0E0,0E0,0E0,0E0,0E0,0E0,0E0,0E0],"parents":[2147483647,0,0,1,1,2,2,3,3,4,4,5,5,6,6,7,7,9,9,10,10,11,11,12,12,13,13,17,17,18,18,19,19,20,20,21,21,22,22,23,23,24,24,27,27,28,28,29,29,30,30,31,31,33,33,35,35,36,36,37,37,40,40,42,42],"right_children":[2,4,6,8,10,12,14,16,-1,18,20,22,24,26,-1,-1,-1,28,30,32,34,36,38,40,42,-1,-1,44,46,48,50,52,-1,54,-1,56,58,60,-1,-1,62,-1,64,-1,-1,-1,-1,-1,-1,-1,-1,-1,-1,-1,-1,-1,-1,-1,-1,-1,-1,-1,-1,-1,-1],"split_conditions":[1E0,1E0,9E0,2.8168817E0,1E0,7.0710677E-1,1E0,1.7992003E0,1.15344256E-1,-1.8369701E-16,1.0794034E-2,7E0,1E0,-9.659258E-1,1.2057513E-1,6.98501E-2,-1.186481E-3,1E1,9.184329E-1,6E0,9.571591E-1,1.1720216E-2,7.3554343E-1,-5E-1,3E0,8.212931E-2,4.458544E-3,1E0,4.0317855E0,1.1E1,1.7987487E0,1.3057616E1,4.173812E-2,4E0,1.1357717E-1,7.758421E1,7.768567E1,4E0,1.19647235E-1,-4.294724E-2,4E0,1.2132837E-1,1E0,2.616205E-3,5.9005674E-2,8.506552E-3,-3.901441E-2,-3.854595E-2,1.9416748E-2,-1.3785807E-2,-4.4132568E-2,-4.095414E-2,1.1675642E-2,4.0033206E-2,8.014325E-2,2.9891925E-2,7.5713396E-2,1.05089515E-1,-2.4287114E-2,7.7705435E-2,6.1804266E-3,4.823816E-2,-1.0526326E-2,4.0855374E-2,9.130724E-2],"split_indices":[8,1,1,26,11,15,0,26,0,15,28,13,0,15,0,0,0,13,27,16,28,28,23,14,1,0,0,9,22,1,24,18,0,16,0,19,19,1,0,0,17,0,9,0,0,0,0,0,0,0,0,0,0,0,0,0,0,0,0,0,0,0,0,0,0],"split_type":[0,0,0,0,0,0,0,0,0,0,0,0,0,0,0,0,0,0,0,0,0,0,0,0,0,0,0,0,0,0,0,0,0,0,0,0,0,0,0,0,0,0,0,0,0,0,0,0,0,0,0,0,0,0,0,0,0,0,0,0,0,0,0,0,0],"sum_hessian":[2.0509158E3,7.461154E2,1.3048004E3,5.1480495E1,6.946349E2,3.620336E2,9.427668E2,2.7291274E0,4.8751366E1,5.7736414E2,1.1727075E2,2.0156049E2,1.6047311E2,3.2678432E0,9.3949896E2,1.1879807E0,1.5411468E0,1.2531026E2,4.520539E2,1.1842044E1,1.0542871E2,7.9063286E1,1.224972E2,2.9684593E1,1.3078853E2,2.042402E0,1.2254412E0,8.93614E1,3.5948856E1,6.949791E0,4.451041E2,9.944771E0,1.8972733E0,9.22898E1,1.3138908E1,2.8005657E1,5.105763E1,2.7837577E0,1.1971344E2,1.3206583E1,1.647801E1,2.9774866E1,1.01013664E2,6.487131E1,2.449009E1,1.1175351E0,3.483132E1,5.1124134E0,1.8373773E0,2.5788984E0,4.425252E2,7.731255E0,2.2135155E0,5.470462E1,3.758518E1,1.22089815E1,1.5796675E1,4.9952557E1,1.105072E0,1.603464E0,1.1802938E0,6.7574215E0,9.720589E0,7.550716E1,2.5506506E1],"tree_param":{"num_deleted":"0","num_feature":"29","num_nodes":"65","size_leaf_vector":"1"}},{"base_weights":[-8.055175E-2,-4.5059708E-1,4.9126995E-1,-8.520614E-3,-6.29532E-1,9.296326E-2,6.512607E-1,-3.8759267E-1,4.3089482E-1,-3.356116E-2,-6.3180566E-1,-3.474957E-2,8.966257E-1,5.4855907E-1,9.340857E-1,-4.529944E-2,-2.3213695E-1,1.2769878E0,2.3714383E-1,4.3088913E-2,-3.1479865E-2,-3.666153E-1,-4.4300403E-2,8.234864E-1,-1.586747E-1,1.2618874E0,2.6719722E-1,9.734462E-1,3.2545835E-1,-2.9827955E-1,1.1045277E0,-4.4385307E-2,-1.144676E-1,1.6525732E0,-3.9596587E-1,-4.4578172E-2,4.6169996E-1,9.568828E-3,-3.6016442E-2,1.09165E-1,-4.111757E-2,5.570563E-1,-3.0441827E-1,1.3847011E0,-2.4888573E-2,-3.40314E-2,5.2080274E-1,1.0020752E0,-9.29391E-2,2.531228E-1,9.48592E-1,2.7946217E-2,-3.8418138E-1,4.1396907E-1,1.3038806E0,-2.9919377E-2,9.356414E-3,1.2305754E-1,4.1312378E-2,-3.7448414E-2,9.113554E-3,4.7045298E-2,-1.3050889E-2,9.1005705E-2,-3.2140553E-2,-4.2440634E-2,8.831602E-3,1.6898556E-2,1.0551792E-1,6.2151957E-2,2.0761564E-3,4.905941E-2,7.828703E-2,2.4983203E-2,-3.169461E-2,-3.726714E-2,2.0594735E-2,-4.1083876E-2,1.0439897E-1,5.7599894E-3,-3.320409E-2,-2.6206369E-2,5.0232876E-2,4.2238332E-2,9.5222004E-2],"categories":[],"categories_nodes":[],"categories_segments":[],"categories_sizes":[],"default_left":[0,0,0,0,0,0,0,0,0,0,0,0,0,0,0,0,0,0,0,0,0,0,0,0,0,0,0,0,0,0,0,0,0,0,0,0,0,0,0,0,0,0,0,0,0,0,0,0,0,0,0,0,0,0,0,0,0,0,0,0,0,0,0,0,0,0,0,0,0,0,0,0,0,0,0,0,0,0,0,0,0,0,0,0,0],"id":5,"left_children":[1,3,5,7,9,11,13,15,17,19,21,23,25,27,29,-1,31,33,35,-1,-1,37,-1,39,41,43,45,47,49,51,53,-1,55,57,59,-1,61,-1,-1,-1,-1,63,65,67,-1,-1,69,71,73,75,77,-1,79,81,83,-1,-1,-1,-1,-1,-1,-1,-1,-1,-1,-1,-1,-1,-1,-1,-1,-1,-1,-1,-1,-1,-1,-1,-1,-1,-1,-1,-1,-1,-1],"loss_changes":[4.135097E2,9.383557E1,4.887068E1,5.727257E1,1.1230469E0,2.2735418E1,1.5394608E1,7.297085E0,2.580353E1,1.4290991E0,3.8757324E-3,2.0533903E1,6.6450443E0,3.7995888E1,3.0673676E1,0E0,5.4608917E0,1.9155651E1,2.5965725E1,0E0,0E0,4.9595708E-1,0E0,2.6219196E1,1.7743267E1,4.256447E0,2.6262646E0,4.326172E0,1.1773205E1,1.252255E0,1.6960785E1,0E0,7.1796446E0,1.6765442E0,5.2351385E-1,0E0,1.4394356E1,0E0,0E0,0E0,0E0,2.2384457E1,1.835413E1,2.135334E0,0E0,0E0,1.7360725E0,3.9500275E0,8.965309E-1,7.907859E0,2.36773E1,0E0,7.472234E-1,7.436248E0,3.060318E0,0E0,0E0,0E0,0E0,0E0,0E0,0E0,0E0,0E0,0E0,0E0,0E0,0E0,0E0,0E0,0E0,0E0,0E0,0E0,0E0,0E0,0E0,0E0,0E0,0E0,0E0,0E0,0E0,0E0,0E0],"parents":[2147483647,0,0,1,1,2,2,3,3,4,4,5,5,6,6,7,7,8,8,9,9,10,10,11,11,12,12,13,13,14,14,16,16,17,17,18,18,21,21,23,23,24,24,25,25,26,26,27,27,28,28,29,29,30,30,32,32,33,33,34,34,36,36,41,41,42,42,43,43,46,46,47,47,48,48,49,49,50,50,52,52,53,53,54,54],"right_children":[2,4,6,8,10,12,14,16,18,20,22,24,26,28,30,-1,32,34,36,-1,-1,38,-1,40,42,44,46,48,50,52,54,-1,56,58,60,-1,62,-1,-1,-1,-1,64,66,68,-1,-1,70,72,74,76,78,-1,80,82,84,-1,-1,-1,-1,-1,-1,-1,-1,-1,-1,-1,-1,-1,-1,-1,-1,-1,-1,-1,-1,-1,-1,-1,-1,-1,-1,-1,-1,-1,-1],"split_conditions":[1E0,9E0,5E0,7.0710677E-1,1E0,1E0,5E0,0E0,1E0,2.9134225E-2,4.6670696E-1,-7.0710677E-1,7.759287E1,2.5881904E-1,-7.0710677E-1,-4.529944E-2,2E0,1E0,3E0,4.3088913E-2,-3.1479865E-2,-2.5881904E-1,-4.4300403E-2,1.7357647E-2,-1.8369701E-16,1.6968979E1,3.1526082E0,1.3100857E1,1E0,7.749543E1,-1.8369701E-16,-4.4385307E-2,-1.8369701E-16,2.6450117E0,6E0,-4.4578172E-2,5E0,9.568828E-3,-3.6016442E-2,1.09165E-1,-4.111757E-2,7.451561E-1,2.705764E-1,-5E-1,-2.4888573E-2,-3.40314E-2,1.8431143E1,7.8156652E0,3E0,4.536362E-3,-7.0710677E-1,2.7946217E-2,1E1,6.5685863E0,9E0,-2.9919377E-2,9.356414E-3,1.2305754E-1,4.1312378E-2,-3.7448414E-2,9.113554E-3,4.7045298E-2,-1.3050889E-2,9.1005705E-2,-3.2140553E-2,-4.2440634E-2,8.831602E-3,1.6898556E-2,1.0551792E-1,6.2151957E-2,2.0761564E-3,4.905941E-2,7.828703E-2,2.4983203E-2,-3.169461E-2,-3.726714E-2,2.0594735E-2,-4.1083876E-2,1.0439897E-1,5.7599894E-3,-3.320409E-2,-2.6206369E-2,5.0232876E-2,4.2238332E-2,9.5222004E-2],"split_indices":[2,1,1,15,0,7,16,14,0,28,27,14,19,15,14,0,1,7,1,0,0,14,0,28,15,24,27,18,7,19,15,0,15,28,16,0,16,0,0,0,0,28,28,14,0,0,26,22,5,28,14,0,1,22,1,0,0,0,0,0,0,0,0,0,0,0,0,0,0,0,0,0,0,0,0,0,0,0,0,0,0,0,0,0,0],"split_type":[0,0,0,0,0,0,0,0,0,0,0,0,0,0,0,0,0,0,0,0,0,0,0,0,0,0,0,0,0,0,0,0,0,0,0,0,0,0,0,0,0,0,0,0,0,0,0,0,0,0,0,0,0,0,0,0,0,0,0,0,0,0,0,0,0,0,0,0,0,0,0,0,0,0,0,0,0,0,0,0,0,0,0,0,0],"sum_hessian":[1.9521592E3,1.185314E3,7.668451E2,3.4183194E2,8.4348206E2,2.2020714E2,5.46638E2,1.8358014E2,1.5825179E2,3.2656226E0,8.4021643E2,1.9083728E2,2.9369864E1,4.0317392E2,1.4346405E2,6.7583244E1,1.159969E2,2.8444849E1,1.2980695E2,1.0885409E0,2.1770818E0,4.7174673E0,8.3549896E2,2.3366812E1,1.6747046E2,1.7949076E1,1.1420788E1,1.3765392E2,2.6552002E2,1.7339844E1,1.2612421E2,2.527457E1,9.072233E1,2.3239632E1,5.2052164E0,2.615918E1,1.03647766E2,1.0886463E0,3.6288211E0,1.5286807E1,8.080004E0,2.7855064E1,1.396154E2,1.6816105E1,1.1329718E0,2.645391E0,8.775396E0,1.341137E2,3.540218E0,2.391633E2,2.635671E1,1.5013721E0,1.5838471E1,2.8942812E1,9.71814E1,3.9801086E1,5.092124E1,2.0546652E1,2.6929805E0,4.104142E0,1.1010742E0,7.8221466E1,2.5426296E1,1.5928902E1,1.1926162E1,8.183437E1,5.778103E1,1.9173933E0,1.4898711E1,4.559682E0,4.215715E0,3.9316338E1,9.479735E1,1.5769799E0,1.9632382E0,1.1293718E1,2.2786958E2,6.86269E0,1.949402E1,2.5796642E0,1.3258807E1,7.983194E0,2.0959618E1,8.117425E0,8.906397E1],"tree_param":{"num_deleted":"0","num_feature":"29","num_nodes":"85","size_leaf_vector":"1"}},{"base_weights":[-6.450136E-1,-4.8661545E-1,-4.583701E-2,-4.522509E-2,-2.7716255E-1,9.464441E-2,-4.4359207E-2,-3.470914E-1,6.36614E-1,-4.1322786E-2,9.351565E-2,8.4315133E-1,-1.6519639E-1,5.5120386E-2,-2.114105E-2,-5.8012563E-3,7.5165264E-2,-2.5345648E-2,7.7291816E-3],"categories":[],"categories_nodes":[],"categories_segments":[],"categories_sizes":[],"default_left":[0,0,0,0,0,0,0,0,0,0,0,0,0,0,0,0,0,0,0],"id":6,"left_children":[1,3,-1,-1,5,7,-1,9,11,-1,13,15,17,-1,-1,-1,-1,-1,-1],"loss_changes":[2.6224365E0,3.6378155E0,0E0,0E0,6.8404284E0,6.4235835E0,0E0,1.6543213E0,2.1243787E0,0E0,1.9314226E0,2.1597404E0,2.1858624E-1,0E0,0E0,0E0,0E0,0E0,0E0],"parents":[2147483647,0,0,1,1,4,4,5,5,7,7,8,8,10,10,11,11,12,12],"right_children":[2,4,-1,-1,6,8,-1,10,12,-1,14,16,18,-1,-1,-1,-1,-1,-1],"split_conditions":[1E0,1E0,-4.583701E-2,-4.522509E-2,1E0,7.0710677E-1,-4.4359207E-2,1E0,5E0,-4.1322786E-2,9.1136116E-1,1E0,8E0,5.5120386E-2,-2.114105E-2,-5.8012563E-3,7.5165264E-2,-2.5345648E-2,7.7291816E-3],"split_indices":[0,2,0,0,7,15,0,12,16,0,28,13,4,0,0,0,0,0,0],"split_type":[0,0,0,0,0,0,0,0,0,0,0,0,0,0,0,0,0,0,0],"sum_hessian":[1.8934557E3,1.1328206E2,1.7801736E3,6.3133625E1,5.0148434E1,2.4908224E1,2.524021E1,1.3921219E1,1.0987005E1,8.750671E0,5.170548E0,8.695566E0,2.291439E0,1.5174704E0,3.6530776E0,1.8616394E0,6.8339267E0,1.1536219E0,1.137817E0],"tree_param":{"num_deleted":"0","num_feature":"29","num_nodes":"19","size_leaf_vector":"1"}},{"base_weights":[-2.974029E-1,2.5361833E-1,-4.589105E-2,4.1268817E-1,-4.55888E-2,-4.7536835E-1,6.403896E-1,-5.813502E-2,-4.5484994E-2,8.197026E-1,-3.6414093E-1,7.00085E-2,-1.868121E-1,9.459205E-1,-4.7019258E-1,6.6552347E-1,-5.08279E-1,-1.8555127E-2,4.1504927E-2,1.0869299E-1,4.7835734E-2,3.5880443E-2,-4.288495E-2,6.256787E-2,-2.7910141E-2,2.2706032E-2,-3.822341E-2],"categories":[],"categories_nodes":[],"categories_segments":[],"categories_sizes":[],"default_left":[0,0,0,0,0,0,0,0,0,0,0,0,0,0,0,0,0,0,0,0,0,0,0,0,0,0,0],"id":7,"left_children":[1,3,-1,5,-1,7,9,11,-1,13,15,-1,17,19,21,23,25,-1,-1,-1,-1,-1,-1,-1,-1,-1,-1],"loss_changes":[3.844889E2,1.1079264E2,0E0,1.32482E2,0E0,9.711679E0,9.4087555E1,5.714479E0,0E0,7.242673E1,1.2145976E1,0E0,2.4171426E0,6.3156128E1,5.924306E0,2.8352952E0,2.3897705E0,0E0,0E0,0E0,0E0,0E0,0E0,0E0,0E0,0E0,0E0],"parents":[2147483647,0,0,1,1,3,3,5,5,6,6,7,7,9,9,10,10,12,12,13,13,14,14,15,15,16,16],"right_children":[2,4,-1,6,-1,8,10,12,-1,14,16,-1,18,20,22,24,26,-1,-1,-1,-1,-1,-1,-1,-1,-1,-1],"split_conditions":[1E0,1E0,-4.589105E-2,-1.8369701E-16,-4.55888E-2,-7.0710677E-1,2.5158563E0,1.0092128E-3,-4.5484994E-2,1E0,1E0,7.00085E-2,1.9261934E1,1.7357647E-2,3E0,1.582248E-2,9.4913113E-1,-1.8555127E-2,4.1504927E-2,1.0869299E-1,4.7835734E-2,3.5880443E-2,-4.288495E-2,6.256787E-2,-2.7910141E-2,2.2706032E-2,-3.822341E-2],"split_indices":[8,11,0,15,0,15,28,28,0,7,0,0,23,28,1,21,27,0,0,0,0,0,0,0,0,0,0],"split_type":[0,0,0,0,0,0,0,0,0,0,0,0,0,0,0,0,0,0,0,0,0,0,0,0,0,0,0],"sum_hessian":[1.9462517E3,7.668458E2,1.1794059E3,6.5265906E2,1.1418682E2,1.3297128E2,5.1968774E2,3.95927E1,9.337858E1,4.4112845E2,7.8559296E1,3.5581002E0,3.60346E1,4.0205365E2,3.9074806E1,9.202573E0,6.935673E1,3.3347607E1,2.6869934E0,1.1993493E2,2.821187E2,4.617818E0,3.445699E1,7.7089562E0,1.4936168E0,2.6802883E0,6.667644E1],"tree_param":{"num_deleted":"0","num_feature":"29","num_nodes":"27","size_leaf_vector":"1"}},{"base_weights":[8.962796E-1,1.4221734E0,-1.3533968E-1,1.0811576E0,1.5331721E0,1.0342011E-1,-2.6248586E-1,1.3467119E0,7.3355085E-1,6.2277263E-1,1.07432306E-1,-4.661495E-1,7.096203E-1,1.0796584E-1,1.2263423E0,-4.7159556E-1,8.53369E-1,6.31725E-2,4.0612565E-3,-6.1485225E-1,3.2100737E-1,-4.673122E-2,9.0736246E-1,-2.7537044E-2,1.248411E0,-4.1858558E-2,2.3604587E-2,6.114569E-1,1.3484842E0,-4.5201812E-2,-3.8964978E-1,8.886756E-2,1.5284393E0,-4.2992505E-1,8.777737E-2,7.835391E-1,1.1039914E-1,1.0765898E-1,7.986746E-2,6.910525E-2,1.9362027E-2,3.8218267E-2,1.0619429E-1,-3.558381E-2,-1.03919E-2,-1.7119672E-2,5.9818342E-2,4.69789E-2,1.15359016E-1,-3.6461998E-2,4.0726006E-2,3.7759487E-2,7.9583466E-2],"categories":[],"categories_nodes":[],"categories_segments":[],"categories_sizes":[],"default_left":[0,0,0,0,0,0,0,0,0,0,0,0,0,0,0,0,0,0,0,0,0,0,0,0,0,0,0,0,0,0,0,0,0,0,0,0,0,0,0,0,0,0,0,0,0,0,0,0,0,0,0,0,0],"id":8,"left_children":[1,3,5,7,9,-1,11,13,15,17,-1,19,21,-1,23,25,27,-1,-1,29,31,33,35,-1,37,-1,-1,39,41,-1,43,45,47,49,-1,51,-1,-1,-1,-1,-1,-1,-1,-1,-1,-1,-1,-1,-1,-1,-1,-1,-1],"loss_changes":[1.1595942E3,5.1925293E1,1.4853993E2,3.1412872E1,5.722656E-1,0E0,1.330867E2,2.7667542E0,2.2670639E1,5.041605E-1,0E0,6.516106E1,1.7473335E1,0E0,5.042801E0,1.693007E0,1.601857E1,0E0,0E0,2.9979553E0,2.4766193E1,1.3052368E1,6.430588E0,0E0,2.161377E0,0E0,0E0,1.1843582E1,5.3037415E0,0E0,1.6097307E0,1.9504387E1,3.5596466E-1,2.1562405E0,0E0,6.288151E0,0E0,0E0,0E0,0E0,0E0,0E0,0E0,0E0,0E0,0E0,0E0,0E0,0E0,0E0,0E0,0E0,0E0],"parents":[2147483647,0,0,1,1,2,2,3,3,4,4,6,6,7,7,8,8,9,9,11,11,12,12,14,14,15,15,16,16,19,19,20,20,21,21,22,22,24,24,27,27,28,28,30,30,31,31,32,32,33,33,35,35],"right_children":[2,4,6,8,10,-1,12,14,16,18,-1,20,22,-1,24,26,28,-1,-1,30,32,34,36,-1,38,-1,-1,40,42,-1,44,46,48,50,-1,52,-1,-1,-1,-1,-1,-1,-1,-1,-1,-1,-1,-1,-1,-1,-1,-1,-1],"split_conditions":[1E0,8E0,1E0,7.0710677E-1,1E0,1.0342011E-1,1E0,0E0,5.517055E0,-9.659258E-1,1.07432306E-1,1E0,2.326905E-1,1.0796584E-1,5.3457804E0,1E0,1.94308E-1,6.31725E-2,4.0612565E-3,1E0,1E0,9E0,1E0,-2.7537044E-2,2E0,-4.1858558E-2,2.3604587E-2,1.7702244E1,1E0,-4.5201812E-2,4E0,1E0,1.0092128E-3,1E0,8.777737E-2,4E0,1.1039914E-1,1.0765898E-1,7.986746E-2,6.910525E-2,1.9362027E-2,3.8218267E-2,1.0619429E-1,-3.558381E-2,-1.03919E-2,-1.7119672E-2,5.9818342E-2,4.69789E-2,1.15359016E-1,-3.6461998E-2,4.0726006E-2,3.7759487E-2,7.9583466E-2],"split_indices":[2,1,1,15,0,0,11,14,25,15,0,10,28,0,25,0,28,0,0,7,7,1,7,0,1,0,0,25,0,0,16,9,28,7,0,16,0,0,0,0,0,0,0,0,0,0,0,0,0,0,0,0,0],"split_type":[0,0,0,0,0,0,0,0,0,0,0,0,0,0,0,0,0,0,0,0,0,0,0,0,0,0,0,0,0,0,0,0,0,0,0,0,0,0,0,0,0,0,0,0,0,0,0,0,0,0,0,0,0],"sum_hessian":[2.1360593E3,1.4145687E3,7.2149054E2,3.5000528E2,1.0645634E3,5.194762E1,6.6954297E2,1.9679178E2,1.5321349E2,2.523232E0,1.0620402E3,5.539968E2,1.1554608E2,7.0455246E1,1.2633653E2,1.3589785E1,1.396237E2,1.2875863E0,1.2356455E0,4.6615405E2,8.784281E1,2.4105963E1,9.1440125E1,1.4720294E0,1.248645E2,1.1978661E1,1.6111245E0,9.529686E1,4.432685E1,4.082875E2,5.786653E1,7.4578094E1,1.3264718E1,1.9137407E1,4.968555E0,7.9004105E1,1.2436018E1,3.0189356E1,9.467515E1,4.3987667E1,5.130919E1,8.430812E0,3.5896038E1,3.803977E1,1.9826765E1,5.2427734E1,2.215036E1,2.4327214E0,1.0831997E1,1.8003893E1,1.1335161E0,4.8219208E1,3.0784897E1],"tree_param":{"num_deleted":"0","num_feature":"29","num_nodes":"53","size_leaf_vector":"1"}},{"base_weights":[-7.138187E-2,-4.3853116E-1,4.5721993E-1,-3.2887172E-3,-6.200328E-1,6.701737E-2,6.057324E-1,-3.4851357E-1,3.7279654E-1,-3.605499E-2,-6.223538E-1,-5.2786267E-1,2.1593156E-1,4.9977198E-1,8.922646E-1,1.1783217E-2,-5.795501E-1,1.2251276E0,1.804431E-1,4.102305E-2,-3.1159205E-2,-4.50235E-2,-5.903436E-1,7.2270497E-3,-5.46958E-1,1.000051E0,4.286251E-2,8.907535E-1,2.96294E-1,1.0616664E0,-3.623372E-1,-4.3069586E-2,2.2991164E-1,-3.799198E-2,-5.961442E-1,1.526954E0,-3.7472345E-2,-4.3919004E-2,3.8693225E-1,-3.6236474E-3,-5.9307057E-1,-3.944008E-2,-2.5979823E-1,1.1010906E0,-1.8732297E-1,-1.333915E-1,8.68276E-1,1.1427993E0,7.7790225E-1,2.2582212E-1,9.524349E-1,4.920598E-1,1.2010559E0,-1.4728195E-2,-4.176455E-2,2.4793984E-2,-4.056E-2,1.992865E-2,-2.7425053E-2,8.032183E-3,-4.234926E-2,1.1083312E-1,4.8308764E-2,3.9346714E-2,-1.2507467E-2,-1.7757842E-2,-4.1691866E-2,1.0349725E-2,-3.115138E-2,8.1068456E-2,1.441214E-2,-2.5957482E-2,5.658598E-3,-3.36073E-2,5.4796163E-2,9.348892E-2,-3.9273623E-2,9.355975E-2,4.8359193E-2,7.275627E-2,3.7868258E-2,4.7289293E-2,1.0076251E-2,9.339508E-2,-2.9135803E-2,4.9409986E-2,-3.7975926E-2,4.603777E-2,8.866272E-2,1.7476825E-2,-3.3074785E-2],"categories":[],"categories_nodes":[],"categories_segments":[],"categories_sizes":[],"default_left":[0,0,0,0,0,0,0,0,0,0,0,0,0,0,0,0,0,0,0,0,0,0,0,0,0,0,0,0,0,0,0,0,0,0,0,0,0,0,0,0,0,0,0,0,0,0,0,0,0,0,0,0,0,0,0,0,0,0,0,0,0,0,0,0,0,0,0,0,0,0,0,0,0,0,0,0,0,0,0,0,0,0,0,0,0,0,0,0,0,0,0],"id":9,"left_children":[1,3,5,7,9,11,13,15,17,19,21,23,25,27,29,31,33,35,37,-1,-1,-1,39,-1,41,43,45,47,49,51,53,-1,55,57,59,61,-1,-1,63,-1,65,-1,67,69,71,73,75,77,79,81,83,85,87,89,-1,-1,-1,-1,-1,-1,-1,-1,-1,-1,-1,-1,-1,-1,-1,-1,-1,-1,-1,-1,-1,-1,-1,-1,-1,-1,-1,-1,-1,-1,-1,-1,-1,-1,-1,-1,-1],"loss_changes":[3.7841565E2,9.0887375E1,4.627658E1,4.422124E1,1.0780945E0,1.973262E1,1.7126968E1,1.4788918E1,2.6505438E1,1.3490038E0,1.59729E-1,5.9430695E-1,2.4090517E1,3.353266E1,3.3323563E1,9.765522E0,9.498825E-1,1.6674458E1,2.2624903E1,0E0,0E0,0E0,4.5548248E-1,0E0,5.9271812E-2,4.0584793E0,2.1461763E1,3.2328186E0,1.2773714E1,1.0270599E1,1.5535326E0,0E0,5.52958E0,6.007884E-1,7.292366E-1,1.21406555E-1,0E0,0E0,1.0748865E1,0E0,1.3137817E-1,0E0,3.839976E-1,1.2797318E0,1.959355E-1,3.9058144E1,1.8081905E1,2.8147354E0,5.83263E0,9.291427E0,1.4628624E1,6.7065516E0,3.0571442E0,1.1768824E0,0E0,0E0,0E0,0E0,0E0,0E0,0E0,0E0,0E0,0E0,0E0,0E0,0E0,0E0,0E0,0E0,0E0,0E0,0E0,0E0,0E0,0E0,0E0,0E0,0E0,0E0,0E0,0E0,0E0,0E0,0E0,0E0,0E0,0E0,0E0,0E0,0E0],"parents":[2147483647,0,0,1,1,2,2,3,3,4,4,5,5,6,6,7,7,8,8,9,9,10,10,11,11,12,12,13,13,14,14,15,15,16,16,17,17,18,18,22,22,24,24,25,25,26,26,27,27,28,28,29,29,30,30,32,32,33,33,34,34,35,35,38,38,40,40,42,42,43,43,44,44,45,45,46,46,47,47,48,48,49,49,50,50,51,51,52,52,53,53],"right_children":[2,4,6,8,10,12,14,16,18,20,22,24,26,28,30,32,34,36,38,-1,-1,-1,40,-1,42,44,46,48,50,52,54,-1,56,58,60,62,-1,-1,64,-1,66,-1,68,70,72,74,76,78,80,82,84,86,88,90,-1,-1,-1,-1,-1,-1,-1,-1,-1,-1,-1,-1,-1,-1,-1,-1,-1,-1,-1,-1,-1,-1,-1,-1,-1,-1,-1,-1,-1,-1,-1,-1,-1,-1,-1,-1,-1],"split_conditions":[1E0,9E0,5E0,7.0710677E-1,1E0,1E0,5E0,7E0,1E0,2.9134225E-2,7.0710677E-1,1.2856178E1,6.123234E-17,2.5881904E-1,1E0,2E0,1.1015337E0,1E0,3E0,4.102305E-2,-3.1159205E-2,-4.50235E-2,7.750267E1,7.2270497E-3,9E0,1.3065138E1,1E0,1.5349231E1,1.5371094E-3,-1.8369701E-16,7.7573425E1,-4.3069586E-2,1E0,7.75977E1,1E0,3.3227987E0,-3.7472345E-2,-4.3919004E-2,5E0,-3.6236474E-3,5.2702045E0,-3.944008E-2,7.748582E1,1.7959616E1,1.3093388E1,4.490963E-2,9.0938944E-1,1.3005141E1,7.757276E1,1E0,1E0,1.1E1,6.3103354E-1,1.1683311E1,-4.176455E-2,2.4793984E-2,-4.056E-2,1.992865E-2,-2.7425053E-2,8.032183E-3,-4.234926E-2,1.1083312E-1,4.8308764E-2,3.9346714E-2,-1.2507467E-2,-1.7757842E-2,-4.1691866E-2,1.0349725E-2,-3.115138E-2,8.1068456E-2,1.441214E-2,-2.5957482E-2,5.658598E-3,-3.36073E-2,5.4796163E-2,9.348892E-2,-3.9273623E-2,9.355975E-2,4.8359193E-2,7.275627E-2,3.7868258E-2,4.7289293E-2,1.0076251E-2,9.339508E-2,-2.9135803E-2,4.9409986E-2,-3.7975926E-2,4.603777E-2,8.866272E-2,1.7476825E-2,-3.3074785E-2],"split_indices":[2,1,1,15,0,1,16,13,0,28,15,18,15,15,11,1,27,7,1,0,0,0,19,0,4,18,11,25,21,15,19,0,7,19,8,28,0,0,16,0,25,0,19,24,18,28,28,18,19,16,11,1,28,24,0,0,0,0,0,0,0,0,0,0,0,0,0,0,0,0,0,0,0,0,0,0,0,0,0,0,0,0,0,0,0,0,0,0,0,0,0],"split_type":[0,0,0,0,0,0,0,0,0,0,0,0,0,0,0,0,0,0,0,0,0,0,0,0,0,0,0,0,0,0,0,0,0,0,0,0,0,0,0,0,0,0,0,0,0,0,0,0,0,0,0,0,0,0,0,0,0,0,0,0,0,0,0,0,0,0,0,0,0,0,0,0,0,0,0,0,0,0,0,0,0,0,0,0,0,0,0,0,0,0,0],"sum_hessian":[1.9478014E3,1.1495397E3,7.982617E2,3.3859766E2,8.10942E2,2.2046408E2,5.777976E2,1.765803E2,1.6201735E2,3.2758255E0,8.0766614E2,4.3629383E1,1.768347E2,4.2381424E2,1.5398338E2,6.936148E1,1.0721883E2,2.8842987E1,1.3317436E2,1.127933E0,2.1478925E0,4.7762936E2,3.3003677E2,1.1519022E0,4.2477478E1,3.1109474E1,1.4572522E2,1.4391154E2,2.7990268E2,1.3580077E2,1.8182625E1,1.743103E1,5.1930447E1,3.2854574E0,1.03933365E2,2.473486E1,4.1081285E0,2.6695154E1,1.0647921E2,1.7633266E0,3.2827347E2,3.9263233E1,3.214245E0,2.873679E1,2.3726854E0,1.2077419E2,2.4951025E1,4.1684788E1,1.0222676E2,2.539696E2,2.5933086E1,2.7589226E1,1.0821153E2,7.7489924E0,1.0433633E1,4.550477E1,6.4256806E0,1.8204138E0,1.4650435E0,1.1301559E0,1.0280321E2,2.2337921E1,2.3969386E0,8.1305855E1,2.5173355E1,3.176035E0,3.250974E2,1.0672027E0,2.1470423E0,2.6739607E1,1.9971823E0,1.1814206E0,1.1912649E0,8.796269E1,3.281151E1,1.8853117E1,6.097909E0,2.7806042E1,1.3878746E1,4.6986023E1,5.5240738E1,3.7997902E1,2.1597171E2,2.0296621E1,5.6364655E0,2.3127583E1,4.4616423E0,1.2837271E1,9.537427E1,5.2001157E0,2.5488765E0],"tree_param":{"num_deleted":"0","num_feature":"29","num_nodes":"91","size_leaf_vector":"1"}},{"base_weights":[-6.3498276E-1,-4.657855E-1,-4.519267E-2,-4.458761E-2,-2.2650635E-1,1.4575528E-1,-4.3578625E-2,-3.3664635E-1,7.3127335E-1,1.4627069E-1,-4.0926628E-2,8.4101275E-2,3.803083E-1,4.340503E-2,-3.1181073E-2,3.834696E-2,-2.490017E-2],"categories":[],"categories_nodes":[],"categories_segments":[],"categories_sizes":[],"default_left":[0,0,0,0,0,0,0,0,0,0,0,0,0,0,0,0,0],"id":10,"left_children":[1,3,-1,-1,5,7,-1,9,11,13,-1,-1,15,-1,-1,-1,-1],"loss_changes":[2.9697266E0,4.4056168E0,0E0,0E0,7.1495123E0,7.4460506E0,0E0,1.8414613E0,1.4951606E0,1.8951125E0,0E0,0E0,1.2103559E0,0E0,0E0,0E0,0E0],"parents":[2147483647,0,0,1,1,4,4,5,5,7,7,8,8,9,9,12,12],"right_children":[2,4,-1,-1,6,8,-1,10,12,14,-1,-1,16,-1,-1,-1,-1],"split_conditions":[1E0,1E0,-4.519267E-2,-4.458761E-2,1E0,7.0710677E-1,-4.3578625E-2,6E0,2.705764E-1,1.1315249E1,-4.0926628E-2,8.4101275E-2,2.3E1,4.340503E-2,-3.1181073E-2,3.834696E-2,-2.490017E-2],"split_indices":[0,2,0,0,7,15,0,13,28,24,0,0,13,0,0,0,0],"split_type":[0,0,0,0,0,0,0,0,0,0,0,0,0,0,0,0,0],"sum_hessian":[1.8179473E3,1.10081726E2,1.7078656E3,6.3203743E1,4.6877983E1,2.449034E1,2.2387642E1,1.3660585E1,1.0829754E1,4.774482E0,8.886104E0,3.59304E0,7.2367134E0,2.6248071E0,2.149675E0,6.1034064E0,1.1333072E0],"tree_param":{"num_deleted":"0","num_feature":"29","num_nodes":"17","size_leaf_vector":"1"}},{"base_weights":[-2.8636026E-1,-4.5200568E-2,2.4194168E-1,3.909817E-1,-6.33039E-1,-4.5230582E-1,5.955216E-1,2.4416067E-3,-4.49362E-2,-2.5877608E-2,-4.4819396E-2,7.4830496E-1,-3.2833916E-1,8.1697345E-2,-1.7773378E-1,8.6244476E-1,-4.8370886E-1,8.780674E-1,-5.065078E-1,-1.9581186E-2,4.775981E-2,7.663322E-2,1.9008681E-2,3.2622565E-2,-4.2298835E-2,8.0144875E-2,-2.7710622E-2,-4.4450235E-2,-1.7317828E-2],"categories":[],"categories_nodes":[],"categories_segments":[],"categories_sizes":[],"default_left":[0,0,0,0,0,0,0,0,0,0,0,0,0,0,0,0,0,0,0,0,0,0,0,0,0,0,0,0,0],"id":11,"left_children":[1,-1,3,5,7,9,11,-1,-1,13,-1,15,17,-1,19,21,23,25,27,-1,-1,-1,-1,-1,-1,-1,-1,-1,-1],"loss_changes":[3.5699213E2,0E0,9.9571495E1,1.1262855E2,6.8411255E-1,1.0221481E1,7.430516E1,0E0,0E0,7.475472E0,0E0,6.3771957E1,1.659808E1,0E0,3.3888235E0,5.635428E1,4.728986E0,3.8652205E0,2.0441704E0,0E0,0E0,0E0,0E0,0E0,0E0,0E0,0E0,0E0,0E0],"parents":[2147483647,0,0,2,2,3,3,4,4,5,5,6,6,9,9,11,11,12,12,14,14,15,15,16,16,17,17,18,18],"right_children":[2,-1,4,6,8,10,12,-1,-1,14,-1,16,18,-1,20,22,24,26,28,-1,-1,-1,-1,-1,-1,-1,-1,-1,-1],"split_conditions":[1E0,-4.5200568E-2,1E0,-1.8369701E-16,3.4174385E0,-7.0710677E-1,2.5158563E0,2.4416067E-3,-4.49362E-2,1.0092128E-3,-4.4819396E-2,1E0,1E0,8.1697345E-2,1.9261934E1,1E0,3E0,1.582248E-2,1.1E1,-1.9581186E-2,4.775981E-2,7.663322E-2,1.9008681E-2,3.2622565E-2,-4.2298835E-2,8.0144875E-2,-2.7710622E-2,-4.4450235E-2,-1.7317828E-2],"split_indices":[2,0,11,15,24,15,28,0,0,28,0,7,0,0,23,9,1,21,1,0,0,0,0,0,0,0,0,0,0],"split_type":[0,0,0,0,0,0,0,0,0,0,0,0,0,0,0,0,0,0,0,0,0,0,0,0,0,0,0,0,0],"sum_hessian":[1.8785505E3,1.1179054E3,7.6064514E2,6.504105E2,1.1023467E2,1.2672616E2,5.236843E2,1.4122573E0,1.0882242E2,3.9119053E1,8.760711E1,4.4953293E2,7.4151405E1,3.6623132E0,3.545674E1,4.1169174E2,3.7841175E1,9.036388E0,6.511502E1,3.230064E1,3.1560984E0,2.9489713E2,1.1679464E2,3.9396815E0,3.3901493E1,7.5550475E0,1.4813406E0,4.2558907E1,2.2556112E1],"tree_param":{"num_deleted":"0","num_feature":"29","num_nodes":"29","size_leaf_vector":"1"}},{"base_weights":[8.1331813E-1,1.2877718E0,-1.1062762E-1,9.7997504E-1,9.7327314E-2,1.3216124E0,-2.2622554E-1,1.22326E0,6.6134256E-1,6.0566276E-1,9.4127394E-2,-4.3277457E-1,6.8738264E-1,1.0202205E0,1.3420478E0,-5.418218E-1,7.886214E-1,6.1986044E-2,3.4796866E-3,1.18313245E-1,-6.052597E-1,3.179188E-2,8.504311E-1,1.5209676E-1,1.0976757E0,9.905836E-1,9.747371E-2,-4.157878E-2,-3.6298675E-3,5.948827E-1,1.2091231E0,3.312504E-1,-4.860109E-1,-4.455721E-2,-3.0046648E-1,-3.423869E-1,1.1603131E0,6.556514E-1,1.1540637E0,-1.7999688E-2,6.884365E-2,3.7774115E-3,8.078025E-2,3.3360775E-4,7.439994E-2,6.4757064E-2,1.717415E-2,3.6142398E-2,9.515983E-2,7.221076E-3,1.0066455E-1,1.3410559E-2,-3.7471622E-2,-7.730009E-3,-3.9054897E-2,-3.5244282E-2,3.1225452E-2,7.527034E-3,9.481363E-2,3.6040973E-2,9.7453214E-2,2.5716487E-3,8.3391614E-2],"categories":[],"categories_nodes":[],"categories_segments":[],"categories_sizes":[],"default_left":[0,0,0,0,0,0,0,0,0,0,0,0,0,0,0,0,0,0,0,0,0,0,0,0,0,0,0,0,0,0,0,0,0,0,0,0,0,0,0,0,0,0,0,0,0,0,0,0,0,0,0,0,0,0,0,0,0,0,0,0,0,0,0],"id":12,"left_children":[1,3,5,7,-1,9,11,13,15,17,-1,19,21,23,25,27,29,-1,-1,31,33,35,37,39,41,43,-1,-1,-1,45,47,49,51,-1,53,55,57,59,61,-1,-1,-1,-1,-1,-1,-1,-1,-1,-1,-1,-1,-1,-1,-1,-1,-1,-1,-1,-1,-1,-1,-1,-1],"loss_changes":[9.575939E2,4.4220947E1,1.2314024E2,2.7425568E1,0E0,1.03027344E-1,1.3001292E2,3.5837708E0,2.4909698E1,5.0885653E-1,0E0,5.342196E1,1.356311E1,5.210182E0,8.609619E-1,3.7522793E-1,1.109227E1,0E0,0E0,1.7485554E1,3.8846893E0,1.1528648E1,5.2625732E0,2.8765204E0,4.2445374E0,1.3718128E0,0E0,0E0,0E0,1.1456619E1,3.9591293E0,2.5134245E1,1.2878246E0,0E0,1.9779904E0,2.8373573E0,1.242712E0,5.9523277E0,1.5566864E0,0E0,0E0,0E0,0E0,0E0,0E0,0E0,0E0,0E0,0E0,0E0,0E0,0E0,0E0,0E0,0E0,0E0,0E0,0E0,0E0,0E0,0E0,0E0,0E0],"parents":[2147483647,0,0,1,1,2,2,3,3,5,5,6,6,7,7,8,8,9,9,11,11,12,12,13,13,14,14,15,15,16,16,19,19,20,20,21,21,22,22,23,23,24,24,25,25,29,29,30,30,31,31,32,32,34,34,35,35,36,36,37,37,38,38],"right_children":[2,4,6,8,-1,10,12,14,16,18,-1,20,22,24,26,28,30,-1,-1,32,34,36,38,40,42,44,-1,-1,-1,46,48,50,52,-1,54,56,58,60,62,-1,-1,-1,-1,-1,-1,-1,-1,-1,-1,-1,-1,-1,-1,-1,-1,-1,-1,-1,-1,-1,-1,-1,-1],"split_conditions":[1E0,8E0,1E0,7.0710677E-1,9.7327314E-2,2.8168817E0,1E0,7E0,5.517055E0,1.7992003E0,9.4127394E-2,-1.8369701E-16,2.326905E-1,1E0,-9.659258E-1,1E0,1.94308E-1,6.1986044E-2,3.4796866E-3,1E1,9.745118E-4,5.6369056E-5,4E0,1E0,1E0,5.517055E0,9.747371E-2,-4.157878E-2,-3.6298675E-3,1.7702244E1,1E0,1E0,4.631484E0,-4.455721E-2,1.39783E-2,9E0,4E0,9.0938944E-1,1E0,-1.7999688E-2,6.884365E-2,3.7774115E-3,8.078025E-2,3.3360775E-4,7.439994E-2,6.4757064E-2,1.717415E-2,3.6142398E-2,9.515983E-2,7.221076E-3,1.0066455E-1,1.3410559E-2,-3.7471622E-2,-7.730009E-3,-3.9054897E-2,-3.5244282E-2,3.1225452E-2,7.527034E-3,9.481363E-2,3.6040973E-2,9.7453214E-2,2.5716487E-3,8.3391614E-2],"split_indices":[2,1,1,15,0,26,11,13,25,26,0,15,28,0,15,0,28,0,0,13,21,21,16,7,16,25,0,0,0,25,0,7,24,0,21,1,4,28,0,0,0,0,0,0,0,0,0,0,0,0,0,0,0,0,0,0,0,0,0,0,0,0,0],"split_type":[0,0,0,0,0,0,0,0,0,0,0,0,0,0,0,0,0,0,0,0,0,0,0,0,0,0,0,0,0,0,0,0,0,0,0,0,0,0,0,0,0,0,0,0,0,0,0,0,0,0,0,0,0,0,0,0,0,0,0,0,0,0,0],"sum_hessian":[2.1831204E3,1.4421638E3,7.4095654E2,3.6323004E2,1.0789337E3,5.4558052E1,6.863985E2,2.0435788E2,1.5887215E2,2.553533E0,5.200452E1,5.6026074E2,1.2613775E2,7.896855E1,1.25389336E2,1.4887162E1,1.4398499E2,1.3042302E0,1.2493029E0,1.336297E2,4.2663104E2,2.5360876E1,1.0077687E2,6.711308E0,7.225724E1,1.832523E1,1.0706411E2,1.3262928E1,1.6242337E0,1.0022348E2,4.37615E1,9.914666E1,3.448304E1,3.8594464E2,4.0686417E1,1.9569056E1,5.7918196E0,6.3317917E1,3.745895E1,4.9603615E0,1.7509468E0,3.8002136E0,6.845702E1,1.3245101E0,1.700072E1,5.0689262E1,4.9534218E1,8.592167E0,3.5169334E1,8.311212E1,1.6034533E1,2.1429207E0,3.234012E1,2.4230341E1,1.6456076E1,1.6549097E1,3.019959E0,1.1438122E0,4.6480074E0,5.4583897E1,8.73402E0,1.2724562E0,3.6186497E1],"tree_param":{"num_deleted":"0","num_feature":"29","num_nodes":"63","size_leaf_vector":"1"}},{"base_weights":[-8.4040664E-2,-4.2933974E-1,4.05804E-1,-1.3522276E-2,-6.088153E-1,-5.2101386E-1,4.6090835E-1,-2.4345894E-1,5.149209E-1,-4.660123E-1,-6.119371E-1,2.83587E-2,-5.6194705E-1,1.917039E-1,5.537052E-1,-1.8218035E-2,-5.310035E-1,-3.950037E-2,6.049541E-1,-5.4645056E-1,-3.5254825E-2,-3.5382485E-1,-6.130822E-1,-2.4666688E-1,-4.061752E-2,4.1049022E-2,9.518883E-1,4.5354787E-1,8.175242E-1,-4.328204E-2,1.4331307E-1,1.11385964E-1,-5.6481886E-1,2.3756841E-1,9.125713E-1,1.1794748E-3,-4.1858774E-2,4.7031395E-2,-3.135695E-2,-3.443125E-2,3.496501E-3,-5.615622E-1,-6.2233055E-1,-3.0358525E-2,1.0672278E-2,-1.8482122E-1,9.226018E-1,9.9681E-2,-3.9943814E-1,1.04383744E-1,4.2776945E-1,9.7092146E-1,-3.460273E-1,-1.2900032E-2,2.5983782E-2,-3.266463E-2,4.5477487E-2,-2.6831318E-2,-4.3336302E-2,2.4148222E-2,-3.8508866E-2,8.398441E-2,3.515873E-2,1.158133E-2,-3.9821368E-2,-2.0723576E-2,-4.3666087E-2,-3.217763E-2,7.8474574E-2,8.42282E-2,-2.9939055E-2,7.436642E-4,-4.099831E-2,2.771264E-2,8.0174506E-2,7.724407E-2,1.874019E-2,1.7917663E-2,-3.0092025E-2],"categories":[],"categories_nodes":[],"categories_segments":[],"categories_sizes":[],"default_left":[0,0,0,0,0,0,0,0,0,0,0,0,0,0,0,0,0,0,0,0,0,0,0,0,0,0,0,0,0,0,0,0,0,0,0,0,0,0,0,0,0,0,0,0,0,0,0,0,0,0,0,0,0,0,0,0,0,0,0,0,0,0,0,0,0,0,0,0,0,0,0,0,0,0,0,0,0,0,0],"id":13,"left_children":[1,3,5,7,9,11,13,15,17,19,21,-1,23,25,27,29,31,-1,33,35,37,39,41,43,-1,45,47,49,51,-1,53,55,57,59,61,-1,-1,-1,-1,-1,-1,63,65,-1,-1,67,69,-1,71,-1,73,75,77,-1,-1,-1,-1,-1,-1,-1,-1,-1,-1,-1,-1,-1,-1,-1,-1,-1,-1,-1,-1,-1,-1,-1,-1,-1,-1],"loss_changes":[3.2525522E2,8.4156494E1,4.085016E1,4.156419E1,6.600952E-2,1.9371138E0,1.8656433E1,1.5425233E1,1.0419464E1,7.0995045E-1,9.979248E-3,0E0,1.0848808E-1,2.2185781E1,1.4373566E1,1.3142829E1,2.3360634E0,0E0,1.0657131E1,5.228548E-1,1.5793676E0,3.4538227E-1,1.4007568E-2,3.7455577E-1,0E0,3.2627983E1,2.1018469E1,1.0240936E1,2.7519852E1,0E0,8.050529E0,2.1912873E0,7.436218E-1,4.0139203E0,5.527111E0,0E0,0E0,0E0,0E0,0E0,0E0,7.6602936E-1,1.21292114E-1,0E0,0E0,4.738989E1,1.3177626E1,0E0,6.9971E-1,0E0,8.655441E0,1.2273064E1,1.0428202E0,0E0,0E0,0E0,0E0,0E0,0E0,0E0,0E0,0E0,0E0,0E0,0E0,0E0,0E0,0E0,0E0,0E0,0E0,0E0,0E0,0E0,0E0,0E0,0E0,0E0,0E0],"parents":[2147483647,0,0,1,1,2,2,3,3,4,4,5,5,6,6,7,7,8,8,9,9,10,10,12,12,13,13,14,14,15,15,16,16,18,18,19,19,20,20,21,21,22,22,23,23,25,25,26,26,27,27,28,28,30,30,31,31,32,32,33,33,34,34,41,41,42,42,45,45,46,46,48,48,50,50,51,51,52,52],"right_children":[2,4,6,8,10,12,14,16,18,20,22,-1,24,26,28,30,32,-1,34,36,38,40,42,44,-1,46,48,50,52,-1,54,56,58,60,62,-1,-1,-1,-1,-1,-1,64,66,-1,-1,68,70,-1,72,-1,74,76,78,-1,-1,-1,-1,-1,-1,-1,-1,-1,-1,-1,-1,-1,-1,-1,-1,-1,-1,-1,-1,-1,-1,-1,-1,-1,-1],"split_conditions":[1E0,9E0,1E0,2.1E1,2.3028355E-2,2.8168817E0,1.7357647E-2,7E0,2E0,7.762971E1,3.5200572E-1,2.83587E-2,7.747293E1,1E0,1E0,2E0,1.1015337E0,-3.950037E-2,7.886522E0,2E0,7.76414E1,7E0,3E0,1.6968979E1,-4.061752E-2,1E0,1E0,6.9181603E-1,1E0,-4.328204E-2,8.475318E0,8.0401945E-1,2E0,1E0,4E0,1.1794748E-3,-4.1858774E-2,4.7031395E-2,-3.135695E-2,-3.443125E-2,3.496501E-3,7.750545E1,4.6670696E-1,-3.0358525E-2,1.0672278E-2,1E0,1E0,9.9681E-2,6.2357173E-3,1.04383744E-1,6.647365E-2,1E0,7.749543E1,-1.2900032E-2,2.5983782E-2,-3.266463E-2,4.5477487E-2,-2.6831318E-2,-4.3336302E-2,2.4148222E-2,-3.8508866E-2,8.398441E-2,3.515873E-2,1.158133E-2,-3.9821368E-2,-2.0723576E-2,-4.3666087E-2,-3.217763E-2,7.8474574E-2,8.42282E-2,-2.9939055E-2,7.436642E-4,-4.099831E-2,2.771264E-2,8.0174506E-2,7.724407E-2,1.874019E-2,1.7917663E-2,-3.0092025E-2],"split_indices":[2,1,1,13,28,26,28,13,1,19,22,0,19,10,9,1,27,0,23,17,19,5,13,24,0,7,7,28,11,0,22,27,17,7,1,0,0,0,0,0,0,19,27,0,0,11,11,0,21,0,21,10,19,0,0,0,0,0,0,0,0,0,0,0,0,0,0,0,0,0,0,0,0,0,0,0,0,0,0],"split_type":[0,0,0,0,0,0,0,0,0,0,0,0,0,0,0,0,0,0,0,0,0,0,0,0,0,0,0,0,0,0,0,0,0,0,0,0,0,0,0,0,0,0,0,0,0,0,0,0,0,0,0,0,0,0,0,0,0,0,0,0,0,0,0,0,0,0,0,0,0,0,0,0,0,0,0,0,0,0,0],"sum_hessian":[1.9209309E3,1.126774E3,7.9415686E2,3.400366E2,7.867374E2,4.4092693E1,7.500642E2,2.3731511E2,1.0272148E2,2.0045574E1,7.6669183E2,1.4897189E0,4.2602974E1,1.9306032E2,5.5700385E2,1.3367078E2,1.0364434E2,7.5040665E0,9.5217415E1,1.6665024E1,3.3805518E0,4.7554092E0,7.619364E2,3.1318812E0,3.9471096E1,1.6200737E2,3.105295E1,4.0570102E2,1.5130286E2,2.7750036E1,1.0592073E2,5.0682917E0,9.857605E1,4.420084E1,5.101657E1,1.4531815E0,1.5211842E1,1.0144219E0,2.3661299E0,3.3811927E0,1.3742166E0,1.2535309E2,6.365834E2,2.0736113E0,1.05827E0,1.2959346E2,3.241391E1,2.2972898E1,8.080052E0,8.456545E0,3.9724448E2,1.3382547E2,1.7477379E1,4.3531876E1,6.238886E1,2.508141E0,2.5601506E0,2.4545229E1,7.403082E1,3.939164E1,4.809202E0,2.8878183E1,2.213839E1,1.0332836E0,1.243198E2,3.7642026E0,6.3281915E2,1.0759514E2,2.199832E1,2.6926233E1,5.4876785E0,2.8182373E0,5.261815E0,3.8183524E2,1.5409225E1,1.12119865E2,2.1705614E1,1.886008E0,1.5591372E1],"tree_param":{"num_deleted":"0","num_feature":"29","num_nodes":"79","size_leaf_vector":"1"}},{"base_weights":[-6.27512E-1,-4.9112526E-1,-4.4515904E-2,-4.3970317E-2,-3.0283317E-1,-5.8886564E-1,1.9061717E-1,-2.142292E-1,-4.334424E-2,6.275423E-1,-3.889237E-2,-2.857433E-2,1.0183579E-2,-2.7257012E-2,8.050182E-1,6.668323E-2,-1.7712864E-3],"categories":[],"categories_nodes":[],"categories_segments":[],"categories_sizes":[],"default_left":[0,0,0,0,0,0,0,0,0,0,0,0,0,0,0,0,0],"id":14,"left_children":[1,3,-1,-1,5,7,9,11,-1,13,-1,-1,-1,-1,15,-1,-1],"loss_changes":[1.7409058E0,2.6051788E0,0E0,0E0,6.8260026E0,2.1237278E-1,6.286007E0,3.247466E-1,0E0,2.4711027E0,0E0,0E0,0E0,0E0,1.3114996E0,0E0,0E0],"parents":[2147483647,0,0,1,1,4,4,5,5,6,6,7,7,9,9,14,14],"right_children":[2,4,-1,-1,6,8,10,12,-1,14,-1,-1,-1,-1,16,-1,-1],"split_conditions":[1E0,1E0,-4.4515904E-2,-4.3970317E-2,7.0710677E-1,2.3048806E0,5.6369056E-5,1.297625E1,-4.334424E-2,4E0,-3.889237E-2,-2.857433E-2,1.0183579E-2,-2.7257012E-2,1E0,6.668323E-2,-1.7712864E-3],"split_indices":[0,2,0,0,15,27,21,18,0,4,0,0,0,0,9,0,0],"split_type":[0,0,0,0,0,0,0,0,0,0,0,0,0,0,0,0,0],"sum_hessian":[1.7849435E3,1.0734825E2,1.6775952E3,6.0781155E1,4.6567097E1,2.9356815E1,1.721028E1,2.8031127E0,2.6553703E1,1.0954996E1,6.255284E0,1.7334943E0,1.0696185E0,1.4503778E0,9.504619E0,7.9450126E0,1.5596056E0],"tree_param":{"num_deleted":"0","num_feature":"29","num_nodes":"17","size_leaf_vector":"1"}},{"base_weights":[-2.7498773E-1,-4.454618E-2,2.2406407E-1,-5.045913E-1,3.9166343E-1,-1.5246245E-1,-4.428496E-2,-6.21463E-1,5.561629E-1,8.225789E-1,-2.6314506E-1,1.0765499E-2,-4.427272E-2,7.010827E-1,-3.246704E-1,2.0874878E-2,7.277351E-2,-6.1638266E-2,-4.9949893E-1,8.100126E-1,-4.6350867E-1,-4.3354504E-2,-8.925196E-2,2.1486597E-2,-3.458766E-2,-3.8392738E-2,5.486391E-3,9.1613874E-2,4.0856227E-2,4.4193693E-2,-4.204588E-2,1.6989764E-2,-2.1367464E-2],"categories":[],"categories_nodes":[],"categories_segments":[],"categories_sizes":[],"default_left":[0,0,0,0,0,0,0,0,0,0,0,0,0,0,0,0,0,0,0,0,0,0,0,0,0,0,0,0,0,0,0,0,0],"id":15,"left_children":[1,-1,3,5,7,9,-1,11,13,15,17,-1,-1,19,21,-1,-1,23,25,27,29,-1,31,-1,-1,-1,-1,-1,-1,-1,-1,-1,-1],"loss_changes":[3.3582098E2,0E0,9.575482E1,6.520973E0,1.0645943E2,4.582278E0,0E0,8.600731E-1,7.02182E1,1.8691301E-1,1.7355876E0,0E0,0E0,6.0145233E1,5.366086E0,0E0,0E0,3.5247395E0,5.2199364E-1,4.7918182E1,6.525914E0,0E0,3.2728071E0,0E0,0E0,0E0,0E0,0E0,0E0,0E0,0E0,0E0,0E0],"parents":[2147483647,0,0,2,2,3,3,4,4,5,5,7,7,8,8,9,9,10,10,13,13,14,14,17,17,18,18,19,19,20,20,22,22],"right_children":[2,-1,4,6,8,10,-1,12,14,16,18,-1,-1,20,22,-1,-1,24,26,28,30,-1,32,-1,-1,-1,-1,-1,-1,-1,-1,-1,-1],"split_conditions":[1E0,-4.454618E-2,6.123234E-17,-7.0710677E-1,-7.0710677E-1,1.0092128E-3,-4.428496E-2,3.4174385E0,2.5158563E0,7.758402E1,5E0,1.0765499E-2,-4.427272E-2,1E0,1E0,2.0874878E-2,7.277351E-2,1E0,1.3066998E1,1.7357647E-2,3E0,-4.3354504E-2,8E0,2.1486597E-2,-3.458766E-2,-3.8392738E-2,5.486391E-3,9.1613874E-2,4.0856227E-2,4.4193693E-2,-4.204588E-2,1.6989764E-2,-2.1367464E-2],"split_indices":[2,0,15,15,14,28,0,24,28,19,20,0,0,7,1,0,0,7,18,28,1,0,1,0,0,0,0,0,0,0,0,0,0],"split_type":[0,0,0,0,0,0,0,0,0,0,0,0,0,0,0,0,0,0,0,0,0,0,0,0,0,0,0,0,0,0,0,0,0],"sum_hessian":[1.860256E3,1.0787839E3,7.8147205E2,1.4575905E2,6.35713E2,3.9454185E1,1.06304855E2,8.841305E1,5.473E2,3.3664134E0,3.6087772E1,1.0558147E0,8.735723E1,4.7015195E2,7.7148026E1,1.6804632E0,1.6859503E0,2.0160473E1,1.5927301E1,4.302162E2,3.9935757E1,3.353745E1,4.3610577E1,1.1040788E1,9.119684E0,1.4729984E1,1.1973166E0,1.3280476E2,2.974114E2,4.0445557E0,3.58912E1,1.7141867E1,2.6468712E1],"tree_param":{"num_deleted":"0","num_feature":"29","num_nodes":"33","size_leaf_vector":"1"}},{"base_weights":[7.6302016E-1,1.1774489E0,-9.892786E-2,9.090468E-1,8.8589616E-2,8.415066E-2,-2.2107753E-1,1.1057531E0,6.445846E-1,6.463536E-1,-4.3499956E-1,1.1896433E0,8.826226E-1,-1.7526166E-1,8.044758E-1,5.415782E-3,8.0621463E-1,-5.8529204E-1,2.5423852E-1,1.234293E0,7.985643E-1,4.2737302E-1,1.0519359E0,-5.374415E-1,7.866898E-2,5.7918024E-1,9.0772726E-2,-3.711577E-1,9.38241E-1,7.1822757E-1,9.416424E-2,-4.3835238E-2,-2.8639683E-1,6.0893014E-2,1.2823641E0,4.618911E-2,8.7424144E-2,2.6998801E-2,7.758779E-2,-4.270985E-3,5.3164728E-2,7.678169E-2,-2.5050774E-2,-4.3635044E-2,3.4994677E-2,1.3189326E-2,5.355759E-2,-3.5360433E-2,5.0853483E-2,1.6112017E-3,7.759169E-2,1.6130427E-2,5.6871593E-2,-4.238551E-2,-8.683354E-3,-7.7975453E-3,5.416788E-2,3.96226E-2,9.7128116E-2],"categories":[],"categories_nodes":[],"categories_segments":[],"categories_sizes":[],"default_left":[0,0,0,0,0,0,0,0,0,0,0,0,0,0,0,0,0,0,0,0,0,0,0,0,0,0,0,0,0,0,0,0,0,0,0,0,0,0,0,0,0,0,0,0,0,0,0,0,0,0,0,0,0,0,0,0,0,0,0],"id":16,"left_children":[1,3,5,7,-1,-1,9,11,13,15,17,19,21,23,25,27,29,31,33,35,37,39,41,43,-1,45,-1,47,49,51,-1,-1,53,55,57,-1,-1,-1,-1,-1,-1,-1,-1,-1,-1,-1,-1,-1,-1,-1,-1,-1,-1,-1,-1,-1,-1,-1,-1],"loss_changes":[7.9610974E2,3.4441406E1,1.15398605E2,1.8821136E1,0E0,0E0,1.2332955E2,2.9544983E0,2.1450584E1,1.34778595E1,5.531172E1,1.6790619E0,4.3548393E0,1.3472831E1,1.4355797E1,9.929139E0,4.0280457E0,5.1723175E0,1.9011045E1,3.110962E-1,1.9352169E0,3.0603397E0,3.2280197E0,2.2781672E0,0E0,6.776232E0,0E0,3.3300874E0,1.2405887E0,4.072342E0,0E0,0E0,2.7500238E0,1.0143328E1,3.5609818E-1,0E0,0E0,0E0,0E0,0E0,0E0,0E0,0E0,0E0,0E0,0E0,0E0,0E0,0E0,0E0,0E0,0E0,0E0,0E0,0E0,0E0,0E0,0E0,0E0],"parents":[2147483647,0,0,1,1,2,2,3,3,6,6,7,7,8,8,9,9,10,10,11,11,12,12,13,13,14,14,15,15,16,16,17,17,18,18,19,19,20,20,21,21,22,22,23,23,25,25,27,27,28,28,29,29,32,32,33,33,34,34],"right_children":[2,4,6,8,-1,-1,10,12,14,16,18,20,22,24,26,28,30,32,34,36,38,40,42,44,-1,46,-1,48,50,52,-1,-1,54,56,58,-1,-1,-1,-1,-1,-1,-1,-1,-1,-1,-1,-1,-1,-1,-1,-1,-1,-1,-1,-1,-1,-1,-1,-1],"split_conditions":[1E0,8E0,1E0,7.0710677E-1,8.8589616E-2,8.415066E-2,-7.0710677E-1,1E0,1E0,2.1464644E-1,1E0,1E0,1.1720216E-2,1E0,1.7357647E-2,9E0,1E0,9.745118E-4,1E0,1.1015337E0,3.8E1,6.6197534E0,7.766435E1,3.3227987E0,7.866898E-2,7.7585594E1,9.0772726E-2,4.5280107E-3,3E0,2E0,9.416424E-2,-4.3835238E-2,1E0,1.059479E0,1.0092128E-3,4.618911E-2,8.7424144E-2,2.6998801E-2,7.758779E-2,-4.270985E-3,5.3164728E-2,7.678169E-2,-2.5050774E-2,-4.3635044E-2,3.4994677E-2,1.3189326E-2,5.355759E-2,-3.5360433E-2,5.0853483E-2,1.6112017E-3,7.759169E-2,1.6130427E-2,5.6871593E-2,-4.238551E-2,-8.683354E-3,-7.7975453E-3,5.416788E-2,3.96226E-2,9.7128116E-2],"split_indices":[2,1,1,15,0,0,14,12,0,28,10,14,28,7,28,1,7,21,7,27,6,24,19,28,0,19,0,21,17,17,0,0,0,28,28,0,0,0,0,0,0,0,0,0,0,0,0,0,0,0,0,0,0,0,0,0,0,0,0],"split_type":[0,0,0,0,0,0,0,0,0,0,0,0,0,0,0,0,0,0,0,0,0,0,0,0,0,0,0,0,0,0,0,0,0,0,0,0,0,0,0,0,0,0,0,0,0,0,0,0,0,0,0,0,0,0,0,0,0,0,0],"sum_hessian":[2.2273254E3,1.5038846E3,7.2344086E2,3.744968E2,1.1293878E3,6.1330963E1,6.6210986E2,2.1293515E2,1.6156165E2,1.3058403E2,5.315259E2,1.516048E2,6.1330353E1,2.635085E1,1.3521078E2,2.6274483E1,1.0430955E2,4.3649606E2,9.5029785E1,1.3413445E2,1.7470346E1,1.7581465E1,4.3748886E1,2.1064526E1,5.286322E0,9.4251976E1,4.0958813E1,1.9147083E1,7.127398E0,9.1676414E1,1.2633138E1,3.829644E2,5.353168E1,8.087917E1,1.4150611E1,4.4747915E0,1.2965965E2,8.452214E0,9.018131E0,7.4469757E0,1.0134488E1,4.261234E1,1.1365467E0,1.9821936E1,1.2425895E0,3.1036545E1,6.321543E1,1.7545092E1,1.6019917E0,1.2956971E0,5.831701E0,1.5399472E1,7.627694E1,1.7130524E1,3.6401157E1,6.581756E1,1.5061617E1,2.6288073E0,1.1521804E1],"tree_param":{"num_deleted":"0","num_feature":"29","num_nodes":"59","size_leaf_vector":"1"}},{"base_weights":[-7.168074E-2,4.0409455E-1,-4.2193288E-1,-4.608526E-1,4.525779E-1,-5.582934E-3,-5.980892E-1,4.306937E-1,-5.2249336E-1,7.778843E-1,3.6943936E-1,-3.0979335E-1,3.2299918E-1,-4.330293E-2,-5.647738E-1,6.3298703E-3,4.0270712E-2,-3.7554386E-1,-5.7737327E-1,8.5342795E-1,1.1053896E-1,6.505344E-2,4.7058892E-1,-1.0604851E-2,-5.172513E-1,-4.1489024E-2,4.281936E-1,-1.949221E-3,-5.67702E-1,1.2522228E-2,-3.0302202E-2,-4.2741172E-2,-2.329462E-1,9.6702445E-1,4.201871E-1,2.2397493E-1,-3.3080585E-2,-1.5090388E-1,9.3614405E-1,2.976083E-1,5.7685953E-1,-4.195847E-2,1.9497113E-1,3.931017E-1,-5.63399E-1,5.307854E-1,-4.3219153E-2,-2.636589E-1,-5.7306933E-1,-2.9909423E-2,1.2245546E-2,5.175695E-3,7.148897E-2,7.290142E-2,-3.8637787E-2,-6.289314E-3,6.205878E-2,-2.8051574E-2,7.443901E-2,-3.702622E-2,8.017069E-2,2.7528197E-2,-1.3380845E-3,3.5325073E-2,8.7655604E-2,2.1782504E-2,-3.9964907E-2,-2.6502322E-2,5.3328004E-2,-1.4525309E-2,-4.286867E-2,8.4143534E-2,3.0005222E-2,1.4523854E-2,-3.5308406E-2,-3.4014102E-2,-4.1278686E-2],"categories":[],"categories_nodes":[],"categories_segments":[],"categories_sizes":[],"default_left":[0,0,0,0,0,0,0,0,0,0,0,0,0,0,0,0,0,0,0,0,0,0,0,0,0,0,0,0,0,0,0,0,0,0,0,0,0,0,0,0,0,0,0,0,0,0,0,0,0,0,0,0,0,0,0,0,0,0,0,0,0,0,0,0,0,0,0,0,0,0,0,0,0,0,0,0,0],"id":17,"left_children":[1,3,5,7,9,11,13,15,17,19,21,23,25,-1,27,-1,-1,29,31,33,35,37,39,41,43,-1,45,-1,47,-1,-1,-1,49,51,53,55,-1,57,59,61,63,-1,65,67,69,71,-1,73,75,-1,-1,-1,-1,-1,-1,-1,-1,-1,-1,-1,-1,-1,-1,-1,-1,-1,-1,-1,-1,-1,-1,-1,-1,-1,-1,-1,-1],"loss_changes":[3.132714E2,3.363948E1,7.940425E1,2.577651E0,2.0142487E1,3.237671E1,1.7080688E-1,1.1116344E-1,1.0972881E-1,7.6116104E0,1.8551315E1,1.0433252E1,1.5253969E1,0E0,4.5824432E-1,0E0,0E0,5.1845706E-1,1.7376137E-1,6.3440247E0,1.2099905E0,2.8677963E1,8.152756E0,8.576098E0,4.39287E0,0E0,1.5373215E1,0E0,3.3818054E-1,0E0,0E0,0E0,3.9547068E-1,5.151909E0,1.8851667E1,3.1263638E0,0E0,3.7565567E1,9.882919E0,5.2908773E0,1.2997017E1,0E0,4.8551984E0,1.819186E0,1.528471E0,8.278767E0,0E0,9.046713E-1,1.391449E-1,0E0,0E0,0E0,0E0,0E0,0E0,0E0,0E0,0E0,0E0,0E0,0E0,0E0,0E0,0E0,0E0,0E0,0E0,0E0,0E0,0E0,0E0,0E0,0E0,0E0,0E0,0E0,0E0],"parents":[2147483647,0,0,1,1,2,2,3,3,4,4,5,5,6,6,7,7,8,8,9,9,10,10,11,11,12,12,14,14,17,17,18,18,19,19,20,20,21,21,22,22,23,23,24,24,26,26,28,28,32,32,33,33,34,34,35,35,37,37,38,38,39,39,40,40,42,42,43,43,44,44,45,45,47,47,48,48],"right_children":[2,4,6,8,10,12,14,16,18,20,22,24,26,-1,28,-1,-1,30,32,34,36,38,40,42,44,-1,46,-1,48,-1,-1,-1,50,52,54,56,-1,58,60,62,64,-1,66,68,70,72,-1,74,76,-1,-1,-1,-1,-1,-1,-1,-1,-1,-1,-1,-1,-1,-1,-1,-1,-1,-1,-1,-1,-1,-1,-1,-1,-1,-1,-1,-1],"split_conditions":[1E0,1E0,9E0,2.8168817E0,-1.8369701E-16,7.0710677E-1,7.0710677E-1,1.2246469E-16,5.7077456E0,1.2E1,1.7357647E-2,7E0,2E0,-4.330293E-2,7.750267E1,6.3298703E-3,4.0270712E-2,-5E-1,9E0,5.6369056E-5,1.4990083E1,6.9835725E-5,-2.5881904E-1,2E0,1.1015337E0,-4.1489024E-2,1.7382846E-4,-1.949221E-3,2.3028355E-2,1.2522228E-2,-3.0302202E-2,-4.2741172E-2,8.660254E-1,3E0,-7.0710677E-1,8.63071E0,-3.3080585E-2,1E0,-8.660254E-1,1.2E1,6.078057E0,-4.195847E-2,5.6369056E-5,6.715686E0,-9.659258E-1,5.517055E0,-4.3219153E-2,4.3814235E0,2E0,-2.9909423E-2,1.2245546E-2,5.175695E-3,7.148897E-2,7.290142E-2,-3.8637787E-2,-6.289314E-3,6.205878E-2,-2.8051574E-2,7.443901E-2,-3.702622E-2,8.017069E-2,2.7528197E-2,-1.3380845E-3,3.5325073E-2,8.7655604E-2,2.1782504E-2,-3.9964907E-2,-2.6502322E-2,5.3328004E-2,-1.4525309E-2,-4.286867E-2,8.4143534E-2,3.0005222E-2,1.4523854E-2,-3.5308406E-2,-3.4014102E-2,-4.1278686E-2],"split_indices":[8,1,1,26,15,15,15,14,22,1,28,13,1,0,19,0,0,14,4,21,22,21,14,1,27,0,21,0,28,0,0,0,14,1,15,22,0,11,14,17,28,0,21,22,15,25,0,23,17,0,0,0,0,0,0,0,0,0,0,0,0,0,0,0,0,0,0,0,0,0,0,0,0,0,0,0,0],"split_type":[0,0,0,0,0,0,0,0,0,0,0,0,0,0,0,0,0,0,0,0,0,0,0,0,0,0,0,0,0,0,0,0,0,0,0,0,0,0,0,0,0,0,0,0,0,0,0,0,0,0,0,0,0,0,0,0,0,0,0,0,0,0,0,0,0,0,0,0,0,0,0,0,0,0,0,0,0],"sum_hessian":[1.8778911E3,7.961982E2,1.0816929E3,4.180938E1,7.543888E2,3.2190173E2,7.5979114E2,2.3165548E0,3.9492825E1,1.5185406E2,6.025347E2,1.671795E2,1.5472223E2,4.5928143E2,3.0050974E2,1.1755909E0,1.140964E0,1.2871196E1,2.6621628E1,1.3616168E2,1.5692374E1,1.506954E2,4.5183932E2,6.8885864E1,9.829364E1,1.5465282E1,1.3925696E2,1.6869875E0,2.9882272E2,1.0078026E0,1.1863393E1,2.3575365E1,3.0462625E0,1.069002E2,2.9261488E1,1.3652426E1,2.0399485E0,1.2142016E2,2.9275238E1,1.7339626E2,2.7844308E2,1.7331108E1,5.155476E1,4.379582E0,9.3914055E1,1.27262726E2,1.1994225E1,6.0531855E0,2.9276956E2,2.0310435E0,1.015219E0,6.256676E0,1.00643524E2,1.780916E1,1.1452328E1,9.851014E0,3.8014116E0,1.0125751E2,2.016265E1,3.4661472E0,2.580909E1,1.329909E2,4.0405346E1,2.5312411E2,2.5318972E1,4.5278496E1,6.276264E0,1.4073532E0,2.972229E0,1.2001068E1,8.191299E1,1.5384729E1,1.11878E2,2.093793E0,3.9593928E0,5.17458E1,2.4102374E2],"tree_param":{"num_deleted":"0","num_feature":"29","num_nodes":"77","size_leaf_vector":"1"}},{"base_weights":[-6.1753684E-1,-4.6591264E-1,-4.391601E-2,-4.341368E-2,-2.512783E-1,-4.2532E-2,1.068658E-1,4.7418916E-1,-3.9543904E-2,-2.4972114E-1,6.559208E-1,-3.004394E-2,7.2873496E-3,5.3957507E-2,-2.3632659E-2],"categories":[],"categories_nodes":[],"categories_segments":[],"categories_sizes":[],"default_left":[0,0,0,0,0,0,0,0,0,0,0,0,0,0,0],"id":18,"left_children":[1,3,-1,-1,5,-1,7,9,-1,11,13,-1,-1,-1,-1],"loss_changes":[2.2629395E0,3.4291725E0,0E0,0E0,6.057269E0,0E0,6.256449E0,2.2994258E0,0E0,2.9753947E-1,1.7730107E0,0E0,0E0,0E0,0E0],"parents":[2147483647,0,0,1,1,4,4,6,6,7,7,9,9,10,10],"right_children":[2,4,-1,-1,6,-1,8,10,-1,12,14,-1,-1,-1,-1],"split_conditions":[1E0,1E0,-4.391601E-2,-4.341368E-2,5E-1,-4.2532E-2,1E0,1.291671E1,-3.9543904E-2,7E0,1.6707647E1,-3.004394E-2,7.2873496E-3,5.3957507E-2,-2.3632659E-2],"split_indices":[0,2,0,0,15,0,7,18,0,1,23,0,0,0,0],"split_type":[0,0,0,0,0,0,0,0,0,0,0,0,0,0,0],"sum_hessian":[1.7125714E3,1.0726146E2,1.6053099E3,6.1304905E1,4.5956554E1,2.2687738E1,2.3268816E1,1.5233427E1,8.03539E0,2.9817598E0,1.2251667E1,1.8369471E0,1.1448126E0,1.1182574E1,1.0690932E0],"tree_param":{"num_deleted":"0","num_feature":"29","num_nodes":"15","size_leaf_vector":"1"}},{"base_weights":[-2.5752595E-1,2.2967768E-1,-4.3933757E-2,3.6162543E-1,-6.1596537E-1,-4.2623967E-1,5.421876E-1,1.0623514E-2,-4.3757502E-2,-6.692144E-3,-4.370866E-2,6.8537223E-1,-3.5574177E-1,9.042288E-1,-1.3559622E-1,8.547181E-1,2.0306052E-1,7.2485495E-1,-5.151985E-1,8.2381405E-2,1.9016989E-3,1.1672447E-2,-2.9324342E-2,8.002685E-2,5.2981608E-2,7.673698E-2,-1.3739143E-2,-2.7413838E-2,6.674842E-2,-4.3507915E-2,-2.2281297E-2],"categories":[],"categories_nodes":[],"categories_segments":[],"categories_sizes":[],"default_left":[0,0,0,0,0,0,0,0,0,0,0,0,0,0,0,0,0,0,0,0,0,0,0,0,0,0,0,0,0,0,0],"id":19,"left_children":[1,3,-1,5,7,9,11,-1,-1,13,-1,15,17,19,21,23,25,27,29,-1,-1,-1,-1,-1,-1,-1,-1,-1,-1,-1,-1],"loss_changes":[3.287608E2,8.80922E1,0E0,9.722819E1,8.434601E-1,1.0611971E1,7.161919E1,0E0,0E0,5.051284E0,0E0,3.896144E1,1.364259E1,1.2435026E0,3.2941844E0,9.136505E0,4.5094406E1,3.0079117E0,1.2194824E0,0E0,0E0,0E0,0E0,0E0,0E0,0E0,0E0,0E0,0E0,0E0,0E0],"parents":[2147483647,0,0,1,1,3,3,4,4,5,5,6,6,9,9,11,11,12,12,13,13,14,14,15,15,16,16,17,17,18,18],"right_children":[2,4,-1,6,8,10,12,-1,-1,14,-1,16,18,20,22,24,26,28,30,-1,-1,-1,-1,-1,-1,-1,-1,-1,-1,-1,-1],"split_conditions":[1E0,1E0,-4.3933757E-2,-1.8369701E-16,3.2798574E0,-7.0710677E-1,2.5158563E0,1.0623514E-2,-4.3757502E-2,1.0092128E-3,-4.370866E-2,1E0,1E0,4E0,1E0,5E0,5E0,3.6422534E0,1.1E1,8.2381405E-2,1.9016989E-3,1.1672447E-2,-2.9324342E-2,8.002685E-2,5.2981608E-2,7.673698E-2,-1.3739143E-2,-2.7413838E-2,6.674842E-2,-4.3507915E-2,-2.2281297E-2],"split_indices":[8,11,0,15,24,15,28,0,0,28,0,9,0,17,0,1,1,22,1,0,0,0,0,0,0,0,0,0,0,0,0],"split_type":[0,0,0,0,0,0,0,0,0,0,0,0,0,0,0,0,0,0,0,0,0,0,0,0,0,0,0,0,0,0,0],"sum_hessian":[1.8214725E3,7.8649677E2,1.0349758E3,6.808365E2,1.0566023E2,1.26687485E2,5.5414905E2,1.0597699E0,1.04600464E2,4.097423E1,8.571325E1,4.7814093E2,7.6008095E1,4.3338256E0,3.6640404E1,3.5331525E2,1.2482568E2,9.317827E0,6.669026E1,3.0453038E0,1.2885218E0,1.7924206E1,1.8716198E1,8.676417E1,2.665511E2,3.8026787E1,8.67989E1,1.4630051E0,7.8548226E0,4.1902103E1,2.4788164E1],"tree_param":{"num_deleted":"0","num_feature":"29","num_nodes":"31","size_leaf_vector":"1"}},{"base_weights":[7.017696E-1,1.0775383E0,-1.2917393E-1,8.2124686E-1,8.1972405E-2,1.1199942E0,-2.2779472E-1,1.0185091E0,5.692304E-1,2.8655441E-2,8.006608E-2,-4.1708323E-1,5.349055E-1,8.0082446E-1,1.1368325E0,-4.6237725E-1,6.567941E-1,-5.7438374E-1,2.7933303E-1,4.3133762E-1,1.1582267E0,8.3632775E-2,6.315224E-1,8.2499015E-1,8.279382E-2,-5.1008034E-1,2.071635E-3,7.1163625E-1,-1.5612413E-1,-4.3494537E-2,-2.3581469E-1,6.629743E-2,1.2094811E0,3.341425E-2,5.35397E-1,5.261618E-1,8.9209646E-2,6.786675E-2,2.9117286E-2,1.9613888E-2,8.159324E-2,-7.968789E-3,-3.9885893E-2,4.525849E-2,9.198743E-2,1.2972087E-2,-4.0146966E-2,5.3715066E-4,-3.688583E-2,-6.8093343E-3,5.3247765E-2,2.6915472E-2,8.784951E-2,6.0232107E-2,-2.9579332E-2,-1.2362432E-3,4.3041997E-2,4.8140332E-2,3.8526396E-3],"categories":[],"categories_nodes":[],"categories_segments":[],"categories_sizes":[],"default_left":[0,0,0,0,0,0,0,0,0,0,0,0,0,0,0,0,0,0,0,0,0,0,0,0,0,0,0,0,0,0,0,0,0,0,0,0,0,0,0,0,0,0,0,0,0,0,0,0,0,0,0,0,0,0,0,0,0,0,0],"id":20,"left_children":[1,3,5,7,-1,9,11,13,15,-1,-1,17,19,21,23,25,27,29,31,33,35,-1,37,39,-1,41,-1,43,45,-1,47,49,51,53,55,57,-1,-1,-1,-1,-1,-1,-1,-1,-1,-1,-1,-1,-1,-1,-1,-1,-1,-1,-1,-1,-1,-1,-1],"loss_changes":[7.023795E2,3.6150757E1,8.66431E1,2.0167053E1,0E0,4.0270233E-1,9.4172935E1,5.0865784E0,1.7060265E1,0E0,0E0,5.733551E1,7.8817863E0,4.939228E0,1.1508331E0,3.694811E-1,7.7525253E0,6.6288757E0,1.9108984E1,4.6581078E0,6.444607E-1,0E0,4.1017704E0,3.8239794E0,0E0,2.6216555E-1,0E0,5.45372E0,1.7669854E0,0E0,3.7977228E0,9.143723E0,1.9283485E-1,9.593705E0,3.9432545E0,3.0341446E-1,0E0,0E0,0E0,0E0,0E0,0E0,0E0,0E0,0E0,0E0,0E0,0E0,0E0,0E0,0E0,0E0,0E0,0E0,0E0,0E0,0E0,0E0,0E0],"parents":[2147483647,0,0,1,1,2,2,3,3,5,5,6,6,7,7,8,8,11,11,12,12,13,13,14,14,15,15,16,16,17,17,18,18,19,19,20,20,22,22,23,23,25,25,27,27,28,28,30,30,31,31,32,32,33,33,34,34,35,35],"right_children":[2,4,6,8,-1,10,12,14,16,-1,-1,18,20,22,24,26,28,30,32,34,36,-1,38,40,-1,42,-1,44,46,-1,48,50,52,54,56,58,-1,-1,-1,-1,-1,-1,-1,-1,-1,-1,-1,-1,-1,-1,-1,-1,-1,-1,-1,-1,-1,-1,-1],"split_conditions":[1E0,9E0,1E0,7.0710677E-1,8.1972405E-2,2.8168817E0,1E0,7E0,5.517055E0,2.8655441E-2,8.006608E-2,1E0,1E0,2E0,-9.659258E-1,3E0,1E1,9.745118E-4,1E0,9E0,3E0,8.3632775E-2,1.5679526E1,1E0,8.279382E-2,1.4375794E1,2.071635E-3,5.6369056E-5,1.0813858E1,-4.3494537E-2,1.7792981E-2,1.1E1,7.7519066E1,3E0,2E0,1.4774891E1,8.9209646E-2,6.786675E-2,2.9117286E-2,1.9613888E-2,8.159324E-2,-7.968789E-3,-3.9885893E-2,4.525849E-2,9.198743E-2,1.2972087E-2,-4.0146966E-2,5.3715066E-4,-3.688583E-2,-6.8093343E-3,5.3247765E-2,2.6915472E-2,8.784951E-2,6.0232107E-2,-2.9579332E-2,-1.2362432E-3,4.3041997E-2,4.8140332E-2,3.8526396E-3],"split_indices":[2,1,1,15,0,26,11,13,25,0,0,10,7,1,15,1,4,21,7,1,1,0,25,7,0,26,0,21,22,0,21,1,19,1,5,22,0,0,0,0,0,0,0,0,0,0,0,0,0,0,0,0,0,0,0,0,0,0,0],"split_type":[0,0,0,0,0,0,0,0,0,0,0,0,0,0,0,0,0,0,0,0,0,0,0,0,0,0,0,0,0,0,0,0,0,0,0,0,0,0,0,0,0,0,0,0,0,0,0,0,0,0,0,0,0,0,0,0,0,0,0],"sum_hessian":[2.2480215E3,1.547786E3,7.0023553E2,4.1632883E2,1.1314572E3,5.048002E1,6.497555E2,2.3182765E2,1.8450117E2,2.2261205E0,4.82539E1,5.209245E2,1.2883098E2,8.43723E1,1.4745535E2,1.4100428E1,1.7040076E2,4.2508517E2,9.583934E1,1.1192594E2,1.690504E1,2.3540857E1,6.0831444E1,2.136655E1,1.260888E2,1.2820506E1,1.2799215E0,1.597482E2,1.06525545E1,3.7256693E2,5.2518246E1,7.885104E1,1.6988298E1,2.347574E1,8.8450195E1,3.4836316E0,1.342141E1,2.2326124E1,3.8505318E1,8.921041E0,1.2445509E1,2.0597816E0,1.0760725E1,1.4604385E2,1.3704338E1,6.165311E0,4.4872437E0,2.9129179E1,2.3389069E1,6.45137E1,1.43373375E1,1.3822024E0,1.5606096E1,8.027848E0,1.5447892E1,1.1212809E1,7.723739E1,2.2517302E0,1.2319014E0],"tree_param":{"num_deleted":"0","num_feature":"29","num_nodes":"59","size_leaf_vector":"1"}},{"base_weights":[-6.1610915E-2,-4.0256804E-1,3.7559852E-1,1.6320141E-2,-5.9498185E-1,6.48568E-2,4.861338E-1,-3.1184697E-1,3.3949575E-1,1.9126871E-1,-5.975981E-1,-5.0393147E-3,9.523688E-1,4.053783E-1,7.0451856E-1,-4.2809132E-2,-1.4324759E-1,1.0055645E0,1.6847357E-1,4.3557957E-2,-2.3497047E-2,-4.2250883E-2,-4.8146397E-1,-9.137365E-2,7.139005E-1,1.1050925E0,-7.2185975E-3,6.9433E-1,2.4619809E-1,3.552405E-1,1.0919906E0,-1.9115381E-1,9.104037E-1,1.2436496E0,-3.6914904E-2,-4.25841E-2,3.544953E-1,-1.1144009E-1,-5.208427E-1,-2.233408E-1,5.005566E-1,-2.9575077E-1,1.1508696E0,1.2661046E0,-4.3085404E-3,3.6331837E-3,7.33091E-1,1.8843812E-1,7.022481E-1,5.089001E-1,-2.3812346E-1,1.4770133E-2,1.11078E0,-4.1753367E-2,-5.8046966E-3,8.887567E-2,1.9233593E-3,8.984019E-2,3.381541E-2,3.7302673E-2,-1.4234502E-2,2.7312202E-2,-3.1289827E-2,5.857434E-3,-3.8202476E-2,5.255492E-3,-3.3265874E-2,6.4752325E-2,-4.057771E-2,2.776597E-2,-3.779597E-2,8.605768E-2,7.0832684E-3,9.271836E-2,3.0978736E-2,-2.2758638E-2,5.122948E-2,7.590629E-2,4.6315882E-2,3.2108547E-3,2.6076116E-2,7.280621E-2,-4.015515E-2,5.281152E-2,7.859114E-3,6.879711E-2,-2.6608156E-2,2.0168087E-2,7.8818336E-2],"categories":[],"categories_nodes":[],"categories_segments":[],"categories_sizes":[],"default_left":[0,0,0,0,0,0,0,0,0,0,0,0,0,0,0,0,0,0,0,0,0,0,0,0,0,0,0,0,0,0,0,0,0,0,0,0,0,0,0,0,0,0,0,0,0,0,0,0,0,0,0,0,0,0,0,0,0,0,0,0,0,0,0,0,0,0,0,0,0,0,0,0,0,0,0,0,0,0,0,0,0,0,0,0,0,0,0,0,0],"id":21,"left_children":[1,3,5,7,9,11,13,15,17,19,21,23,25,27,29,-1,31,33,35,-1,-1,-1,37,39,41,43,-1,45,47,49,51,53,55,57,-1,-1,59,61,63,65,67,69,71,73,-1,75,77,79,81,83,85,-1,87,-1,-1,-1,-1,-1,-1,-1,-1,-1,-1,-1,-1,-1,-1,-1,-1,-1,-1,-1,-1,-1,-1,-1,-1,-1,-1,-1,-1,-1,-1,-1,-1,-1,-1,-1,-1],"loss_changes":[2.781672E2,8.450487E1,2.8054039E1,3.5204533E1,1.5920105E0,1.33853035E1,1.0348419E1,8.236214E0,1.8879017E1,9.2198336E-1,2.0729065E-1,1.2537737E1,2.653225E0,2.01846E1,2.1458565E1,0E0,5.5612783E0,1.3051041E1,1.961648E1,0E0,0E0,0E0,5.255356E-1,1.4195067E1,9.895159E0,2.678917E0,0E0,4.1911926E0,7.4251823E0,7.9968557E0,1.024437E0,4.4651136E0,1.4924119E0,2.784691E-1,0E0,0E0,1.0951064E1,1.0369647E0,5.866003E-1,1.1168978E1,1.5748251E1,1.4547675E0,1.1383533E0,1.6765594E-3,0E0,2.47133E0,3.0045166E0,6.7018375E0,1.4340961E1,6.6284904E0,3.5719905E0,0E0,6.034775E-1,0E0,0E0,0E0,0E0,0E0,0E0,0E0,0E0,0E0,0E0,0E0,0E0,0E0,0E0,0E0,0E0,0E0,0E0,0E0,0E0,0E0,0E0,0E0,0E0,0E0,0E0,0E0,0E0,0E0,0E0,0E0,0E0,0E0,0E0,0E0,0E0],"parents":[2147483647,0,0,1,1,2,2,3,3,4,4,5,5,6,6,7,7,8,8,9,9,10,10,11,11,12,12,13,13,14,14,16,16,17,17,18,18,22,22,23,23,24,24,25,25,27,27,28,28,29,29,30,30,31,31,32,32,33,33,36,36,37,37,38,38,39,39,40,40,41,41,42,42,43,43,45,45,46,46,47,47,48,48,49,49,50,50,52,52],"right_children":[2,4,6,8,10,12,14,16,18,20,22,24,26,28,30,-1,32,34,36,-1,-1,-1,38,40,42,44,-1,46,48,50,52,54,56,58,-1,-1,60,62,64,66,68,70,72,74,-1,76,78,80,82,84,86,-1,88,-1,-1,-1,-1,-1,-1,-1,-1,-1,-1,-1,-1,-1,-1,-1,-1,-1,-1,-1,-1,-1,-1,-1,-1,-1,-1,-1,-1,-1,-1,-1,-1,-1,-1,-1,-1],"split_conditions":[1E0,9E0,5E0,7.0710677E-1,1E0,1.7792981E-2,5E0,0E0,1E0,7.757424E1,1E1,1E0,1E0,2.5881904E-1,1E0,-4.2809132E-2,7.769781E1,5.6369056E-5,3E0,4.3557957E-2,-2.3497047E-2,-4.2250883E-2,9.797603E0,1E0,3E0,9.659258E-1,-7.2185975E-3,4.0986724E0,1E0,1E0,1.5304168E0,2E0,1.4E1,6E0,-3.6914904E-2,-4.25841E-2,5E0,3E0,7.751082E1,3E0,9.0938944E-1,8.8677845E0,1E0,7.758812E1,-4.3085404E-3,7.761949E1,-7.0710677E-1,7.759301E1,1E0,1E0,9E0,1.4770133E-2,8E0,-4.1753367E-2,-5.8046966E-3,8.887567E-2,1.9233593E-3,8.984019E-2,3.381541E-2,3.7302673E-2,-1.4234502E-2,2.7312202E-2,-3.1289827E-2,5.857434E-3,-3.8202476E-2,5.255492E-3,-3.3265874E-2,6.4752325E-2,-4.057771E-2,2.776597E-2,-3.779597E-2,8.605768E-2,7.0832684E-3,9.271836E-2,3.0978736E-2,-2.2758638E-2,5.122948E-2,7.590629E-2,4.6315882E-2,3.2108547E-3,2.6076116E-2,7.280621E-2,-4.015515E-2,5.281152E-2,7.859114E-3,6.879711E-2,-2.6608156E-2,2.0168087E-2,7.8818336E-2],"split_indices":[2,1,1,15,0,21,16,14,0,19,5,10,11,15,12,0,19,21,1,0,0,0,25,11,1,14,0,22,7,11,23,1,3,16,0,0,16,17,19,1,28,22,7,19,0,19,15,19,11,10,1,0,1,0,0,0,0,0,0,0,0,0,0,0,0,0,0,0,0,0,0,0,0,0,0,0,0,0,0,0,0,0,0,0,0,0,0,0,0],"split_type":[0,0,0,0,0,0,0,0,0,0,0,0,0,0,0,0,0,0,0,0,0,0,0,0,0,0,0,0,0,0,0,0,0,0,0,0,0,0,0,0,0,0,0,0,0,0,0,0,0,0,0,0,0,0,0,0,0,0,0,0,0,0,0,0,0,0,0,0,0,0,0,0,0,0,0,0,0,0,0,0,0,0,0,0,0,0,0,0,0],"sum_hessian":[1.8640068E3,1.0473285E3,8.1667834E2,3.2994583E2,7.173827E2,2.1469759E2,6.019808E2,1.6372606E2,1.6621979E2,2.1399972E0,7.152427E2,1.999452E2,1.4752386E1,4.4155606E2,1.604247E2,5.7998055E1,1.05728004E2,3.2962643E1,1.3325714E2,1.0776756E0,1.0623218E0,6.761921E2,3.9050594E1,1.7928818E2,2.0657028E1,1.2846565E1,1.9058203E0,1.5565027E2,2.859058E2,8.537874E1,7.504596E1,1.01912926E2,3.8150811E0,2.8694647E1,4.267996E0,2.5306812E1,1.0795033E2,4.124498E0,3.4926098E1,1.4711295E2,3.217522E1,6.337324E0,1.4319704E1,1.1213677E1,1.6328886E0,8.328874E0,1.473214E2,2.5502002E2,3.0885786E1,6.792976E1,1.744898E1,1.8225167E0,7.322344E1,2.0527105E1,8.138582E1,2.4003956E0,1.4146855E0,2.661509E1,2.0795577E0,8.1826706E1,2.6123625E1,1.5879523E0,2.5365455E0,1.288687E0,3.363741E1,6.7657906E1,7.945505E1,2.320181E1,8.973411E0,1.4894915E0,4.8478327E0,1.3163727E1,1.155977E0,9.9026E0,1.3110771E0,6.1196604E0,2.209213E0,2.249961E1,1.2482179E2,1.4441748E2,1.1060253E2,2.4565866E1,6.3199196E0,4.1398167E1,2.6531595E1,1.2009482E0,1.6248034E1,1.6900585E0,7.153339E1],"tree_param":{"num_deleted":"0","num_feature":"29","num_nodes":"89","size_leaf_vector":"1"}},{"base_weights":[-6.103305E-1,-4.6525463E-1,-4.339478E-2,-4.2902395E-2,-2.5927725E-1,3.9811306E-2,-4.1762833E-2,-3.6356518E-1,4.5731556E-1,-3.9544318E-2,4.4600107E-2,8.1665826E-1,-1.775333E-1,3.7248004E-2,-3.0319924E-2,7.196676E-2,-3.0843844E-3,2.578325E-2,-3.4287214E-2],"categories":[],"categories_nodes":[],"categories_segments":[],"categories_sizes":[],"default_left":[0,0,0,0,0,0,0,0,0,0,0,0,0,0,0,0,0,0,0],"id":22,"left_children":[1,3,-1,-1,5,7,-1,9,11,-1,13,15,17,-1,-1,-1,-1,-1,-1],"loss_changes":[1.9840698E0,3.0426292E0,0E0,0E0,4.6333866E0,4.402562E0,0E0,1.1224382E0,3.0658622E0,0E0,1.4735562E0,1.5657225E0,1.109316E0,0E0,0E0,0E0,0E0,0E0,0E0],"parents":[2147483647,0,0,1,1,4,4,5,5,7,7,8,8,10,10,11,11,12,12],"right_children":[2,4,-1,-1,6,8,-1,10,12,-1,14,16,18,-1,-1,-1,-1,-1,-1],"split_conditions":[1E0,1E0,-4.339478E-2,-4.2902395E-2,5.6369056E-5,7.0710677E-1,-4.1762833E-2,1.1E1,1.6448485E0,-3.9544318E-2,2E0,6E0,1.1107082E1,3.7248004E-2,-3.0319924E-2,7.196676E-2,-3.0843844E-3,2.578325E-2,-3.4287214E-2],"split_indices":[0,2,0,0,21,15,0,17,28,0,16,1,26,0,0,0,0,0,0],"split_type":[0,0,0,0,0,0,0,0,0,0,0,0,0,0,0,0,0,0,0],"sum_hessian":[1.631513E3,1.0427975E2,1.5272332E3,5.959138E1,4.468837E1,2.415446E1,2.0533909E1,1.2350794E1,1.1803666E1,8.013553E0,4.3372416E0,7.3544526E0,4.449214E0,2.0903358E0,2.2469056E0,5.7479854E0,1.6064672E0,1.5537739E0,2.8954399E0],"tree_param":{"num_deleted":"0","num_feature":"29","num_nodes":"19","size_leaf_vector":"1"}},{"base_weights":[-2.678884E-1,-4.3363005E-2,1.9936341E-1,3.1987566E-1,-6.0711783E-1,4.4666868E-1,-4.3142807E-2,1.0753402E-2,-4.3173797E-2,5.902378E-1,-2.7152762E-1,6.74466E-1,-4.955428E-1,1.8505892E-1,-4.6995828E-1,7.843603E-2,3.3273716E-2,1.9476637E-2,-4.1598164E-2,5.0364684E-2,-1.905982E-2,-4.312259E-2,-1.5802262E-2],"categories":[],"categories_nodes":[],"categories_segments":[],"categories_sizes":[],"default_left":[0,0,0,0,0,0,0,0,0,0,0,0,0,0,0,0,0,0,0,0,0,0,0],"id":23,"left_children":[1,-1,3,5,7,9,-1,-1,-1,11,13,15,17,19,21,-1,-1,-1,-1,-1,-1,-1,-1],"loss_changes":[2.9380157E2,0E0,7.486957E1,7.970074E1,8.30616E-1,6.0982803E1,0E0,0E0,0E0,4.5321777E1,9.052594E0,4.005197E1,2.9143915E0,7.6985397E0,2.331791E0,0E0,0E0,0E0,0E0,0E0,0E0,0E0,0E0],"parents":[2147483647,0,0,2,2,3,3,4,4,5,5,9,9,10,10,11,11,12,12,13,13,14,14],"right_children":[2,-1,4,6,8,10,-1,-1,-1,12,14,16,18,20,22,-1,-1,-1,-1,-1,-1,-1,-1],"split_conditions":[1E0,-4.3363005E-2,1E0,1E0,3.2798574E0,7.788495E-1,-4.3142807E-2,1.0753402E-2,-4.3173797E-2,1E0,1E0,1.7357647E-2,3E0,1E0,3E0,7.843603E-2,3.3273716E-2,1.9476637E-2,-4.1598164E-2,5.0364684E-2,-1.905982E-2,-4.312259E-2,-1.5802262E-2],"split_indices":[2,0,11,10,24,28,0,0,0,7,0,28,1,7,1,0,0,0,0,0,0,0,0],"split_type":[0,0,0,0,0,0,0,0,0,0,0,0,0,0,0,0,0,0,0,0,0,0,0],"sum_hessian":[1.7866912E3,1.01935376E3,7.673374E2,6.6810596E2,9.923148E1,5.8887537E2,7.923056E1,1.0562038E0,9.817528E1,4.909179E2,9.795749E1,4.5592856E2,3.4989326E1,2.969562E1,6.826187E1,1.3928976E2,3.166388E2,3.7530322E0,3.1236296E1,1.342931E1,1.6266308E1,4.1759983E1,2.6501886E1],"tree_param":{"num_deleted":"0","num_feature":"29","num_nodes":"23","size_leaf_vector":"1"}},{"base_weights":[6.7227364E-1,1.0205637E0,-1.0343997E-1,4.2501763E-1,1.0528036E0,7.2327115E-2,-2.1168603E-1,1.0034889E-1,8.2207724E-2,8.212624E-1,7.699958E-2,-3.9969614E-1,5.286348E-1,-3.146478E-1,7.429903E-2,1.0004494E0,6.0867953E-1,-5.646429E-1,3.2352597E-1,-3.4349808E-1,6.130772E-1,2.875735E-1,-5.270663E-1,-3.1218644E-2,1.0183705E0,4.4932422E-1,9.907806E-1,-4.2992603E-2,-2.5567943E-1,1.1532151E-1,1.19189E0,-4.0117994E-2,6.2137473E-2,4.8623848E-1,1.0476899E0,-7.961521E-3,5.28912E-2,-4.281265E-2,8.529785E-3,7.22723E-2,4.1912783E-2,1.22281145E-2,4.676345E-2,7.2432004E-2,-2.6649826E-3,-4.1716617E-2,-5.3759706E-3,-3.147601E-2,2.7229464E-2,8.67295E-2,2.5423424E-2,2.7188921E-2,7.6134056E-2,2.4456348E-2,7.7094905E-2],"categories":[],"categories_nodes":[],"categories_segments":[],"categories_sizes":[],"default_left":[0,0,0,0,0,0,0,0,0,0,0,0,0,0,0,0,0,0,0,0,0,0,0,0,0,0,0,0,0,0,0,0,0,0,0,0,0,0,0,0,0,0,0,0,0,0,0,0,0,0,0,0,0,0,0],"id":24,"left_children":[1,3,5,7,9,-1,11,13,-1,15,-1,17,19,21,-1,23,25,27,29,31,33,35,37,-1,39,41,43,-1,45,47,49,-1,-1,51,53,-1,-1,-1,-1,-1,-1,-1,-1,-1,-1,-1,-1,-1,-1,-1,-1,-1,-1,-1,-1],"loss_changes":[6.111217E2,2.9521973E1,8.655592E1,1.9792786E1,1.5268433E1,0E0,8.9501564E1,2.354301E1,0E0,9.086395E0,0E0,6.1279526E1,9.810371E0,5.4492784E0,0E0,3.993927E0,6.798725E0,6.231415E0,1.7174118E1,3.9429107E0,6.061798E0,2.2356305E0,1.7734671E0,0E0,1.8115234E-1,5.0363483E0,1.5855255E0,0E0,3.569156E0,1.2287772E1,2.6865387E-1,0E0,0E0,5.115963E0,5.919647E-1,0E0,0E0,0E0,0E0,0E0,0E0,0E0,0E0,0E0,0E0,0E0,0E0,0E0,0E0,0E0,0E0,0E0,0E0,0E0,0E0],"parents":[2147483647,0,0,1,1,2,2,3,3,4,4,6,6,7,7,9,9,11,11,12,12,13,13,15,15,16,16,17,17,18,18,19,19,20,20,21,21,22,22,24,24,25,25,26,26,28,28,29,29,30,30,33,33,34,34],"right_children":[2,4,6,8,10,-1,12,14,-1,16,-1,18,20,22,-1,24,26,28,30,32,34,36,38,-1,40,42,44,-1,46,48,50,-1,-1,52,54,-1,-1,-1,-1,-1,-1,-1,-1,-1,-1,-1,-1,-1,-1,-1,-1,-1,-1,-1,-1],"split_conditions":[1E0,1E0,1E0,1.7382846E-4,1.7357647E-2,7.2327115E-2,1E0,1E0,8.2207724E-2,7.0710677E-1,7.699958E-2,1E0,1.0794034E-2,-1.8369701E-16,7.429903E-2,7.7500885E1,1E0,1E0,1E0,4.5280107E-3,1E0,-9.659258E-1,2.6510048E0,-3.1218644E-2,1E1,4E0,2E1,-4.2992603E-2,1E0,3E0,8E0,-4.0117994E-2,6.2137473E-2,1E0,7.749543E1,-7.961521E-3,5.28912E-2,-4.281265E-2,8.529785E-3,7.22723E-2,4.1912783E-2,1.22281145E-2,4.676345E-2,7.2432004E-2,-2.6649826E-3,-4.1716617E-2,-5.3759706E-3,-3.147601E-2,2.7229464E-2,8.67295E-2,2.5423424E-2,2.7188921E-2,7.6134056E-2,2.4456348E-2,7.7094905E-2],"split_indices":[2,0,1,21,28,0,11,11,0,15,0,10,28,15,0,19,9,7,7,21,9,15,28,0,4,1,3,0,0,16,20,0,0,7,19,0,0,0,0,0,0,0,0,0,0,0,0,0,0,0,0,0,0,0,0],"split_type":[0,0,0,0,0,0,0,0,0,0,0,0,0,0,0,0,0,0,0,0,0,0,0,0,0,0,0,0,0,0,0,0,0,0,0,0,0,0,0,0,0,0,0,0,0,0,0,0,0,0,0,0,0,0,0],"sum_hessian":[2.2605708E3,1.5598798E3,7.00691E2,8.083581E1,1.479044E3,6.018171E1,6.405093E2,5.7191467E1,2.3644337E1,2.5352403E2,1.2255199E3,5.1115714E2,1.2935214E2,4.041327E1,1.6778198E1,1.3555664E2,1.179674E2,4.1640585E2,9.4751274E1,1.1147841E1,1.182043E2,1.0445562E1,2.9967707E1,1.3666489E0,1.3418999E2,8.47841E1,3.3183292E1,3.5801614E2,5.8389725E1,7.734044E1,1.7410831E1,9.84604E0,1.3018018E0,9.314063E1,2.5063667E1,6.031073E0,4.4144897E0,2.6564333E1,3.4033728E0,1.284172E2,5.772789E0,3.8385246E1,4.639886E1,3.1817999E1,1.3652942E0,1.9315481E1,3.9074245E1,2.5028135E1,5.2312305E1,1.6005955E1,1.4048777E0,8.1525185E1,1.1615448E1,2.3246753E0,2.2738993E1],"tree_param":{"num_deleted":"0","num_feature":"29","num_nodes":"55","size_leaf_vector":"1"}},{"base_weights":[-5.9917346E-2,-3.9552435E-1,3.5060647E-1,-6.6638086E-3,-5.790575E-1,2.982609E-2,4.6234524E-1,-2.107346E-1,4.4244537E-1,6.642785E-2,-5.817136E-1,-5.8096044E-2,6.363294E-1,3.72809E-1,6.9791335E-1,7.264169E-4,-5.086355E-1,9.619882E-1,2.7306294E-1,4.27767E-2,-2.7371492E-2,-2.9568836E-1,-5.8296067E-1,-1.7160729E-1,5.575055E-1,-4.0544044E-2,8.3045465E-1,5.205278E-1,1.5915413E-1,8.1476104E-1,-3.3410662E-1,7.772253E-1,-1.1374503E-1,-2.7013904E-1,-4.1670613E-2,1.0787252E0,-2.8006252E-2,-4.048569E-2,4.2022112E-1,6.088964E-3,-3.1521406E-2,-3.3236736E-1,-4.089296E-2,-2.77617E-1,6.407649E-1,1.0460086E0,-3.9846506E-2,-2.9562372E-1,2.4534357E-1,9.6108687E-1,-6.674566E-3,7.057087E-1,2.6655433E-1,6.478565E-2,9.5243603E-1,9.293772E-1,1.7592523E-1,6.512294E-2,-4.8564544E-1,8.703371E-2,-3.6756042E-2,6.8370057E-3,-4.2833544E-2,3.0154095E-4,-3.973003E-2,7.962318E-2,1.66292E-2,3.6148045E-2,-1.3936348E-2,-3.3369426E-2,6.6153198E-3,-3.9981127E-2,3.9079124E-3,-2.0625912E-2,7.914039E-2,2.0475773E-2,7.8898E-2,5.0931997E-3,-3.2565154E-2,3.467593E-2,-4.214774E-3,7.5999126E-2,-6.2942537E-3,3.445194E-2,-3.0247819E-2,2.0667103E-3,5.198271E-2,2.7689328E-2,-1.501772E-2,3.1316955E-2,1.508493E-4,7.203666E-2,-2.3390707E-3,7.679448E-2,5.511397E-2,2.7025776E-2,-3.8681872E-2,2.7116023E-2,-4.1958183E-2],"categories":[],"categories_nodes":[],"categories_segments":[],"categories_sizes":[],"default_left":[0,0,0,0,0,0,0,0,0,0,0,0,0,0,0,0,0,0,0,0,0,0,0,0,0,0,0,0,0,0,0,0,0,0,0,0,0,0,0,0,0,0,0,0,0,0,0,0,0,0,0,0,0,0,0,0,0,0,0,0,0,0,0,0,0,0,0,0,0,0,0,0,0,0,0,0,0,0,0,0,0,0,0,0,0,0,0,0,0,0,0,0,0,0,0,0,0,0,0],"id":25,"left_children":[1,3,5,7,9,11,13,15,17,19,21,23,25,27,29,31,33,35,37,-1,-1,39,41,43,45,47,49,51,53,55,57,59,61,63,-1,65,-1,-1,67,-1,-1,69,-1,71,73,75,-1,77,79,81,83,85,87,89,91,93,95,-1,97,-1,-1,-1,-1,-1,-1,-1,-1,-1,-1,-1,-1,-1,-1,-1,-1,-1,-1,-1,-1,-1,-1,-1,-1,-1,-1,-1,-1,-1,-1,-1,-1,-1,-1,-1,-1,-1,-1,-1,-1],"loss_changes":[2.547029E2,7.258339E1,2.979419E1,3.0074482E1,1.2232513E0,1.1550444E1,1.2747223E1,1.4212003E1,8.759741E0,1.1680602E0,7.30896E-2,1.33368435E1,3.6366673E0,1.4088089E1,2.0615295E1,1.1905199E1,1.774929E0,4.3766785E0,1.0105598E1,0E0,0E0,3.3600733E-1,1.5777588E-2,1.402197E1,1.6962635E1,5.877258E-1,2.3417835E0,1.22762375E1,1.378603E1,1.0953682E1,3.8752966E0,1.1098525E1,1.2354158E1,2.1895056E0,0E0,8.7246704E-1,0E0,0E0,4.1350126E0,0E0,0E0,3.9297616E-1,0E0,1.40185585E1,8.973658E0,9.595051E-1,0E0,2.954399E-1,3.260722E-1,2.5179462E0,1.0352162E0,3.787346E0,7.1205873E0,3.986078E0,1.5150967E0,2.196785E0,3.9384093E0,0E0,1.8819382E0,0E0,0E0,0E0,0E0,0E0,0E0,0E0,0E0,0E0,0E0,0E0,0E0,0E0,0E0,0E0,0E0,0E0,0E0,0E0,0E0,0E0,0E0,0E0,0E0,0E0,0E0,0E0,0E0,0E0,0E0,0E0,0E0,0E0,0E0,0E0,0E0,0E0,0E0,0E0,0E0],"parents":[2147483647,0,0,1,1,2,2,3,3,4,4,5,5,6,6,7,7,8,8,9,9,10,10,11,11,12,12,13,13,14,14,15,15,16,16,17,17,18,18,21,21,22,22,23,23,24,24,25,25,26,26,27,27,28,28,29,29,30,30,31,31,32,32,33,33,35,35,38,38,41,41,43,43,44,44,45,45,47,47,48,48,49,49,50,50,51,51,52,52,53,53,54,54,55,55,56,56,58,58],"right_children":[2,4,6,8,10,12,14,16,18,20,22,24,26,28,30,32,34,36,38,-1,-1,40,42,44,46,48,50,52,54,56,58,60,62,64,-1,66,-1,-1,68,-1,-1,70,-1,72,74,76,-1,78,80,82,84,86,88,90,92,94,96,-1,98,-1,-1,-1,-1,-1,-1,-1,-1,-1,-1,-1,-1,-1,-1,-1,-1,-1,-1,-1,-1,-1,-1,-1,-1,-1,-1,-1,-1,-1,-1,-1,-1,-1,-1,-1,-1,-1,-1,-1,-1],"split_conditions":[1E0,9E0,5E0,2.1E1,1E0,1E0,1E0,7E0,1E0,1E0,3.5200572E-1,1E0,-2.5881904E-1,1E0,1E0,1E0,1E0,1E0,3E0,4.27767E-2,-2.7371492E-2,1.49754925E1,7.750267E1,1E0,9.0938944E-1,1.2071484E-2,7.7645966E1,1.9E1,1E0,1E0,9E0,1.7382846E-4,1.7357647E-2,2E0,-4.1670613E-2,1.3049819E1,-2.8006252E-2,-4.048569E-2,1E0,6.088964E-3,-3.1521406E-2,1.2989118E1,-4.089296E-2,2.705764E-1,3E0,5.03104E0,-3.9846506E-2,7.7499E1,5.7003727E0,1E0,9.591693E0,4.0986724E0,1.2E1,1E0,1.1E1,1.8474825E1,1.1E1,6.512294E-2,7.749543E1,8.703371E-2,-3.6756042E-2,6.8370057E-3,-4.2833544E-2,3.0154095E-4,-3.973003E-2,7.962318E-2,1.66292E-2,3.6148045E-2,-1.3936348E-2,-3.3369426E-2,6.6153198E-3,-3.9981127E-2,3.9079124E-3,-2.0625912E-2,7.914039E-2,2.0475773E-2,7.8898E-2,5.0931997E-3,-3.2565154E-2,3.467593E-2,-4.214774E-3,7.5999126E-2,-6.2942537E-3,3.445194E-2,-3.0247819E-2,2.0667103E-3,5.198271E-2,2.7689328E-2,-1.501772E-2,3.1316955E-2,1.508493E-4,7.203666E-2,-2.3390707E-3,7.679448E-2,5.511397E-2,2.7025776E-2,-3.8681872E-2,2.7116023E-2,-4.1958183E-2],"split_indices":[2,1,1,13,0,7,9,13,0,7,22,11,14,12,11,0,0,7,1,0,0,25,19,10,28,21,19,13,7,10,1,21,28,17,0,18,0,0,9,0,0,18,0,28,1,24,0,19,24,10,25,22,17,16,1,25,1,0,19,0,0,0,0,0,0,0,0,0,0,0,0,0,0,0,0,0,0,0,0,0,0,0,0,0,0,0,0,0,0,0,0,0,0,0,0,0,0,0,0],"split_type":[0,0,0,0,0,0,0,0,0,0,0,0,0,0,0,0,0,0,0,0,0,0,0,0,0,0,0,0,0,0,0,0,0,0,0,0,0,0,0,0,0,0,0,0,0,0,0,0,0,0,0,0,0,0,0,0,0,0,0,0,0,0,0,0,0,0,0,0,0,0,0,0,0,0,0,0,0,0,0,0,0,0,0,0,0,0,0,0,0,0,0,0,0,0,0,0,0,0,0],"sum_hessian":[1.846685E3,1.01607275E3,8.3061237E2,3.2612735E2,6.8994543E2,2.1491112E2,6.1570123E2,2.2460143E2,1.0152591E2,2.7289968E0,6.8721643E2,1.8849066E2,2.6420456E1,4.480037E2,1.6769753E2,1.3194183E2,9.26596E1,2.3811144E1,7.771477E1,1.092418E0,1.6365787E0,4.016856E0,6.831996E2,1.5975462E2,2.8736042E1,6.06483E0,2.0355627E1,2.6402396E2,1.8397975E2,1.5083066E2,1.686687E1,1.6207966E1,1.15733864E2,2.5792532E1,6.686707E1,2.212311E1,1.688033E0,1.1020714E1,6.669405E1,1.2818162E0,2.73504E0,4.6468415E0,6.7855273E2,1.4189627E2,1.785835E1,2.00953E1,8.640743E0,3.1871126E0,2.8777173E0,1.7479858E1,2.8757684E0,1.5166272E2,1.1236124E2,1.6538704E2,1.8592707E1,1.27500465E2,2.3330187E1,1.2551063E0,1.5611765E1,1.1969293E1,4.238674E0,8.1815796E1,3.391807E1,1.3927181E1,1.186535E1,2.034959E1,1.7735199E0,5.7872578E1,8.821476E0,3.3853922E0,1.2614492E0,7.508424E1,6.681203E1,6.2743373E0,1.1584014E1,2.4004967E0,1.7694803E1,1.1847062E0,2.0024066E0,1.2410133E0,1.636704E0,1.5597489E1,1.8823681E0,1.2514849E0,1.6242836E0,7.941535E0,1.4372118E2,8.874233E1,2.3618908E1,2.2400877E1,1.4298616E2,1.7210562E1,1.3821466E0,5.538674E1,7.211372E1,1.84717E1,4.8584867E0,1.5224711E0,1.40892935E1],"tree_param":{"num_deleted":"0","num_feature":"29","num_nodes":"99","size_leaf_vector":"1"}},{"base_weights":[-6.0088915E-1,-4.1848677E-1,-4.2883266E-2,-4.2279772E-2,-1.7571267E-1,1.6965994E-1,-4.1230373E-2,-3.5501558E-1,6.998854E-1,2.367859E-2,-4.8737383E-1,9.0208966E-1,-1.598287E-1,-3.973886E-2,1.110338E-2,7.736891E-2,1.8580418E-2,8.435099E-3,-2.5281562E-2],"categories":[],"categories_nodes":[],"categories_segments":[],"categories_sizes":[],"default_left":[0,0,0,0,0,0,0,0,0,0,0,0,0,0,0,0,0,0,0],"id":26,"left_children":[1,3,-1,-1,5,7,-1,9,11,-1,13,15,17,-1,-1,-1,-1,-1,-1],"loss_changes":[3.1184692E0,4.328356E0,0E0,0E0,6.3889513E0,7.141683E0,0E0,1.3685663E0,2.3450494E0,0E0,6.8285537E-1,1.0519562E0,2.2753009E-1,0E0,0E0,0E0,0E0,0E0,0E0],"parents":[2147483647,0,0,1,1,4,4,5,5,7,7,8,8,10,10,11,11,12,12],"right_children":[2,4,-1,-1,6,8,-1,10,12,-1,14,16,18,-1,-1,-1,-1,-1,-1],"split_conditions":[1E0,1E0,-4.2883266E-2,-4.2279772E-2,1E0,7.0710677E-1,-4.1230373E-2,5E0,1E0,2.367859E-2,3.8922768E0,1.2873553E1,1.2951499E1,-3.973886E-2,1.110338E-2,7.736891E-2,1.8580418E-2,8.435099E-3,-2.5281562E-2],"split_indices":[0,2,0,0,7,15,0,4,9,0,28,22,18,0,0,0,0,0,0],"split_type":[0,0,0,0,0,0,0,0,0,0,0,0,0,0,0,0,0,0,0],"sum_hessian":[1.5764843E3,9.746311E1,1.4790211E3,5.4403835E1,4.3059277E1,2.3778229E1,1.9281048E1,1.2117756E1,1.1660473E1,1.693206E0,1.042455E1,9.4002495E0,2.2602234E0,9.379487E0,1.0450629E0,6.568074E0,2.8321757E0,1.1125963E0,1.1476271E0],"tree_param":{"num_deleted":"0","num_feature":"29","num_nodes":"19","size_leaf_vector":"1"}},{"base_weights":[-2.4850488E-1,2.0407957E-1,-4.282797E-2,-4.604615E-1,3.450913E-1,-8.434692E-2,-4.274829E-2,4.7570157E-1,-5.970189E-1,4.514426E-1,-2.7268764E-1,5.8279026E-1,-3.4760672E-1,-3.5561944E-4,-4.2642497E-2,9.031833E-1,-3.486868E-2,7.19039E-2,-5.5178046E-1,6.718161E-1,-4.3792185E-1,3.3203378E-1,-4.499214E-1,8.647824E-2,7.379062E-3,8.6528525E-2,-1.8493868E-2,9.398892E-3,-4.249131E-2,5.890756E-2,1.308487E-2,4.2266995E-2,-4.3203883E-2,-1.35503905E-2,5.863797E-2,-4.2397976E-2,-1.30916005E-2],"categories":[],"categories_nodes":[],"categories_segments":[],"categories_sizes":[],"default_left":[0,0,0,0,0,0,0,0,0,0,0,0,0,0,0,0,0,0,0,0,0,0,0,0,0,0,0,0,0,0,0,0,0,0,0,0,0],"id":27,"left_children":[1,3,-1,5,7,9,-1,11,13,15,17,19,21,-1,-1,23,-1,25,27,29,31,33,35,-1,-1,-1,-1,-1,-1,-1,-1,-1,-1,-1,-1,-1,-1],"loss_changes":[2.910155E2,7.404783E1,0E0,7.771637E0,8.03947E1,4.227963E0,0E0,5.0663513E1,5.7065773E-1,5.149824E0,2.9942465E0,4.634987E1,4.7737513E0,0E0,0E0,1.9317374E0,0E0,6.052123E0,7.291193E-1,3.8239136E1,8.079206E0,2.6277096E0,2.2710505E0,0E0,0E0,0E0,0E0,0E0,0E0,0E0,0E0,0E0,0E0,0E0,0E0,0E0,0E0],"parents":[2147483647,0,0,1,1,3,3,4,4,5,5,7,7,8,8,9,9,10,10,11,11,12,12,15,15,17,17,18,18,19,19,20,20,21,21,22,22],"right_children":[2,4,-1,6,8,10,-1,12,14,16,18,20,22,-1,-1,24,-1,26,28,30,32,34,36,-1,-1,-1,-1,-1,-1,-1,-1,-1,-1,-1,-1,-1,-1],"split_conditions":[1E0,6.123234E-17,-4.282797E-2,-7.0710677E-1,1E0,7.2347105E-1,-4.274829E-2,2.5158563E0,3.63898E0,1E0,1E0,1E0,1E0,-3.5561944E-4,-4.2642497E-2,1.3069496E1,-3.486868E-2,1E0,1.2849749E1,5E0,3E0,1.9030882E1,1.1E1,8.647824E-2,7.379062E-3,8.6528525E-2,-1.8493868E-2,9.398892E-3,-4.249131E-2,5.890756E-2,1.308487E-2,4.2266995E-2,-4.3203883E-2,-1.35503905E-2,5.863797E-2,-4.2397976E-2,-1.30916005E-2],"split_indices":[8,15,0,15,11,28,0,28,24,7,0,7,0,0,0,18,0,7,18,16,1,25,1,0,0,0,0,0,0,0,0,0,0,0,0,0,0],"split_type":[0,0,0,0,0,0,0,0,0,0,0,0,0,0,0,0,0,0,0,0,0,0,0,0,0,0,0,0,0,0,0,0,0,0,0,0,0],"sum_hessian":[1.7680369E3,7.8750104E2,9.805358E2,1.3745523E2,6.5004584E2,3.9678032E1,9.77772E1,5.7133356E2,7.871224E1,9.956616E0,2.9721416E1,5.0583157E2,6.550198E1,1.612905E0,7.7099335E1,6.779993E0,3.1766238E0,1.3632253E1,1.6089163E1,4.6556696E2,4.026463E1,8.276812E0,5.7225174E1,4.399362E0,2.380631E0,2.4540155E0,1.1178237E1,1.0922946E0,1.4996868E1,3.4431473E2,1.2125222E2,5.564205E0,3.4700424E1,4.3609247E0,3.9158874E0,3.5115704E1,2.210947E1],"tree_param":{"num_deleted":"0","num_feature":"29","num_nodes":"37","size_leaf_vector":"1"}},{"base_weights":[6.311612E-1,9.536463E-1,-1.051515E-1,4.3910488E-1,9.796757E-1,9.8779356E-1,-2.1259274E-1,1.1886622E-1,7.644167E-2,8.2420737E-1,7.1462E-2,2.2952298E-2,7.057132E-2,-4.108342E-1,5.2647316E-1,-2.7807793E-1,6.9524854E-2,7.487584E-2,6.9179136E-1,-5.66404E-1,2.231801E-1,4.2598638E-1,1.0750942E0,2.1773985E-1,-4.6687648E-1,8.2029456E-1,3.738702E-1,-4.2361405E-2,-2.7729777E-1,5.4381084E-2,1.1073625E0,3.0527925E-1,8.3672345E-1,4.9555907E-1,7.958837E-2,-7.198995E-3,5.7017017E-2,-4.045565E-2,-7.1799657E-3,4.4326287E-2,7.2888836E-2,4.8545387E-2,8.103094E-3,-5.3740544E-3,-3.5691526E-2,-8.771131E-3,5.42063E-2,8.104242E-2,2.4391348E-2,1.3312817E-2,5.1998664E-2,2.4414511E-2,6.604161E-2,5.1327147E-2,1.59226E-3],"categories":[],"categories_nodes":[],"categories_segments":[],"categories_sizes":[],"default_left":[0,0,0,0,0,0,0,0,0,0,0,0,0,0,0,0,0,0,0,0,0,0,0,0,0,0,0,0,0,0,0,0,0,0,0,0,0,0,0,0,0,0,0,0,0,0,0,0,0,0,0,0,0,0,0],"id":28,"left_children":[1,3,5,7,9,11,13,15,-1,17,-1,-1,-1,19,21,23,-1,-1,25,27,29,31,33,35,37,39,41,-1,43,45,47,49,51,53,-1,-1,-1,-1,-1,-1,-1,-1,-1,-1,-1,-1,-1,-1,-1,-1,-1,-1,-1,-1,-1],"loss_changes":[5.414939E2,2.0807129E1,8.186258E1,1.621387E1,8.823364E0,5.0834274E-1,9.309574E1,1.8867075E1,0E0,9.701675E0,0E0,0E0,0E0,4.948414E1,6.9577446E0,3.6234224E0,0E0,0E0,8.334625E0,4.337921E0,1.4762157E1,5.463375E0,1.5983963E-1,2.1992E0,1.0559983E0,5.532524E0,5.09445E0,0E0,2.2638993E0,1.102164E1,2.0339012E-1,4.427662E0,1.0054035E0,4.0119123E-1,0E0,0E0,0E0,0E0,0E0,0E0,0E0,0E0,0E0,0E0,0E0,0E0,0E0,0E0,0E0,0E0,0E0,0E0,0E0,0E0,0E0],"parents":[2147483647,0,0,1,1,2,2,3,3,4,4,5,5,6,6,7,7,9,9,13,13,14,14,15,15,18,18,19,19,20,20,21,21,22,22,23,23,24,24,25,25,26,26,28,28,29,29,30,30,31,31,32,32,33,33],"right_children":[2,4,6,8,10,12,14,16,-1,18,-1,-1,-1,20,22,24,-1,-1,26,28,30,32,34,36,38,40,42,-1,44,46,48,50,52,54,-1,-1,-1,-1,-1,-1,-1,-1,-1,-1,-1,-1,-1,-1,-1,-1,-1,-1,-1,-1,-1],"split_conditions":[1E0,1E0,1E0,1E0,5E0,2.8168817E0,1E0,1E0,7.644167E-2,3E0,7.1462E-2,2.2952298E-2,7.057132E-2,1E0,1E0,-1.8369701E-16,6.9524854E-2,7.487584E-2,2.1E1,1.5189893E-3,1E0,1E0,1E0,1.4E1,6E0,7E0,1.7702244E1,-4.2361405E-2,1.7792981E-2,1.1E1,8E0,1.2E1,9E0,2E0,7.958837E-2,-7.198995E-3,5.7017017E-2,-4.045565E-2,-7.1799657E-3,4.4326287E-2,7.2888836E-2,4.8545387E-2,8.103094E-3,-5.3740544E-3,-3.5691526E-2,-8.771131E-3,5.42063E-2,8.104242E-2,2.4391348E-2,1.3312817E-2,5.1998664E-2,2.4414511E-2,6.604161E-2,5.1327147E-2,1.59226E-3],"split_indices":[2,0,1,7,1,26,11,11,0,1,0,0,0,10,7,15,0,0,13,21,7,9,0,3,1,13,25,0,21,1,20,17,1,17,0,0,0,0,0,0,0,0,0,0,0,0,0,0,0,0,0,0,0,0,0],"split_type":[0,0,0,0,0,0,0,0,0,0,0,0,0,0,0,0,0,0,0,0,0,0,0,0,0,0,0,0,0,0,0,0,0,0,0,0,0,0,0,0,0,0,0,0,0,0,0,0,0,0,0,0,0,0,0],"sum_hessian":[2.2790322E3,1.5846868E3,6.9434534E2,7.716577E1,1.5075211E3,6.1414375E1,6.3293097E2,5.256577E1,2.46E1,3.202707E2,1.1872504E3,2.3507574E0,5.9063618E1,4.9941562E2,1.3351535E2,3.6621803E1,1.5943965E1,1.0975325E2,2.1051744E2,4.0110263E2,9.831299E1,1.1434762E2,1.9167734E1,1.0057023E1,2.656478E1,1.4879468E2,6.172276E1,3.5272186E2,4.838079E1,8.344418E1,1.4868802E1,8.97231E1,2.4624516E1,2.7183375E0,1.6449396E1,7.0809546E0,2.9760685E0,1.9908968E1,6.6558123E0,8.267408E1,6.6120605E1,2.6821379E1,3.490138E1,2.6695068E1,2.1685722E1,6.743978E1,1.6004404E1,1.3450271E1,1.4185314E0,7.2173195E1,1.7549904E1,5.1854324E0,1.9439083E1,1.4424121E0,1.2759253E0],"tree_param":{"num_deleted":"0","num_feature":"29","num_nodes":"55","size_leaf_vector":"1"}},{"base_weights":[-5.237071E-2,-3.8649607E-1,3.5259655E-1,1.999017E-3,-5.739784E-1,-4.7681588E-1,3.9198723E-1,1.05701596E-1,-4.16388E-2,-5.7994413E-1,-4.52408E-1,7.5524906E-3,-4.979784E-1,1.3311385E-1,4.7426882E-1,6.5660095E-1,-3.958252E-2,-4.0247846E-1,-4.0879156E-2,-4.0241893E-2,-2.9465824E-1,-5.1583135E-1,-2.3621202E-1,3.9207277E-1,-1.991579E-1,3.8892898E-1,7.0591295E-1,1.0170721E0,-5.2097666E-1,1.3981302E-1,-5.593001E-1,9.888582E-2,-5.001337E-1,4.1529387E-2,-3.9285123E-1,-2.618113E-1,-3.756636E-2,-2.873993E-2,6.4591835E-3,6.612879E-1,2.0488937E-1,-4.513345E-1,8.4818023E-1,5.347974E-1,1.8793921E-1,8.217909E-1,-3.110071E-1,7.876145E-2,3.238273E-2,9.928386E-3,-4.0972993E-2,2.1850329E-2,-1.7773094E-2,-5.996519E-3,-4.1422646E-2,3.9993573E-2,-2.5392795E-2,-3.9153907E-2,-6.9769123E-3,-3.4156393E-2,-5.854126E-4,-3.0273775E-2,7.083429E-3,3.2332633E-2,6.240333E-2,-2.5391567E-2,2.58847E-2,-3.7824597E-2,2.2402992E-2,3.8865895E-4,7.139228E-2,4.281257E-2,1.979938E-2,7.2318013E-3,5.6394573E-2,6.44419E-2,1.5846241E-2,-3.313145E-2,-4.743117E-3],"categories":[],"categories_nodes":[],"categories_segments":[],"categories_sizes":[],"default_left":[0,0,0,0,0,0,0,0,0,0,0,0,0,0,0,0,0,0,0,0,0,0,0,0,0,0,0,0,0,0,0,0,0,0,0,0,0,0,0,0,0,0,0,0,0,0,0,0,0,0,0,0,0,0,0,0,0,0,0,0,0,0,0,0,0,0,0,0,0,0,0,0,0,0,0,0,0,0,0],"id":29,"left_children":[1,3,5,7,9,11,13,15,-1,17,19,-1,21,23,25,27,29,31,-1,-1,33,35,37,39,41,43,45,47,49,51,53,55,57,-1,59,61,-1,-1,-1,63,65,67,69,71,73,75,77,-1,-1,-1,-1,-1,-1,-1,-1,-1,-1,-1,-1,-1,-1,-1,-1,-1,-1,-1,-1,-1,-1,-1,-1,-1,-1,-1,-1,-1,-1,-1,-1],"loss_changes":[2.4642937E2,7.267827E1,2.7088211E1,2.0227207E1,2.2573853E-1,5.2125454E-1,1.6692154E1,2.2309177E1,0E0,2.2280884E-1,5.267134E-1,0E0,4.9390793E-2,1.6522095E1,1.1517426E1,2.5216753E1,2.07068E1,9.029074E-1,0E0,0E0,1.7849104E0,3.653431E-2,2.7753377E-1,5.293844E0,2.2665943E1,1.2744835E1,1.9035095E1,2.168419E0,6.926007E-1,1.1293537E1,8.250332E-1,1.0091431E0,2.940917E-1,0E0,6.03899E-1,3.218318E-1,0E0,0E0,0E0,1.5957584E0,6.218106E0,4.8868103E0,2.4134417E0,4.7297516E0,9.629188E0,8.224457E0,6.4016294E-1,0E0,0E0,0E0,0E0,0E0,0E0,0E0,0E0,0E0,0E0,0E0,0E0,0E0,0E0,0E0,0E0,0E0,0E0,0E0,0E0,0E0,0E0,0E0,0E0,0E0,0E0,0E0,0E0,0E0,0E0,0E0,0E0],"parents":[2147483647,0,0,1,1,2,2,3,3,4,4,5,5,6,6,7,7,9,9,10,10,12,12,13,13,14,14,15,15,16,16,17,17,20,20,21,21,22,22,23,23,24,24,25,25,26,26,27,27,28,28,29,29,30,30,31,31,32,32,34,34,35,35,39,39,40,40,41,41,42,42,43,43,44,44,45,45,46,46],"right_children":[2,4,6,8,10,12,14,16,-1,18,20,-1,22,24,26,28,30,32,-1,-1,34,36,38,40,42,44,46,48,50,52,54,56,58,-1,60,62,-1,-1,-1,64,66,68,70,72,74,76,78,-1,-1,-1,-1,-1,-1,-1,-1,-1,-1,-1,-1,-1,-1,-1,-1,-1,-1,-1,-1,-1,-1,-1,-1,-1,-1,-1,-1,-1,-1,-1,-1],"split_conditions":[1E0,9E0,1E0,1E0,1E1,2.8168817E0,1.7357647E-2,1E0,-4.16388E-2,1E1,8.211492E0,7.5524906E-3,9E0,1E0,1E0,1E0,1.7357647E-2,1.3426164E1,-4.0879156E-2,-4.0241893E-2,8.532481E0,1E0,1.2992926E1,1.762998E1,1E0,1E0,1E0,6E0,1.7987487E0,1E0,1.2915541E1,2E0,2.1853647E1,4.1529387E-2,1.0732568E1,3.6343963E0,-3.756636E-2,-2.873993E-2,6.4591835E-3,4E0,1.25809355E1,9E0,3E0,1.3034981E1,2.5158563E0,1E0,6E0,7.876145E-2,3.238273E-2,9.928386E-3,-4.0972993E-2,2.1850329E-2,-1.7773094E-2,-5.996519E-3,-4.1422646E-2,3.9993573E-2,-2.5392795E-2,-3.9153907E-2,-6.9769123E-3,-3.4156393E-2,-5.854126E-4,-3.0273775E-2,7.083429E-3,3.2332633E-2,6.240333E-2,-2.5391567E-2,2.58847E-2,-3.7824597E-2,2.2402992E-2,3.8865895E-4,7.139228E-2,4.281257E-2,1.979938E-2,7.2318013E-3,5.6394573E-2,6.44419E-2,1.5846241E-2,-3.313145E-2,-4.743117E-3],"split_indices":[2,1,1,11,5,26,28,0,0,1,24,0,4,12,9,7,28,25,0,0,24,20,18,25,7,12,11,1,24,9,18,16,25,0,23,23,0,0,0,17,26,1,1,18,28,10,16,0,0,0,0,0,0,0,0,0,0,0,0,0,0,0,0,0,0,0,0,0,0,0,0,0,0,0,0,0,0,0,0],"split_type":[0,0,0,0,0,0,0,0,0,0,0,0,0,0,0,0,0,0,0,0,0,0,0,0,0,0,0,0,0,0,0,0,0,0,0,0,0,0,0,0,0,0,0,0,0,0,0,0,0,0,0,0,0,0,0,0,0,0,0,0,0,0,0,0,0,0,0,0,0,0,0,0,0,0,0,0,0,0,0],"sum_hessian":[1.8192161E3,9.968188E2,8.223972E2,3.2478952E2,6.7202924E2,3.6783207E1,7.85614E2,2.7741135E2,4.7378162E1,6.369999E2,3.5029366E1,1.1416528E0,3.5641552E1,1.9011002E2,5.95504E2,5.715756E1,2.2025378E2,1.6431303E1,6.205686E2,1.8230783E1,1.6798584E1,3.2457325E1,3.1842287E0,1.06740715E2,8.33693E1,4.371375E2,1.583665E2,4.3865948E1,1.3291613E1,1.642791E2,5.5974693E1,2.6766613E0,1.37546425E1,1.1706581E0,1.5627926E1,3.4882865E0,2.8969038E1,1.9168758E0,1.2673528E0,4.2738934E1,6.400178E1,6.764975E1,1.5719548E1,2.5234053E2,1.84797E2,1.423389E2,1.602761E1,3.5848125E1,8.017822E0,1.0697157E0,1.2221897E1,1.1440815E2,4.987095E1,3.8226738E0,5.215202E1,1.2054043E0,1.4712569E0,1.1637344E1,2.1172976E0,1.2313328E1,3.314598E0,2.242528E0,1.2457587E0,2.451243E1,1.8226505E1,1.4136907E1,4.9864876E1,6.091918E1,6.7305703E0,2.835799E0,1.2883749E1,1.922902E2,6.0050323E1,1.635562E2,2.1240791E1,1.2161163E2,2.0727259E1,9.046116E0,6.981495E0],"tree_param":{"num_deleted":"0","num_feature":"29","num_nodes":"79","size_leaf_vector":"1"}},{"base_weights":[-5.942982E-1,-5.4888386E-1,-4.1998092E-2,-2.9608804E-1,-5.7120407E-1,-4.4756103E-1,4.2180926E-2,-4.0629815E-2,-3.6146128E-1,9.069674E-2,-3.932028E-2,-3.706954E-2,-2.7626036E-2,-2.5402628E-2,3.7001953E-2,3.9877877E-2,-2.9589301E-2],"categories":[],"categories_nodes":[],"categories_segments":[],"categories_sizes":[],"default_left":[0,0,0,0,0,0,0,0,0,0,0,0,0,0,0,0,0],"id":30,"left_children":[1,3,-1,5,7,9,-1,-1,11,13,-1,-1,15,-1,-1,-1,-1],"loss_changes":[6.70166E-2,8.608551E-1,0E0,2.5682755E0,1.1254883E-1,9.7411466E-1,0E0,0E0,5.280192E-1,8.8500863E-1,0E0,0E0,1.2540011E0,0E0,0E0,0E0,0E0],"parents":[2147483647,0,0,1,1,3,3,4,4,5,5,8,8,9,9,12,12],"right_children":[2,4,-1,6,8,10,-1,-1,12,14,-1,-1,16,-1,-1,-1,-1],"split_conditions":[3E0,2.705764E-1,-4.1998092E-2,1.4565266E1,3.8922768E0,6.0746493E0,4.2180926E-2,-4.0629815E-2,4.9E1,2.118114E0,-3.932028E-2,-3.706954E-2,6.1399856E0,-2.5402628E-2,3.7001953E-2,3.9877877E-2,-2.9589301E-2],"split_indices":[1,28,0,23,28,22,0,0,6,22,0,0,23,0,0,0,0],"split_type":[0,0,0,0,0,0,0,0,0,0,0,0,0,0,0,0,0],"sum_hessian":[1.5367128E3,1.8154193E2,1.3551709E3,1.5885866E1,1.6565607E2,1.402406E1,1.8618063E0,1.5698643E2,8.669628E0,2.4898396E0,1.1534221E1,5.3761487E0,3.2934792E0,1.3071485E0,1.182691E0,1.1352172E0,2.158262E0],"tree_param":{"num_deleted":"0","num_feature":"29","num_nodes":"17","size_leaf_vector":"1"}},{"base_weights":[-2.3792347E-1,1.970946E-1,-4.232232E-2,3.0838212E-1,-5.939544E-1,-4.4124562E-1,4.5725003E-1,1.1314727E-2,